[n]
1

[smoother]
kylm.model.ngram.smoother.KNSmoother

[max_length]
7666

[vocab_cutoff]
0

[start_symbol]
<s>

[terminal_symbol]
</s>

[unknown_symbol]
<unk>

\data\
ngram 1=40793

\1-grams: 
-99.0000	<s>
-1.6225	</s>
-0.4591	<unk>
-3.8267	you
-4.9144	i
-1.2189	the
-1.6993	to
-1.7074	a
-2.5981	it
-1.5412	and
-2.2599	that
-1.4742	of
-1.6079	in
-3.5457	what
-1.9932	is
-4.2858	me
-3.7833	we
-2.4401	he
-2.8019	this
-2.1009	for
-4.0179	my
-2.1512	on
-4.2639	your
-2.7721	have
-3.6179	do
-3.2460	no
-5.8581	don
-2.5106	are
-2.5998	be
-2.7552	not
-1.9184	was
-3.0662	can
-4.2288	know
-2.1667	with
-2.9890	all
-2.7573	but
-4.2699	here
-3.1686	there
-2.9013	they
-3.3774	so
-3.8094	get
-3.5471	just
-3.8762	go
-3.4826	like
-3.0785	up
-3.9245	come
-3.8067	right
-3.0100	she
-3.1670	him
-3.1186	out
-3.4856	if
-2.3089	at
-3.4062	now
-2.7894	one
-3.0936	about
-3.7663	how
-6.2853	oh
-4.3010	want
-4.0010	got
-2.8361	her
-3.2472	will
-3.2393	well
-3.8737	see
-3.8368	good
-4.4412	let
-6.0089	yes
-4.3364	think
-2.1280	as
-2.7562	who
-4.4004	why
-7.0790	yeah
-3.4113	did
-2.3021	from
-2.3502	his
-2.9819	when
-3.9938	going
-3.8927	man
-3.6228	take
-3.0413	where
-3.1194	time
-3.3225	them
-3.4573	back
-2.4346	an
-4.3982	us
-4.2862	look
-2.6276	or
-3.0137	would
-4.3248	say
-2.4867	were
-2.8163	been
-3.1152	then
-2.6314	had
-4.5214	tell
-3.1278	some
-4.0180	our
-6.2365	okay
-2.1691	by
-3.9685	too
-5.6051	gonna
-3.6181	down
-3.3998	could
-6.9049	hey
-8.9423	didn
-4.2490	something
-3.7156	never
-3.6692	way
-3.4488	very
-2.9929	more
-4.3281	really
-2.6143	has
-3.5667	make
-3.0462	over
-5.3811	please
-3.0257	only
-4.0604	love
-3.9714	give
-3.9024	little
-4.0170	need
-3.3488	people
-3.5792	off
-2.8460	two
-3.5492	said
-5.6882	sorry
-5.5180	thank
-4.5049	am
-6.7825	sir
-3.7382	should
-4.4537	mean
-3.3656	any
-3.4238	because
-3.5360	much
-4.7834	sure
-3.5703	even
-4.3156	doing
-4.4257	nothing
-3.7613	must
-3.2910	these
-4.6339	thing
-3.8130	help
-4.8750	god
-3.7036	day
-2.6996	first
-3.3044	won
-3.6222	life
-4.5512	anything
-3.6537	again
-3.8659	away
-4.2196	stop
-4.9000	wait
-4.1100	night
-3.9268	find
-2.9197	into
-3.3185	work
-3.4736	still
-3.8667	put
-3.4808	home
-4.1298	call
-3.2154	before
-4.0014	better
-2.7147	their
-2.9130	other
-4.4984	talk
-2.9069	after
-5.3007	maybe
-3.7740	great
-3.1089	than
-3.4682	those
-3.9944	always
-4.0118	thought
-3.6163	long
-4.0463	money
-3.7486	old
-4.5745	everything
-4.1293	leave
-4.1368	keep
-3.0513	new
-4.0695	told
-4.3281	things
-3.2987	name
-3.4879	last
-3.7905	father
-3.4096	around
-3.1697	years
-3.7557	does
-6.6993	hello
-3.9382	ever
-3.4634	place
-4.2522	big
-5.2401	nice
-9.2434	doesn
-7.5999	uh
-8.3403	isn
-4.5067	feel
-4.4376	girl
-4.3350	stay
-4.3116	believe
-4.7301	thanks
-3.0856	made
-3.9908	mother
-5.1174	listen
-3.1279	three
-3.2085	may
-5.2336	guy
-4.7534	hear
-4.5947	understand
-6.0767	shit
-4.1858	coming
-3.7185	world
-4.0838	enough
-3.4882	left
-4.4481	fine
-3.6414	every
-6.6370	ok
-4.9657	remember
-3.7360	house
-4.0437	course
-4.0801	done
-4.5423	boy
-4.8466	wrong
-4.5190	bad
-2.5328	which
-4.1430	woman
-3.5306	another
-4.3271	lot
-4.2978	kind
-4.1082	wanted
-3.1623	through
-6.1420	fuck
-5.3699	guys
-3.5526	came
-4.7426	ask
-4.3702	kill
-3.6609	son
-4.2928	today
-4.3894	dead
-3.5725	show
-3.4756	own
-4.6064	happened
-4.1804	care
-4.6027	mind
-4.2529	someone
-4.3654	try
-6.5392	hi
-3.1488	being
-3.3081	same
-3.9822	car
-5.5965	yourself
-4.0354	might
-5.6209	dad
-5.1284	miss
-4.3959	morning
-4.7629	else
-5.5344	hell
-3.1420	many
-3.7991	men
-4.1659	friend
-4.7781	baby
-3.6003	next
-4.8413	talking
-3.9958	move
-5.9551	fucking
-8.0972	huh
-3.7561	live
-4.3895	looking
-4.1763	hold
-4.0136	real
-4.3521	getting
-3.6333	without
-3.8514	saw
-3.5598	went
-3.7823	seen
-8.9423	wouldn
-4.2038	room
-3.5795	best
-6.1179	wanna
-3.8168	together
-3.3391	found
-6.1248	tomorrow
-3.8765	wife
-4.2417	job
-3.7817	once
-6.2044	gotta
-3.0856	such
-8.3403	wasn
-4.3990	matter
-3.7298	head
-3.0673	most
-4.3408	heard
-4.2790	alone
-4.6135	ready
-5.6644	haven
-7.5191	ain
-4.7850	happy
-3.9584	already
-3.8090	days
-3.9857	brother
-3.7414	run
-3.6194	play
-6.3946	tonight
-4.5893	door
-4.2268	bring
-5.7916	mom
-5.2806	myself
-3.8295	open
-4.1267	yet
-4.3136	trying
-4.5252	knew
-4.1154	whole
-4.1597	meet
-5.5555	excuse
-3.3737	family
-3.0823	used
-3.2123	while
-4.6906	die
-3.3580	use
-3.9338	start
-3.3791	took
-5.0481	pretty
-4.5856	gone
-3.2624	called
-4.1298	idea
-3.3401	since
-4.6631	watch
-4.0832	turn
-4.6622	hope
-3.3871	year
-5.4870	guess
-3.4215	end
-8.7663	couldn
-4.8496	sit
-4.5735	beautiful
-4.2371	hard
-4.2558	says
-4.2299	hand
-4.6142	bit
-3.3348	school
-3.2129	both
-5.5180	worry
-4.5515	s
-4.5607	minute
-4.2253	true
-4.2458	friends
-4.1735	face
-3.8906	soon
-3.7169	lost
-5.3183	forget
-5.4681	bye
-3.7836	young
-3.7809	business
-3.5256	five
-3.9089	killed
-4.2611	heart
-3.6055	few
-4.2864	problem
-4.5606	wants
-3.1955	later
-4.8456	eat
-4.6349	everyone
-4.9077	drink
-5.9757	damn
-4.9246	ago
-4.7560	shut
-4.2142	pay
-3.9379	police
-5.3842	everybody
-3.3611	each
-3.6961	water
-4.6283	anyone
-5.6652	dear
-2.6167	also
-4.5485	shall
-4.7027	looks
-4.2021	saying
-3.2112	until
-5.5614	crazy
-3.5594	late
-4.6004	phone
-4.6834	eyes
-5.5574	kid
-4.5687	easy
-6.9739	ah
-4.9409	sleep
-4.5638	mine
-5.1921	afraid
-4.7561	doctor
-3.6829	death
-5.3205	nobody
-3.3456	four
-3.1257	under
-3.2264	second
-3.4666	music
-5.5064	somebody
-5.4527	t
-3.9301	change
-3.9547	far
-4.3890	hands
-8.6413	aren
-5.0151	kids
-4.8053	knows
-4.1164	actually
-3.9413	hit
-3.7507	children
-3.8481	case
-4.7388	thinking
-4.7323	waiting
-2.7437	its
-3.7635	gave
-4.3164	read
-3.8216	times
-4.1977	minutes
-4.5153	speak
-5.9395	anyway
-4.4110	stand
-3.1385	part
-4.7722	wish
-4.0336	word
-3.5972	having
-4.1702	cut
-5.3932	stuff
-4.1012	comes
-3.8056	war
-3.6321	married
-3.2540	number
-4.9848	happen
-6.0719	hurry
-4.0032	fire
-4.2775	quite
-4.1460	fight
-3.9773	rest
-3.8426	close
-5.9725	l
-4.8757	check
-4.1790	inside
-5.1076	hurt
-3.8343	half
-4.1236	probably
-7.4372	mr
-4.6531	moment
-3.2016	against
-4.4565	girls
-4.0480	makes
-3.7185	working
-4.6598	exactly
-5.1344	lady
-3.9061	women
-4.0707	asked
-3.4861	set
-4.5569	boys
-3.9169	taking
-4.1469	husband
-3.8255	story
-3.5012	town
-4.4379	chance
-4.1481	child
-6.1744	ass
-6.4545	yours
-3.6762	important
-4.9350	whatever
-3.5218	different
-4.8868	trouble
-5.0581	lord
-3.7778	point
-4.1140	deal
-4.1930	sister
-4.2138	goes
-5.2624	o
-3.8357	party
-4.1303	week
-4.6730	walk
-3.9146	daughter
-3.9207	means
-5.3886	honey
-4.6964	dog
-4.0772	shot
-3.4642	high
-4.8326	bed
-4.4203	gun
-3.4801	game
-4.0289	person
-3.8705	body
-4.3103	break
-3.8462	free
-4.3998	captain
-3.7113	making
-3.6567	side
-5.8830	anymore
-3.8149	country
-4.9268	fun
-3.8479	almost
-4.5848	buy
-3.8571	least
-4.7855	truth
-3.6489	six
-3.4336	along
-3.9540	met
-3.4135	city
-3.9230	behind
-4.5506	send
-3.7530	though
-4.1521	hours
-3.0579	between
-4.3307	blood
-3.9601	light
-4.6207	supposed
-5.8072	stupid
-3.8559	brought
-3.5182	died
-4.3812	gets
-5.3597	funny
-4.4692	ahead
-4.7233	answer
-3.8051	full
-5.1473	welcome
-3.5772	started
-3.9342	black
-4.4131	question
-3.6150	line
-3.9290	front
-6.5118	bitch
-5.2489	hate
-6.2796	um
-4.7989	shoot
-3.9333	white
-4.2071	poor
-4.5599	hot
-3.6113	order
-5.5624	anybody
-7.4440	jesus
-5.1882	ha
-3.9099	sometimes
-4.3291	reason
-4.2230	king
-4.1990	tried
-4.3366	seems
-3.8137	either
-3.9042	outside
-4.1144	m
-4.2729	couple
-6.0277	ma
-4.7643	trust
-3.9104	months
-4.9256	alive
-4.5774	hour
-4.6125	pick
-3.7994	able
-5.0612	sick
-4.3969	perhaps
-4.4095	save
-4.2233	clear
-3.8692	office
-5.8314	gentlemen
-7.1981	john
-3.5638	become
-3.6568	book
-3.6987	living
-3.7235	playing
-4.0835	food
-6.8334	daddy
-4.6874	telling
-4.9986	cool
-4.2809	dance
-4.1439	red
-4.1128	news
-4.0283	leaving
-4.6134	lose
-4.6283	cold
-4.9119	promise
-4.6024	evening
-4.8586	touch
-3.6929	power
-5.6217	scared
-4.9645	boss
-4.0425	fact
-5.0049	dinner
-5.7350	jack
-4.4921	master
-4.7808	uncle
-3.7958	himself
-3.4709	small
-6.5290	darling
-5.0416	quiet
-4.3361	write
-8.6413	hmm
-3.7585	taken
-3.9451	ten
-5.3365	luck
-3.8182	sent
-4.7474	feeling
-4.1801	cannot
-3.9140	air
-4.8113	earth
-5.6489	glad
-8.1294	lf
-3.7822	law
-4.6549	till
-4.3360	serious
-5.2855	wonderful
-4.3350	needs
-4.8709	dream
-4.2888	street
-4.3379	drive
-4.6485	hair
-4.6957	sort
-3.9759	others
-3.9794	running
-5.4615	bet
-4.1511	lives
-3.5224	company
-4.3665	follow
-8.0673	whoa
-3.8226	special
-4.5286	fast
-5.0186	sweet
-4.1471	sound
-4.7963	catch
-4.2355	words
-5.1355	careful
-3.8453	human
-5.7601	d
-5.7170	goodbye
-4.6266	safe
-4.6335	perfect
-5.2712	hang
-4.3711	beat
-3.6731	million
-3.8565	rather
-4.9928	happens
-3.6460	top
-4.2001	parents
-6.8614	alright
-4.1054	plan
-4.6003	seem
-6.1192	ya
-3.6992	general
-3.1106	known
-4.8790	coffee
-5.3169	ladies
-6.8284	wow
-5.4521	lucky
-3.7683	win
-3.9484	possible
-4.0618	past
-5.2610	calm
-4.9220	pull
-4.8087	lie
-4.6025	y
-4.3238	sign
-3.7727	control
-3.8390	return
-4.3905	straight
-4.1250	fall
-3.3019	team
-4.0298	longer
-5.7350	laughing
-5.3239	kiss
-4.7295	asking
-5.3096	tired
-4.2989	feet
-4.4940	learn
-4.6298	drop
-4.8200	e
-5.4442	mad
-5.6232	suppose
-4.8075	quick
-4.9076	wake
-4.9620	strange
-4.6858	marry
-4.1356	train
-4.8521	throw
-4.8676	loved
-3.8852	road
-4.7585	sounds
-3.7222	land
-4.2101	felt
-5.1091	somewhere
-4.5309	picture
-4.5166	step
-3.9410	president
-4.5992	eye
-4.2850	hospital
-4.3278	piece
-4.1629	weeks
-4.4383	secret
-4.3471	sense
-5.6383	forgive
-3.9921	takes
-4.2163	pass
-4.2620	voice
-4.7789	clean
-4.6207	looked
-4.4198	calling
-5.4389	wonder
-3.5125	song
-5.1551	fault
-3.9115	changed
-3.4187	state
-3.8575	seven
-3.4482	born
-3.7810	less
-3.3003	film
-4.7157	ride
-4.6995	explain
-7.6306	joe
-4.0931	meeting
-3.9230	class
-4.1399	act
-4.5462	none
-3.5761	given
-4.0257	finally
-5.7506	fool
-6.1581	yesterday
-4.1938	la
-3.2988	early
-4.5368	worth
-4.5921	ones
-6.3614	tv
-4.0251	future
-4.4921	sex
-3.9492	strong
-4.0388	army
-4.6411	mouth
-4.1389	moving
-7.9010	george
-8.0972	weren
-6.0514	frank
-4.8007	sing
-6.1440	bastard
-4.9096	sun
-4.8278	certainly
-6.6752	american
-4.1236	chief
-3.6256	worked
-5.0254	clothes
-4.4513	horse
-4.1072	report
-7.2940	christmas
-4.4352	sell
-6.8403	mama
-4.0240	turned
-4.5439	questions
-4.3238	dark
-5.2065	absolutely
-4.4210	peace
-4.2643	month
-4.1066	movie
-5.6455	lovely
-4.4911	boat
-4.3609	blue
-4.6179	seeing
-4.6910	mm
-4.4467	hotel
-4.6473	speaking
-3.8981	eight
-7.4799	eh
-7.3140	york
-4.0159	ship
-3.9551	rock
-4.1631	continues
-6.8056	sam
-3.4067	age
-7.3683	christ
-4.4359	murder
-4.3166	finish
-4.2193	letter
-3.9901	court
-9.2434	iike
-3.7441	works
-5.6270	swear
-5.0888	expect
-3.8176	finished
-4.4762	bill
-4.1334	giving
-4.1728	officer
-3.8627	present
-3.5360	near
-5.1001	worse
-4.9510	busy
-4.8215	pain
-4.1894	kept
-4.3668	ball
-5.2077	terrible
-4.6836	fear
-4.3334	floor
-5.8719	laughs
-4.5830	wear
-7.0503	kidding
-4.0783	sea
-4.6568	fly
-5.4666	imagine
-5.4377	forever
-4.7414	count
-4.0699	gold
-8.0673	charlie
-5.7595	forgot
-3.8493	radio
-4.2126	attention
-3.8521	decided
-6.5207	idiot
-6.2024	french
-6.9857	goddamn
-5.1774	mistake
-4.4358	caught
-4.9747	birthday
-3.7574	short
-5.3348	happening
-4.8940	afternoon
-4.8045	soul
-4.2647	figure
-4.2144	paid
-3.5433	station
-4.2963	simple
-5.1933	bag
-6.4845	tom
-4.3892	fish
-4.1117	date
-4.4682	rich
-5.0347	blow
-7.7520	paul
-4.2678	broke
-4.1159	miles
-3.0399	during
-4.4885	ring
-9.2434	hasn
-4.4250	choice
-4.2626	bank
-7.9010	david
-8.0129	fuckin
-5.8500	relax
-4.1715	except
-7.9881	ooh
-3.9783	attack
-4.1541	join
-4.7191	wedding
-5.2151	worried
-4.4147	table
-4.2168	completely
-3.7481	across
-7.3140	mary
-4.2554	paper
-4.2621	star
-4.5513	message
-5.1600	pleasure
-6.4890	dude
-3.5853	building
-4.8607	watching
-7.2140	chuckles
-5.1192	stick
-4.6957	dangerous
-7.7663	america
-4.2898	meant
-3.8997	round
-4.4202	honor
-4.7069	fair
-7.3191	ls
-5.7130	hungry
-4.1306	middle
-3.3219	de
-4.9661	thinks
-6.0935	buddy
-4.8092	lying
-4.6406	unless
-5.2615	drunk
-3.9693	instead
-3.5087	government
-5.8195	re
-4.6487	spend
-3.9979	certain
-3.5078	major
-4.2243	charge
-4.2023	needed
-4.3561	deep
-5.0108	hide
-4.3756	hundred
-6.6811	english
-4.7903	handle
-4.2374	bought
-4.1007	key
-5.4933	cry
-3.7577	history
-4.4382	interested
-4.5291	trip
-3.7658	lead
-4.6224	window
-4.7507	lieutenant
-8.1294	michael
-4.8093	enjoy
-3.5814	system
-5.3525	sake
-4.1902	fell
-4.9979	anywhere
-4.1225	quickly
-4.0441	cover
-4.6937	sitting
-3.9672	ran
-3.7820	church
-4.8511	surprise
-5.0734	colonel
-4.3140	carry
-4.3550	situation
-4.9421	tea
-6.5207	yo
-5.2332	smart
-3.9825	force
-4.7071	teach
-4.7233	interesting
-3.8492	information
-4.1840	problems
-7.0850	paris
-4.1963	professor
-4.4078	box
-4.9536	holy
-3.4924	often
-4.5922	plane
-4.8527	dress
-5.1711	lunch
-4.5653	thousand
-5.5140	smell
-4.5798	missing
-3.5448	third
-4.0158	ground
-5.6116	crying
-5.1652	talked
-3.6423	service
-4.4769	respect
-4.2436	ice
-4.6181	accident
-4.4713	stopped
-5.0637	tough
-5.4946	heaven
-5.1047	proud
-5.5919	laugh
-4.2124	security
-5.4006	sad
-6.9253	sighs
-3.9689	lived
-3.8828	art
-4.2089	difficult
-7.2060	harry
-4.5338	mark
-3.5189	single
-5.7695	dare
-5.5805	c
-3.4463	group
-3.6509	record
-4.5122	wind
-5.9498	cops
-5.2517	fix
-3.6225	club
-3.8205	upon
-4.2261	marriage
-6.9253	mike
-5.5802	mess
-5.0251	besides
-4.2923	fighting
-4.7761	impossible
-4.2859	forward
-4.9530	quit
-3.9578	entire
-4.6202	wine
-4.3227	normal
-4.2729	visit
-4.2108	offer
-3.4685	public
-4.6151	missed
-5.6541	screaming
-4.3736	prison
-5.0615	smoke
-4.3978	killing
-4.7577	agree
-4.6893	saved
-3.9965	river
-4.4329	broken
-4.5717	neither
-4.0725	whether
-6.6693	madam
-5.7182	weird
-4.3327	green
-5.2789	bloody
-4.3866	arms
-4.7781	evil
-7.3243	asshole
-3.7190	south
-6.4433	bob
-4.3944	wall
-4.4920	bar
-5.1837	fat
-5.7410	il
-4.4334	judge
-4.4342	orders
-4.0438	seat
-4.6737	bear
-3.7131	wrote
-4.9449	queen
-4.5983	slow
-4.1199	cause
-5.1463	dreams
-5.0125	loves
-4.3706	teacher
-5.7151	cop
-4.4304	standing
-4.9945	liked
-3.6886	north
-4.4897	glass
-4.3360	protect
-4.5088	accept
-5.4678	dirty
-3.9269	beginning
-4.4661	difference
-4.3598	cross
-4.9851	angry
-4.3969	machine
-4.2592	scene
-5.3145	amazing
-4.2490	double
-4.2253	share
-4.9319	totally
-5.3140	honest
-5.1108	moon
-3.9865	personal
-3.8466	private
-5.3448	joke
-4.9848	realize
-4.9636	beer
-4.0347	space
-3.7580	position
-4.8369	jump
-3.8612	whose
-4.9823	jail
-3.3667	area
-4.7728	promised
-4.3843	tree
-4.5208	foot
-4.1120	continue
-4.1655	test
-5.0912	cat
-4.9091	dying
-3.4282	within
-4.4177	singing
-5.3525	ought
-4.5922	brain
-5.4467	sergeant
-4.0780	nine
-3.4818	village
-7.2020	peter
-4.6054	wearing
-6.8893	ln
-4.7047	walking
-3.8012	field
-4.8475	dollars
-5.9299	bother
-5.0555	girlfriend
-4.3196	bus
-4.4383	crime
-6.3783	congratulations
-5.0051	lots
-4.9316	doubt
-8.2891	mmm
-4.6354	camera
-3.1143	became
-6.8970	german
-4.0365	books
-4.1844	gives
-5.2533	shoes
-4.8407	truck
-5.4384	ben
-4.9692	kick
-4.4805	card
-4.7454	cash
-5.1066	sleeping
-4.8882	push
-3.5201	moved
-4.9579	likes
-4.3629	calls
-5.9644	cute
-6.2399	max
-4.1354	park
-4.7079	apartment
-6.9089	bullshit
-4.0742	evidence
-4.3437	store
-4.5073	grow
-5.7114	owe
-3.9015	especially
-5.2960	aunt
-4.1491	reach
-4.6253	guard
-3.9205	spent
-3.9874	summer
-4.3679	enemy
-4.2754	rules
-6.5070	ho
-4.4834	duty
-4.0405	island
-4.6257	seconds
-5.4340	n
-7.6201	johnny
-4.9103	eating
-5.7660	smile
-4.9594	staying
-5.8082	silly
-6.8351	san
-5.9385	folks
-4.7949	suddenly
-5.4196	knock
-5.5801	pardon
-5.4335	everywhere
-4.6595	crowd
-7.7249	henry
-5.9187	beg
-5.1409	stuck
-4.0251	action
-4.8929	upset
-4.4492	driving
-4.8276	seriously
-4.3084	begin
-4.0701	starting
-4.6526	prove
-4.8275	feels
-4.5820	grand
-3.5959	using
-4.5316	guns
-4.7791	legs
-5.0595	nose
-4.8015	pictures
-5.2346	rid
-4.4130	brothers
-6.2607	mum
-3.8217	list
-5.1289	sky
-4.1555	immediately
-5.1997	definitely
-3.9249	college
-4.6575	shop
-4.6593	arm
-4.4524	escape
-5.0110	listening
-7.3243	mommy
-4.2673	gas
-3.9832	low
-8.0673	jimmy
-5.0577	self
-5.1555	hat
-4.8716	hole
-5.3402	ray
-4.9665	bell
-4.4095	price
-4.3326	cell
-4.7990	rain
-4.1075	arrived
-4.8298	warm
-3.8209	west
-4.0226	passed
-4.0453	board
-5.2333	boyfriend
-5.0302	nervous
-5.5620	ourselves
-7.3349	london
-4.3479	contact
-4.4080	nor
-4.6461	lawyer
-5.6709	upstairs
-4.5750	lay
-4.0301	closed
-8.0129	goin
-4.7857	gift
-5.6540	devil
-4.5645	favor
-7.5444	tony
-7.9881	jim
-4.8525	empty
-4.9135	prince
-7.1865	papa
-4.7060	suit
-4.3103	press
-4.1040	themselves
-3.9951	writing
-5.6212	asleep
-3.9606	type
-5.5374	grab
-4.6594	spirit
-5.1143	burn
-4.6909	arrest
-4.6270	papers
-3.5350	band
-4.7879	indeed
-6.3333	majesty
-4.3872	pop
-3.2549	played
-3.8329	involved
-4.9220	dogs
-4.4413	agent
-3.9091	above
-4.5771	wild
-3.7101	further
-6.3927	nick
-3.8860	race
-8.0673	mrs
-4.4815	spot
-4.1822	fellow
-4.9810	blind
-3.9184	whom
-4.5716	leg
-5.8547	awful
-5.1078	killer
-4.6909	flowers
-5.4350	appreciate
-4.6326	fit
-7.2657	aye
-4.7664	beauty
-3.6181	written
-4.3907	partner
-4.4756	twenty
-4.6557	bird
-7.0820	dick
-3.3879	named
-5.0760	lock
-5.2436	blame
-4.4868	otherwise
-4.0995	heavy
-4.7869	drinking
-4.5493	choose
-4.0577	allow
-4.3248	twice
-5.6237	shouting
-4.8247	magic
-4.7532	waste
-4.4337	address
-5.2564	plenty
-4.4703	raise
-4.4211	flying
-4.8499	notice
-4.4264	learned
-7.0820	gasps
-4.1918	mission
-6.9833	doc
-4.6553	decide
-5.0138	taste
-8.4652	aah
-4.2836	flight
-4.5492	picked
-6.9809	billy
-4.6697	gay
-5.0341	kitchen
-4.1595	experience
-4.6816	fresh
-5.2284	chicken
-4.0916	cost
-4.2054	nature
-8.2891	shh
-6.7170	fucked
-4.8341	hero
-4.5642	shooting
-8.4652	doin
-5.2121	breakfast
-7.7663	james
-4.2229	places
-4.3146	holding
-4.7700	planet
-3.9229	allowed
-4.3125	search
-4.1580	however
-4.0913	battle
-4.7132	putting
-6.5603	crap
-5.0803	steal
-3.7808	usually
-4.9059	lights
-4.9161	neck
-8.5444	eddie
-5.1078	mate
-5.1425	hardly
-3.7749	sold
-4.1065	decision
-7.2434	ow
-4.6478	destroy
-6.0945	sweetheart
-3.8637	study
-3.9158	famous
-4.4510	animals
-4.1704	simply
-5.2436	princess
-5.1514	keys
-3.9006	language
-4.3833	memory
-4.1108	names
-4.7398	worst
-5.3273	throat
-4.4379	herself
-3.9701	interest
-4.7229	faith
-4.6998	guilty
-5.5092	b
-4.4577	ways
-5.6785	shame
-3.8883	director
-4.2635	stone
-5.1583	innocent
-5.1893	bottle
-3.9817	states
-7.3801	mister
-5.4270	pray
-5.5539	bunch
-4.3758	camp
-4.4075	starts
-4.6450	seemed
-4.3081	necessary
-3.5721	form
-4.1324	department
-4.2634	stars
-4.7109	bomb
-3.9547	stage
-4.4252	animal
-4.8404	roll
-3.8245	east
-4.8845	dancing
-4.4397	reading
-4.7853	faster
-5.0461	locked
-4.3937	van
-4.7602	soldier
-3.6800	military
-3.5692	final
-4.6927	apart
-3.8396	match
-4.1907	computer
-5.0606	detective
-4.2330	soldiers
-5.2077	admit
-4.9342	tight
-4.1199	engine
-6.9809	outta
-4.1600	build
-4.8337	treat
-4.9597	sight
-4.6204	closer
-4.4450	huge
-4.0123	complete
-4.6501	excellent
-8.0393	alex
-4.6929	beach
-4.9984	surprised
-4.8957	dressed
-5.8307	ridiculous
-4.9764	bigger
-4.9447	keeps
-5.2339	stole
-4.8831	united
-3.5792	among
-4.5022	hall
-4.9003	danger
-4.0226	itself
-4.7559	cup
-5.2338	knife
-3.6207	support
-4.9050	milk
-4.6452	mention
-4.4886	fired
-5.6275	pants
-3.4515	built
-4.0353	lies
-4.6893	cousin
-7.9646	steve
-4.7925	feelings
-8.2020	charles
-3.4928	main
-5.4024	cook
-3.3289	following
-4.8656	meat
-6.9809	grandma
-5.2236	obviously
-4.7881	ill
-5.3831	angel
-5.8136	screams
-4.3565	risk
-4.1304	plans
-5.5449	bathroom
-4.0709	relationship
-4.8495	tape
-4.1957	taught
-4.9897	sword
-5.2842	forgotten
-5.9333	nonsense
-8.4652	danny
-4.5187	freedom
-4.4507	extra
-4.9476	pregnant
-4.4581	corner
-4.3202	beyond
-5.0245	hiding
-4.7945	belong
-8.3983	sarah
-5.4947	wash
-4.7610	drugs
-4.3187	cars
-7.0702	chinese
-4.6544	skin
-5.8034	breathe
-3.4710	large
-7.5358	motherfucker
-5.6058	gentleman
-4.2384	leaves
-4.5278	driver
-4.0149	health
-4.1219	command
-5.7324	ugly
-4.7087	patient
-4.0178	helped
-4.5386	note
-5.6894	u
-5.8777	f
-5.5682	figured
-4.1796	bridge
-4.4736	strength
-6.5199	martin
-4.3529	greatest
-4.5234	rose
-5.8348	wondering
-5.4290	pig
-4.2371	acting
-6.0363	dumb
-4.7084	horses
-3.8553	level
-5.7213	nuts
-7.3860	sunday
-5.8872	w
-3.9109	track
-4.4056	commander
-3.9417	plays
-7.2140	anna
-4.5036	heads
-4.9489	walked
-4.5622	strike
-4.8083	understood
-8.2891	france
-4.2586	rule
-4.4259	turns
-4.4799	weapons
-8.1642	england
-5.8123	h
-3.7406	common
-7.1228	madame
-4.4920	consider
-6.7132	grunts
-3.9414	according
-4.2409	stories
-8.3403	roger
-4.2236	losing
-7.6306	weil
-4.2134	speed
-4.7106	favorite
-4.1725	tells
-3.4708	due
-5.3659	sheriff
-4.0689	serve
-4.5740	keeping
-4.9882	teeth
-7.2940	japanese
-3.3398	began
-8.5444	richard
-4.6208	da
-6.4278	lee
-5.1696	shirt
-5.1006	rings
-8.2891	robert
-4.5777	spoke
-3.8955	size
-4.5262	feed
-3.3878	held
-7.2702	bobby
-3.9548	coach
-4.4916	dry
-5.0897	pack
-4.4450	ideas
-3.9591	natural
-5.3388	grace
-5.0564	prefer
-4.4735	bottom
-5.0732	balls
-4.2539	mountain
-3.5287	national
-4.7328	movies
-4.8873	witness
-4.1681	view
-5.5411	breath
-4.8104	ticket
-4.0855	energy
-4.5764	emergency
-4.3335	code
-6.1500	hurts
-6.0497	cheers
-4.6824	correct
-4.0625	responsible
-4.0364	earlier
-4.1887	remain
-7.3458	tommy
-5.2344	trick
-4.7509	weekend
-5.3967	inspector
-6.4755	pal
-4.2521	account
-5.4098	ex
-4.6674	usual
-5.0502	hanging
-5.6674	deserve
-5.7509	ringing
-6.9467	groans
-4.2089	showed
-4.0348	example
-4.0586	practice
-4.7521	weapon
-7.1362	grandpa
-4.5500	brown
-3.2688	several
-5.3908	happiness
-5.7587	apologize
-5.2095	monster
-4.2507	pressure
-3.9729	center
-4.7800	coat
-5.3122	silence
-4.7269	prepare
-4.6817	justice
-6.3217	ours
-4.3796	letters
-4.6499	copy
-8.5444	whoo
-4.0582	market
-4.2215	operation
-7.5902	jerry
-4.8907	noise
-4.9210	knowing
-4.5397	birds
-4.7136	fill
-4.6844	advice
-4.2932	society
-8.0129	rome
-7.3403	russian
-6.1656	er
-5.1033	cream
-5.0550	ghost
-4.4649	exist
-4.1749	oil
-8.1642	jake
-5.6776	horrible
-4.8172	willing
-4.7303	tie
-4.0353	leader
-4.3681	draw
-5.2817	loud
-4.8940	lift
-4.0056	student
-4.0328	nearly
-4.0919	post
-5.3712	jealous
-5.1038	al
-4.2504	travel
-5.5559	surely
-5.1737	bread
-4.7758	recognize
-5.1754	perfectly
-4.6525	cards
-4.6309	restaurant
-4.1856	older
-4.4876	heat
-4.5237	weather
-4.5853	opinion
-3.7377	games
-6.1996	ve
-4.2441	crew
-5.4633	cake
-3.8691	character
-4.7097	suicide
-4.7530	telephone
-6.6009	bucks
-4.3602	drug
-5.8740	pity
-4.3756	minister
-3.6974	although
-4.8414	introduce
-5.4556	brave
-4.6827	chair
-5.4375	gotten
-5.4195	fantastic
-4.3993	biggest
-5.9189	bless
-4.9562	noticed
-4.8996	wet
-4.4869	helping
-4.6411	priest
-3.9204	shows
-5.6277	thy
-5.4753	nowhere
-4.1983	agreed
-4.0996	meaning
-5.2743	somehow
-5.9164	cheering
-4.8564	truly
-4.9028	gate
-5.1577	nurse
-3.9262	towards
-4.6045	streets
-5.7218	r
-4.8211	paying
-5.2481	horn
-4.6957	slowly
-5.2272	naked
-5.7453	thou
-3.4283	local
-3.9665	style
-4.1351	manager
-4.7380	soft
-8.6413	yep
-5.1166	suspect
-4.2954	spring
-4.4869	grown
-4.3032	dropped
-4.4079	pieces
-6.8351	monsieur
-5.4000	dig
-5.6273	shake
-4.8319	settle
-7.1752	maria
-5.2482	excited
-5.3846	incredible
-4.3743	possibly
-5.6303	whoever
-5.4489	handsome
-4.3474	ends
-5.5807	lonely
-8.4652	sweetie
-4.6351	garden
-4.4441	stayed
-4.3654	enter
-4.4551	prepared
-7.7249	saturday
-4.1346	science
-4.7412	weak
-4.3434	arrested
-4.7327	discuss
-4.2740	powerful
-5.4490	screw
-7.1362	dr
-4.9479	fate
-4.2557	split
-4.5499	flat
-4.3645	opportunity
-4.8376	proof
-4.6938	medicine
-4.6177	breaking
-7.9010	jane
-4.9984	loose
-4.7943	gang
-4.3366	trial
-4.8815	speaks
-6.8686	spanish
-5.5155	bite
-4.0337	medical
-5.2329	pleased
-4.7757	murdered
-5.0832	afford
-5.0653	comfortable
-4.8723	snow
-4.4861	bringing
-4.8248	bright
-4.4818	trees
-7.7663	friday
-4.3055	guest
-4.3281	invited
-5.3885	ears
-7.2657	santa
-4.3136	purpose
-3.6657	career
-4.7494	survive
-4.1374	ordered
-4.0176	believed
-4.7306	threw
-8.0972	dave
-4.2252	destroyed
-4.6510	hearing
-4.3430	color
-5.8614	laughter
-4.4405	condition
-4.4997	bodies
-4.4380	mayor
-3.8780	training
-4.6326	manage
-4.8358	victim
-5.1761	finger
-3.7117	opened
-5.6838	pretend
-4.5599	roof
-8.2891	nothin
-4.5883	file
-4.1728	numbers
-4.6239	suggest
-5.3578	expecting
-6.7209	whore
-4.3917	lake
-5.8736	ashamed
-4.5333	turning
-4.4973	plus
-4.5405	sees
-5.0181	whenever
-6.8072	chattering
-4.6171	falling
-5.0663	spare
-5.7245	p
-4.3971	farm
-5.1150	rent
-5.0430	repeat
-3.8442	release
-4.8153	sugar
-5.0635	fortune
-5.3595	alarm
-3.6669	students
-4.3981	winter
-4.4213	thousands
-5.5704	insane
-4.0293	base
-3.6365	total
-5.3293	fingers
-4.8086	stops
-5.6339	thief
-4.6050	hill
-5.6741	fancy
-4.8591	stolen
-7.6871	chris
-3.9219	female
-5.2690	tongue
-5.7480	sooner
-6.4154	liar
-4.4288	target
-6.0086	downstairs
-4.7306	matters
-5.3879	joy
-4.0829	subject
-4.9010	mail
-4.4400	criminal
-4.9158	client
-4.8306	easier
-3.4336	received
-5.2163	cheap
-4.7436	brings
-4.6862	pulled
-4.2314	distance
-4.7619	doors
-4.5124	credit
-4.5645	concerned
-5.5130	g
-4.1483	lines
-4.3927	selling
-4.4914	responsibility
-5.0801	harm
-4.4305	castle
-4.8369	grandfather
-4.1072	male
-3.7954	followed
-5.2942	stomach
-4.3411	birth
-4.1632	spread
-4.5262	storm
-5.0653	brilliant
-8.7663	arthur
-7.1865	british
-3.9963	opening
-7.8632	hm
-4.8515	paint
-5.5515	slept
-6.8403	piss
-3.6320	returned
-5.1454	lover
-4.9608	universe
-4.9670	hoping
-4.5635	reality
-4.7973	funeral
-5.4375	bath
-4.0131	contract
-5.6433	cares
-5.2383	taxi
-4.0949	trade
-5.9220	lately
-3.7982	video
-6.0207	ed
-4.4034	weight
-4.9416	disappeared
-7.9646	thomas
-5.6159	lied
-4.0693	square
-5.4183	tears
-4.9197	march
-4.2195	expected
-4.3771	airport
-8.0129	ohh
-4.3966	block
-5.9272	thee
-5.4603	cigarette
-4.7908	eggs
-4.2693	onto
-3.7912	program
-4.4013	defense
-4.4355	forest
-5.5117	unfortunately
-8.0129	europe
-4.7193	pool
-4.9787	tiny
-7.1430	jean
-4.5013	apparently
-4.9924	conversation
-5.1196	super
-8.3403	walter
-5.0486	nights
-8.1294	pete
-4.4419	signal
-4.6944	permission
-5.0973	thoughts
-5.5200	murderer
-3.8850	project
-3.7427	signed
-5.4198	rat
-5.5732	mercy
-4.4791	yellow
-5.9067	dan
-5.3594	checked
-5.3853	desk
-4.0864	covered
-5.5822	shower
-7.9646	simon
-4.5705	clearly
-5.6532	scare
-5.4758	regret
-6.9857	grunting
-4.2228	buried
-3.6290	created
-4.0557	property
-5.6135	remind
-4.3916	planning
-5.2541	swim
-6.3024	merry
-5.2209	pocket
-5.0278	tickets
-4.5718	secretary
-4.5658	path
-3.9723	ended
-7.1752	lt
-4.4584	speech
-4.7135	aware
-4.8602	burning
-8.7663	washington
-5.2950	drinks
-4.3476	pair
-5.5326	glasses
-4.8655	ocean
-4.0706	foreign
-6.5750	yourselves
-6.0091	goodness
-5.3677	waited
-4.5459	page
-4.4155	audience
-8.2434	andy
-3.9463	runs
-4.3420	rise
-3.7808	research
-5.1288	fake
-7.6413	amen
-5.2643	courage
-5.5052	ate
-4.6954	expensive
-4.7734	pure
-5.1763	bullet
-4.8218	photo
-5.9732	yelling
-4.8100	depends
-3.7811	social
-4.8180	warning
-4.6432	belongs
-5.4718	genius
-4.9074	desert
-3.9818	forced
-4.7570	realized
-3.7434	player
-4.8447	grave
-4.5926	map
-4.1130	staff
-4.2686	vote
-4.4025	headed
-3.9872	success
-4.3645	easily
-4.5736	reasons
-5.5294	monkey
-6.7855	italian
-4.9246	rough
-4.6308	journey
-3.9846	create
-4.8114	personally
-7.8816	scott
-5.4074	wise
-5.2022	harder
-4.1060	discovered
-4.8003	guests
-4.9274	sudden
-3.6985	television
-4.2876	silver
-3.9577	higher
-6.8816	bastards
-5.3740	breathing
-4.2520	fought
-4.9891	pounds
-4.5113	fixed
-3.6385	political
-4.6062	add
-4.3771	painting
-4.6628	mountains
-6.1221	suck
-3.9675	lower
-8.7663	germany
-3.7908	century
-4.6151	desire
-7.2749	bro
-4.0691	failed
-3.6342	football
-7.8632	monday
-7.6871	louis
-4.8774	badly
-4.1078	ancient
-4.0604	below
-6.2491	jerk
-4.4961	factory
-4.7373	sending
-4.1843	records
-4.8641	clock
-7.8454	william
-6.9762	aw
-4.0571	changes
-3.4179	member
-4.5427	piano
-5.4628	lesson
-4.7868	heading
-4.9840	carefully
-7.9423	kate
-5.0695	gods
-5.1301	rush
-5.7177	lips
-4.1021	unit
-4.7197	tall
-4.3836	safety
-5.2659	letting
-5.3134	bedroom
-7.7119	fred
-8.2020	americans
-6.2896	disgusting
-7.6752	adam
-4.5016	finding
-4.1914	therefore
-3.4288	season
-3.8956	points
-5.9797	china
-4.7148	thirty
-5.0704	odd
-4.9580	revenge
-4.5206	wood
-5.4836	clever
-4.3424	royal
-3.9325	parts
-4.9673	divorce
-4.0964	artist
-6.6659	christian
-6.1396	someday
-4.9759	suffer
-5.3708	wherever
-5.3240	dawn
-3.9834	rights
-4.1321	grew
-4.3073	union
-4.5423	nation
-4.1774	theory
-4.3524	laid
-5.9569	champagne
-5.2318	mood
-5.6381	useless
-6.0598	awesome
-4.4748	filled
-5.5240	soup
-4.2472	officers
-5.6594	miracle
-4.1472	university
-3.9892	model
-5.1699	hung
-3.7582	period
-9.2434	iet
-4.8597	opens
-5.1865	smoking
-5.4473	toilet
-5.2347	ear
-4.7894	deliver
-7.0559	babe
-4.7788	golden
-5.4359	hearts
-5.2332	cheese
-4.1053	victory
-4.0601	plant
-4.5405	proper
-4.1826	planned
-4.4740	shape
-4.4161	showing
-5.4199	ruin
-4.1953	growing
-5.3094	vacation
-3.8581	reached
-4.9574	doctors
-4.6890	honour
-4.0325	legal
-4.8270	faces
-8.7663	somethin
-5.2034	ruined
-4.4010	governor
-3.5391	original
-5.9251	butt
-4.5115	request
-4.0995	issue
-5.1639	refuse
-3.6286	per
-4.4338	carrying
-4.7598	crash
-6.0450	honestly
-5.4020	bride
-5.2124	exciting
-5.9393	awake
-7.4510	fellas
-5.4608	cow
-4.8235	load
-6.2638	pa
-3.8978	forces
-6.4890	smith
-3.4224	based
-4.5536	grant
-5.1873	woods
-4.5954	suffering
-5.9669	scream
-4.2675	knowledge
-5.9633	freak
-4.3719	temple
-4.6920	romantic
-5.4225	decent
-4.7161	hidden
-6.1308	joking
-5.2847	midnight
-4.3490	passing
-4.2458	younger
-4.7972	arrive
-5.3969	sin
-4.1566	becomes
-5.4488	jacket
-4.6203	insurance
-6.2675	kinda
-4.5101	investigation
-3.7225	professional
-4.8815	millions
-5.3767	invite
-5.7114	boring
-6.1942	bang
-5.3908	wolf
-5.0908	mirror
-7.5806	hoo
-8.4652	lucy
-4.6193	fan
-8.1294	chicago
-5.0089	dies
-8.1294	california
-7.6871	alice
-4.4744	walls
-5.5946	charming
-8.3983	annie
-5.1094	saint
-3.5199	members
-8.9423	kevin
-4.8776	obvious
-4.3333	avoid
-5.0823	bike
-9.2434	carl
-4.7521	sat
-4.2493	assistant
-4.3167	workers
-4.6703	talent
-4.8034	fifty
-5.2217	touched
-5.5996	stranger
-5.1100	chest
-3.9388	regular
-4.9591	buying
-5.3318	tear
-4.6529	jobs
-4.0652	particular
-5.0338	guards
-4.1501	recently
-4.3100	image
-6.7355	indian
-4.3044	finds
-8.0129	brian
-5.1473	trap
-4.3374	interview
-4.7875	familiar
-4.7248	burned
-5.3835	eve
-4.7913	celebrate
-5.0304	memories
-4.9582	shock
-4.4778	details
-4.4761	iron
-4.0627	wide
-8.0129	marie
-5.1053	hunt
-4.7873	emperor
-5.3402	poison
-4.8867	flower
-5.6912	destiny
-4.8994	prisoner
-8.3403	anne
-5.0516	bones
-6.8284	matt
-5.0438	dollar
-4.6250	rooms
-4.3210	owner
-5.3507	crack
-5.7106	brains
-4.5763	appointment
-5.3624	glory
-4.5652	violence
-5.3941	cab
-4.6817	riding
-4.9243	enemies
-5.3008	chocolate
-4.8887	sisters
-5.2660	meal
-5.3809	hook
-5.6029	freeze
-6.1903	damned
-5.5282	candy
-4.9832	sometime
-4.6976	x
-4.8868	shots
-4.0433	raised
-4.3803	tower
-5.1924	grandmother
-5.5680	ng
-4.4265	stood
-7.6099	bravo
-5.1316	dust
-8.3403	alan
-5.2410	precious
-5.3314	warn
-8.1642	africa
-6.0011	toast
-5.6255	virgin
-5.3796	bags
-4.0998	appear
-3.9760	caused
-5.1826	pride
-4.8187	switch
-3.7082	community
-6.0269	thunder
-4.4311	pilot
-4.3183	damage
-4.8908	watched
-8.2891	helen
-3.5339	led
-5.4086	loving
-4.5194	changing
-4.7263	confused
-4.8818	rice
-5.6884	knees
-4.2310	coast
-5.7237	beast
-3.8540	songs
-8.2434	lisa
-5.5018	babies
-7.7810	japan
-5.3809	duke
-4.1927	mentioned
-4.7969	silent
-4.0627	tour
-5.6460	grateful
-4.4769	sons
-8.3403	daniel
-3.8562	central
-4.2940	traffic
-3.9113	fourth
-4.2821	actor
-3.8150	official
-8.4652	howard
-5.9681	victor
-5.9781	applause
-7.3458	fella
-4.3758	armed
-8.6413	jeff
-8.4652	comin
-4.6248	moves
-4.7310	palace
-4.0018	families
-4.1200	troops
-4.0790	rate
-4.1619	writer
-4.3658	hired
-4.4042	junior
-3.9253	process
-4.0319	carried
-4.4203	committed
-8.2891	phil
-4.6324	beating
-4.1282	amount
-4.2094	percent
-4.7116	false
-4.8258	affair
-5.7120	rob
-8.5444	susan
-5.6955	frightened
-4.6351	license
-4.4945	falls
-4.5215	tied
-4.0235	offered
-5.3311	bull
-4.2982	direction
-4.7598	fallen
-4.9176	saving
-5.3822	knocking
-5.2099	snake
-7.0761	pussy
-6.8334	cos
-4.8300	holiday
-5.9805	indistinct
-4.6035	theater
-4.1016	loss
-5.9402	k
-5.5807	mighty
-8.5444	germans
-5.6553	whistle
-4.2484	youth
-6.1479	smells
-5.1634	lab
-5.0770	boom
-4.2124	border
-4.7238	ordinary
-4.9937	kicked
-8.2434	mexico
-4.1435	cast
-4.7149	drove
-5.1616	answers
-4.4752	statement
-4.6006	rescue
-4.8668	sharp
-5.1433	creature
-4.9297	zero
-5.7764	sexy
-4.1993	receive
-5.5988	borrow
-4.7413	uniform
-6.2148	unbelievable
-4.8781	naturally
-4.5465	humans
-8.0129	eric
-5.2627	treasure
-5.3278	flesh
-4.7615	row
-4.6032	friendly
-8.3983	jason
-3.7948	modern
-4.0900	score
-6.1953	screwed
-4.5021	neighborhood
-7.6871	kim
-5.8058	pills
-7.2181	highness
-7.6099	gee
-3.9719	studio
-5.0715	fail
-4.1956	positive
-4.7133	escaped
-4.9164	tip
-4.6615	defend
-4.9524	complicated
-5.0825	eaten
-4.7205	hunting
-5.4174	darkness
-4.6854	steps
-4.4774	disease
-5.1237	el
-6.9881	groaning
-4.1982	cases
-4.9818	climb
-3.6418	role
-5.8988	terrific
-3.8606	event
-5.0352	egg
-7.4173	joey
-4.1411	effect
-4.5424	seek
-4.9149	revolution
-5.5108	disappear
-3.1760	including
-5.1576	chase
-7.3741	chuckling
-4.6341	shopping
-4.5585	wave
-4.1494	houses
-4.9429	fed
-5.0256	mystery
-5.5048	blows
-4.8327	rocks
-7.5621	nah
-4.7397	attorney
-5.4031	stairs
-4.2125	newspaper
-4.2196	presence
-5.2575	beloved
-5.2144	rope
-6.0453	delicious
-6.1231	comrade
-5.2770	dragon
-5.0675	bow
-7.5274	roy
-3.9639	section
-5.3807	pot
-6.6693	pissed
-4.2574	winner
-5.0177	barely
-4.5782	fishing
-5.2361	senator
-4.7171	aboard
-5.4501	hated
-4.9302	healthy
-8.6413	julie
-5.4174	curious
-4.2742	mass
-4.4355	grade
-7.2989	leo
-4.9283	aside
-4.8718	bone
-8.0129	gettin
-4.9598	wire
-5.9732	terribly
-5.5055	bleeding
-4.2912	attacked
-8.4652	talkin
-7.8284	ted
-5.9395	nasty
-5.9576	staring
-4.8558	yard
-5.2410	button
-4.6127	prisoners
-4.7200	kingdom
-4.5028	quarter
-5.4341	secrets
-7.6993	jews
-4.7844	plate
-5.5810	dump
-4.7472	tail
-5.0851	sacrifice
-5.6577	bored
-4.8566	stronger
-4.8192	salt
-4.2404	metal
-4.7729	talks
-4.8066	sand
-4.5177	cancer
-8.0972	joseph
-4.0622	films
-5.9838	subtitles
-7.9646	heh
-4.6617	fruit
-7.9423	gosh
-4.2661	claim
-6.2297	barking
-3.9835	goal
-5.7996	penny
-4.6287	concern
-6.1542	clears
-5.1623	shadow
-7.1035	beeping
-4.2593	firm
-4.8578	friendship
-4.4504	powers
-3.9776	becoming
-9.2434	rachel
-4.5310	prime
-4.4493	advantage
-5.1753	picking
-5.4870	punch
-5.1921	stealing
-4.9997	wishes
-5.1002	non
-5.0236	steady
-4.3785	extremely
-4.3830	protection
-5.4047	tiger
-4.6819	giant
-4.4268	edge
-4.5217	hundreds
-5.9126	woke
-6.7170	chuck
-5.7386	loser
-4.9170	assume
-5.4909	behave
-4.1056	direct
-7.8454	jones
-4.6660	windows
-5.3765	blew
-4.0633	managed
-5.1372	pen
-4.3807	chose
-4.7851	wheel
-5.1381	drag
-4.3195	sexual
-4.9928	passion
-5.5968	maid
-4.0463	county
-6.0719	chick
-4.0972	magazine
-4.6041	remove
-7.5999	chan
-7.3626	jenny
-7.1396	panting
-8.4652	nope
-5.4412	checking
-3.7805	available
-4.8200	spell
-4.0381	terms
-4.3636	engaged
-4.1779	focus
-4.4537	stock
-4.5175	valley
-5.4121	duck
-4.6003	wounded
-4.5398	treated
-4.2391	chosen
-4.1220	likely
-5.0186	wound
-4.5154	object
-7.7119	hollywood
-4.4699	sale
-4.5325	spoken
-6.2289	j
-6.2974	buck
-6.0212	mummy
-4.6568	tank
-8.2891	lookin
-5.7686	pie
-4.4260	notes
-7.9646	johnson
-5.9172	shout
-6.3558	guts
-5.9554	dreaming
-4.6642	bound
-6.0291	scary
-4.7628	reporter
-4.1530	physical
-5.1309	basically
-4.8893	hop
-4.1753	value
-4.1604	surface
-4.0054	remains
-4.6535	closing
-4.9702	moments
-5.8360	ou
-5.3130	slip
-3.8153	result
-4.5228	politics
-3.6967	popular
-4.8005	slave
-4.3059	reports
-5.1284	chances
-5.2031	desperate
-8.1642	amy
-5.1543	los
-4.9405	photos
-8.0129	laura
-8.3403	ahh
-5.8109	shine
-4.3344	joint
-3.9869	mostly
-4.3985	rare
-4.7378	dealing
-8.9423	hitler
-4.9460	throwing
-5.4176	witch
-3.4235	served
-5.1760	pulling
-7.9423	texas
-4.7565	jury
-5.4686	intend
-4.3750	connection
-4.7136	wings
-8.0673	albert
-4.8381	kinds
-6.3458	com
-5.9991	gorgeous
-5.0267	pink
-5.4152	cruel
-5.6402	bury
-5.5491	doll
-7.5274	terry
-4.5292	unusual
-5.0629	facts
-3.8951	education
-4.5416	challenge
-3.8832	range
-4.4136	brand
-7.1163	pee
-5.3614	elevator
-4.3260	equipment
-5.4181	shy
-7.1752	kong
-4.5251	screen
-4.7424	sentence
-5.5425	rabbit
-5.3887	apple
-3.7307	production
-5.0763	swing
-4.8338	circumstances
-6.9623	india
-4.5210	prize
-4.7099	marks
-4.7991	deeply
-4.8934	attitude
-4.4052	laws
-5.4395	blowing
-4.3398	authority
-7.3683	jewish
-4.3385	wing
-4.2334	mile
-4.9689	shoulder
-6.4623	coward
-3.7594	site
-5.6850	cigarettes
-4.3474	committee
-3.6624	considered
-4.5202	charges
-3.9430	thus
-4.4435	advance
-4.0498	material
-5.4776	closes
-7.1827	june
-4.2599	mixed
-5.3720	ambulance
-4.6821	earn
-5.1639	cleaning
-4.7017	convinced
-4.3328	exchange
-3.7886	eventually
-7.6523	hong
-4.0328	separate
-5.9971	co
-8.9423	ryan
-5.8272	rude
-4.2313	begins
-5.0548	cooking
-7.9423	linda
-6.9556	kitty
-4.6095	progress
-4.8093	collect
-5.4508	curse
-3.9025	winning
-5.9299	wasting
-4.4942	chain
-4.4755	understanding
-5.2086	cure
-4.8900	properly
-3.9211	performance
-3.6808	international
-5.1685	spy
-4.4415	capable
-4.8583	noble
-7.2222	barry
-4.6748	swimming
-5.5075	juice
-5.7077	confess
-4.3624	champion
-4.2443	settled
-4.0960	source
-7.4580	claire
-4.7827	circle
-4.0910	results
-4.8318	plain
-5.5275	sue
-7.5902	ann
-4.4032	twelve
-4.0911	directly
-4.5802	illegal
-5.9513	rotten
-6.2425	lad
-4.8296	thrown
-4.5450	intelligence
-3.7964	leading
-5.3081	minds
-4.0854	movement
-4.9213	grass
-7.0615	kelly
-5.8851	kissed
-4.0286	appears
-4.4813	squad
-8.9423	elizabeth
-5.3516	jungle
-4.8254	bond
-5.7989	miserable
-4.2951	effort
-3.3937	series
-4.8772	knocked
-4.7105	expert
-6.2824	filthy
-4.9132	belt
-4.6852	customers
-5.1247	na
-8.1642	thursday
-5.1786	counting
-8.6413	edward
-5.2782	lets
-4.8028	thin
-7.4952	berlin
-4.9948	commit
-4.5489	solution
-5.3776	mistakes
-5.5036	boots
-4.7474	remembered
-6.8835	gasping
-4.7915	punk
-4.0341	competition
-4.2438	treatment
-5.1312	guarantee
-4.6304	victims
-4.4109	stands
-7.6306	sara
-5.7270	cheer
-7.6871	lou
-5.0195	sheep
-5.3978	pleasant
-4.3856	guitar
-5.5007	garbage
-4.0185	access
-4.1768	ships
-5.3914	bust
-3.6551	district
-4.0288	federal
-4.5545	flag
-5.4619	panic
-4.2452	council
-5.6732	pizza
-8.7663	morgan
-4.9759	extraordinary
-5.2136	deny
-4.5105	reputation
-4.4514	patients
-8.4652	jackson
-8.2434	tuesday
-6.6457	sally
-8.5444	spain
-6.9739	ali
-5.8941	nightmare
-5.4301	bush
-4.5734	asks
-4.8544	deck
-4.6585	express
-5.3783	blessed
-5.4322	bullets
-8.2891	tokyo
-3.8102	term
-5.4564	hunter
-3.3845	former
-6.1321	fu
-7.6099	tim
-5.6545	insist
-4.2795	estate
-8.5444	italy
-6.2040	th
-8.5444	martha
-4.7691	schedule
-5.5727	assure
-5.6737	hates
-5.0068	navy
-7.8454	www
-4.7833	debt
-5.3164	fever
-8.0673	luke
-4.8909	surrender
-3.6302	joined
-5.0788	reward
-4.4145	negative
-8.1642	karen
-7.9423	julia
-5.0444	ease
-5.8036	fetch
-5.4499	imagination
-4.5204	studying
-5.1191	garage
-5.1534	jumped
-8.2434	francisco
-4.6459	signs
-4.4272	billion
-4.9602	punishment
-5.3285	shoe
-4.5634	threat
-4.7945	afterwards
-5.0753	wanting
-4.5072	degrees
-6.3024	pathetic
-4.6005	zone
-4.9245	solve
-3.6790	title
-4.3416	parties
-4.1506	policy
-4.7514	ages
-6.1823	cock
-4.3036	conference
-4.1969	accepted
-4.3494	entirely
-4.3637	trained
-5.3694	robbery
-8.1294	frankie
-6.9533	someplace
-4.7426	crown
-4.3952	leads
-4.5863	religion
-5.2850	lion
-5.1512	hire
-4.7368	guide
-4.8331	bay
-5.0741	servant
-4.4898	demand
-5.4083	mac
-5.6794	trash
-4.8588	tone
-5.9665	foolish
-4.6550	vision
-6.1660	supper
-5.9594	bible
-3.2825	released
-4.4850	unknown
-5.0051	voices
-4.7486	hip
-7.6636	sean
-3.8908	successful
-4.0017	route
-4.1243	lack
-4.9751	trapped
-4.3802	port
-5.3048	cats
-5.8916	spit
-5.2449	unhappy
-4.8233	dozen
-5.2617	dirt
-4.6208	crossed
-4.6353	helps
-4.0473	media
-4.0606	location
-8.9423	bruce
-5.9232	paradise
-4.9195	puts
-4.6609	exact
-4.3569	learning
-4.5414	secure
-6.3952	whispering
-4.2406	culture
-5.1809	stays
-7.2348	april
-6.6847	lousy
-4.9041	confidence
-5.3921	deaf
-7.7520	caesar
-5.9757	rip
-5.5404	fox
-6.6602	bum
-5.4334	urgent
-8.9423	maggie
-4.4583	failure
-5.0100	le
-4.8457	hitting
-8.7663	russia
-4.8892	sensitive
-5.3598	tricks
-4.3625	library
-5.1611	mask
-4.9734	gather
-5.0372	stopping
-4.9725	warned
-8.7663	betty
-4.0764	highly
-4.9773	searching
-4.5624	useful
-5.5280	tires
-4.8856	forty
-5.1537	narrator
-5.3832	gentle
-4.9545	convince
-8.0393	fucker
-4.6941	favour
-6.5844	sobbing
-4.5047	background
-5.3318	suits
-7.4045	carter
-8.6413	jesse
-4.5816	solid
-4.1798	greater
-4.7659	cutting
-4.2129	quality
-4.8032	alcohol
-5.8247	wipe
-4.3762	launch
-4.2389	approach
-8.5444	emily
-7.6752	hank
-5.9006	sweat
-4.4384	steel
-4.6472	tests
-4.9651	explosion
-5.2522	disappointed
-4.3005	headquarters
-5.2953	alert
-4.1536	fifth
-4.9251	rolling
-4.6414	script
-5.5039	lend
-4.2746	agreement
-4.5108	costs
-4.3192	nuclear
-4.9527	attractive
-4.3119	toward
-4.6148	aim
-4.6020	latest
-5.0088	tune
-4.5317	agency
-5.0466	proceed
-4.5858	spending
-4.2673	teaching
-4.8620	sacred
-4.4126	vehicle
-4.6434	childhood
-4.9676	empire
-3.9007	events
-4.4730	arranged
-4.6325	vice
-6.5694	st
-5.1837	satisfied
-4.5357	fashion
-5.8854	coincidence
-5.4200	farewell
-4.8453	argue
-4.3729	setting
-7.7119	rick
-5.2589	arrange
-4.4126	opposite
-5.2543	fairy
-5.7039	gunshot
-4.6741	violent
-7.8632	vegas
-4.5428	mental
-8.6413	marty
-4.9905	loaded
-5.0290	approaching
-7.7663	taylor
-4.8870	disaster
-5.0486	witnesses
-5.1762	anger
-5.3793	quietly
-7.9881	clark
-4.8151	breaks
-8.2891	sonny
-4.2833	refused
-4.6808	fifteen
-5.9087	hurting
-5.4580	mistress
-4.3217	museum
-4.2793	tax
-6.1984	miller
-5.1002	flash
-4.7116	pushed
-7.1827	molly
-5.6128	conscience
-8.7663	katie
-3.9726	data
-5.6900	embarrassing
-3.9529	capital
-4.2326	channel
-5.1761	dean
-6.0320	lily
-5.1188	gray
-7.8632	brad
-4.6429	struggle
-4.1207	sports
-4.7349	parking
-7.4440	pierre
-4.0411	senior
-6.2395	roman
-5.4420	chasing
-6.5685	reckon
-4.1892	singer
-6.1434	anytime
-4.8409	cap
-4.9477	stones
-4.7745	firing
-4.7577	handed
-4.9833	beside
-4.9692	walks
-4.2985	daily
-4.2206	fully
-5.5393	clue
-8.2434	wilson
-5.4012	souls
-8.1642	angeles
-5.0965	diamond
-4.8367	kills
-4.3794	abandoned
-4.5700	banks
-5.3377	circus
-7.7663	gimme
-5.1587	torture
-4.7153	shift
-5.3776	clouds
-4.4385	actress
-5.8718	closet
-4.5317	hits
-4.7497	presents
-5.1191	creatures
-4.9208	forth
-5.2410	comfort
-8.7663	jackie
-4.0668	article
-4.9527	prayer
-6.4045	li
-4.9252	explanation
-4.4752	loan
-4.4231	entrance
-4.0651	attempt
-4.1298	mi
-5.6252	kissing
-6.3387	fools
-4.4235	fields
-6.3970	sucks
-4.9744	trace
-4.0696	civil
-4.9309	orange
-8.2891	wayne
-4.0748	despite
-3.9848	particularly
-5.6194	scratch
-6.2945	carol
-5.0675	nerve
-5.2980	outfit
-4.2560	conditions
-4.8481	customer
-3.9213	degree
-4.0369	campaign
-5.1218	flies
-5.8015	patience
-3.9636	entered
-8.5444	andrew
-6.0679	id
-8.7663	emma
-4.3037	concert
-5.0692	bills
-4.5169	ceremony
-5.0558	concentrate
-5.9289	cheat
-7.9646	jew
-6.8854	idiots
-8.2434	carlos
-5.4230	chat
-5.1890	practically
-5.9071	starving
-4.4173	citizens
-5.1935	spirits
-4.3268	ending
-5.4769	noon
-4.3472	baseball
-5.0548	cabin
-4.8880	detail
-4.5499	incident
-6.1850	hug
-5.0068	planes
-4.7785	surgery
-8.4652	gordon
-4.1772	suffered
-5.6481	ghosts
-3.8555	services
-4.8195	hills
-7.6523	indians
-5.1080	pushing
-5.2599	generous
-5.0562	pipe
-5.8779	whiskey
-7.1465	goodnight
-5.8355	selfish
-4.9431	alien
-5.3819	neighbor
-3.7164	similar
-5.5647	pigs
-4.5868	drawing
-4.7282	delivery
-4.9832	lifetime
-4.6662	mix
-5.6746	hail
-8.2891	marcus
-4.3287	supply
-4.5013	struck
-5.0708	bat
-4.8732	files
-5.4296	cents
-4.3172	transfer
-4.3697	sides
-6.9881	jin
-4.4541	opera
-5.5902	bug
-5.3957	jokes
-3.8391	provide
-8.0972	barbara
-8.7663	patrick
-5.5087	angels
-3.8478	design
-7.5030	willie
-4.6154	behavior
-4.6948	affairs
-7.0259	ken
-5.3710	pour
-6.0207	heavens
-4.8982	mysterious
-3.7516	current
-4.8942	instance
-4.8784	cave
-4.2299	connected
-4.9400	gear
-5.3308	passport
-5.2635	announcer
-4.4654	dating
-4.7697	beaten
-7.2657	herr
-4.7714	legend
-4.5338	enjoyed
-4.8679	nephew
-5.5550	belly
-4.0103	religious
-5.0731	dancer
-4.2198	producer
-4.7354	exercise
-4.7823	thick
-5.3973	ignore
-4.4068	fuel
-5.8446	traitor
-4.1942	technology
-6.2243	frankly
-6.6636	pat
-6.2945	cd
-5.8723	cried
-5.1719	lane
-8.5444	ellen
-4.6016	believes
-5.3155	touching
-4.9791	bowl
-5.5504	butter
-5.0764	bombs
-5.7602	francs
-8.7663	sophie
-4.3756	theatre
-6.7302	doo
-5.0878	intelligent
-4.7312	net
-8.2434	stanley
-5.3690	betrayed
-5.0466	basement
-5.7104	wasted
-5.5607	footsteps
-4.4847	downtown
-4.2099	defeat
-4.9520	bars
-4.8752	distant
-4.4847	surrounded
-5.3226	bells
-5.0029	impression
-5.1392	toy
-4.5269	sport
-8.1642	kyle
-6.1486	wallet
-5.1382	trunk
-4.5076	homes
-4.7340	partners
-4.7784	wore
-5.9665	coke
-5.8560	turkey
-4.4185	accused
-5.5514	diamonds
-4.7996	plastic
-4.5236	landing
-8.2891	ouch
-5.7829	dreamed
-4.3341	territory
-5.5333	obey
-5.6264	marshal
-4.6935	fort
-8.6413	norman
-4.7336	trail
-3.8790	league
-5.1185	kidnapped
-4.7110	shore
-4.5364	task
-5.2863	trusted
-8.5444	doug
-3.9750	western
-4.4717	wins
-4.8345	impressed
-8.2891	stephen
-5.8375	strangers
-5.4708	confession
-5.0366	rape
-5.4261	rats
-5.7408	embarrassed
-5.7650	begging
-4.4882	motion
-5.1995	blast
-8.5444	vincent
-5.1547	mouse
-6.5931	growling
-4.6946	merely
-6.4052	lads
-4.8720	package
-6.5265	busted
-5.8738	anti
-5.1664	monk
-5.2484	wives
-4.6968	agents
-4.4058	seats
-4.0512	division
-4.6713	balance
-5.1286	inform
-4.8691	citizen
-4.8837	waves
-8.6413	gary
-8.5444	moscow
-5.3957	accent
-6.9423	jo
-5.4492	un
-5.6689	sandwich
-5.0393	cameras
-5.1220	beings
-4.4130	attend
-4.0059	shown
-5.5757	policeman
-8.7663	margaret
-4.9956	reasonable
-8.0129	josh
-5.6090	robin
-4.7184	tunnel
-5.0627	routine
-5.3144	neighbors
-4.2615	perform
-4.5225	drew
-5.1046	recall
-5.3227	eternal
-5.7106	drank
-6.7068	awfully
-8.4652	wednesday
-4.1110	influence
-4.3371	figures
-6.9578	greek
-4.5587	poetry
-5.3507	liberty
-5.9783	swell
-5.3600	painful
-5.6961	ye
-5.9365	smiling
-5.2341	suspicious
-5.3239	knight
-8.1294	angela
-5.8377	earl
-3.8384	reported
-3.9826	units
-6.2071	chill
-8.7663	harold
-6.5787	tits
-5.3962	admiral
-7.0078	mars
-6.4071	coughing
-5.0071	holes
-5.1772	adjusted
-7.3683	moron
-6.6009	jay
-6.7736	prick
-4.9801	everyday
-4.9071	rifle
-4.6008	bishop
-7.1789	beth
-4.8710	clients
-5.5618	robbed
-4.8078	hoped
-5.1721	warrant
-5.3961	fond
-5.0192	rocky
-4.1911	unique
-5.2364	marrying
-4.5273	goods
-5.3413	pound
-8.7663	louise
-4.1595	ability
-7.1535	slut
-5.2953	crush
-8.3983	nancy
-5.7484	thieves
-4.7256	golf
-4.9668	stake
-5.2809	fence
-3.9018	players
-6.1153	woo
-5.5620	cleaned
-4.7575	patrol
-5.6207	sire
-5.1999	resist
-7.2611	stan
-7.1715	hee
-5.0317	cloud
-4.3395	chairman
-4.7343	traveling
-5.2644	habit
-6.4725	thirsty
-5.2287	pays
-5.2328	blown
-4.2660	von
-6.4595	bothering
-4.9015	messages
-4.5981	possibility
-5.4096	lovers
-4.0261	novel
-4.5164	normally
-6.7043	august
-5.2912	mistaken
-6.5541	reverend
-5.2862	enjoying
-5.2128	wagon
-7.1500	excellency
-4.7373	emotional
-5.2191	packed
-4.8966	widow
-6.4983	dope
-6.9130	boo
-5.6153	cheating
-4.8041	machines
-4.8576	atmosphere
-3.6614	v
-8.0673	charlotte
-4.4025	generation
-6.1372	siren
-8.0972	ruth
-5.5921	delighted
-4.8671	exit
-5.3641	beef
-7.1294	bitches
-4.6066	exists
-7.2566	nigga
-8.6413	gus
-4.1881	tracks
-4.0262	collection
-7.4510	auntie
-5.1571	precisely
-6.1479	bud
-4.2813	principal
-4.6038	actors
-5.6324	nail
-8.9423	harvey
-5.9195	disturb
-8.5444	ugh
-5.7034	skip
-7.2100	july
-5.1758	trigger
-8.6413	karl
-4.3694	passes
-4.6893	crisis
-4.4887	identity
-4.5015	describe
-5.6560	sins
-5.4860	reminds
-5.2461	washed
-5.4066	sink
-4.8810	stretch
-4.9413	instructions
-5.0101	sail
-3.7100	average
-5.2839	demon
-5.7973	dough
-5.7063	worries
-5.6629	baron
-6.0256	worrying
-4.7047	charity
-5.3225	magnificent
-5.1752	pet
-4.3934	existence
-5.8023	wondered
-8.1294	francis
-5.0365	photograph
-5.6954	complain
-5.1477	answered
-5.7681	wicked
-4.4305	flow
-4.7657	invented
-4.5455	visiting
-6.9402	nigger
-5.1910	halt
-8.3983	catherine
-4.4002	aid
-3.7772	designed
-4.5543	underground
-5.5124	charm
-4.7690	cattle
-4.7430	owns
-4.7771	occasion
-4.9363	worker
-4.4482	survived
-3.5569	species
-5.5810	hood
-5.6593	nerves
-6.7396	moaning
-4.3629	electric
-5.4741	jam
-9.2434	caii
-3.7723	throughout
-4.0401	countries
-5.5989	purse
-5.5731	pretending
-4.8713	smooth
-4.9766	divine
-4.9920	seal
-4.9302	lessons
-4.8098	hopes
-5.6549	comrades
-4.4193	temperature
-7.2305	september
-4.8530	experiment
-6.2020	chop
-6.3563	ta
-4.3802	tradition
-9.2434	jonathan
-6.9316	dont
-5.1035	heroes
-4.3962	equal
-4.9214	virus
-6.8668	bo
-6.4860	sec
-5.2755	tragedy
-5.0374	gates
-4.0349	organization
-5.1885	powder
-8.5444	antonio
-4.7353	martial
-5.6544	splendid
-7.5621	mickey
-5.2129	mud
-5.6899	wrap
-4.6385	sang
-4.0112	standard
-6.9979	beeps
-4.5548	begun
-4.7302	valuable
-8.6413	russians
-6.0285	couch
-4.4411	delivered
-4.5824	contest
-4.6448	flew
-5.4943	realise
-8.5444	jacob
-4.5209	skills
-4.3881	arts
-4.9336	ad
-4.3412	highway
-6.1606	homework
-4.6999	informed
-5.6907	interrupt
-4.5068	threatened
-7.3140	lewis
-4.4269	tries
-4.1177	industry
-4.6563	print
-4.9474	pole
-4.9064	ward
-4.4688	offering
-7.7962	eva
-4.3040	theme
-5.2826	criminals
-4.3496	fans
-4.8425	soap
-4.6580	string
-4.2380	scientific
-4.7974	impressive
-5.0627	farmer
-5.3526	punished
-6.0544	fabulous
-6.1298	kung
-4.3828	gain
-4.9090	adventure
-5.0705	commissioner
-4.5766	poem
-4.7830	discover
-4.0256	financial
-4.1283	issues
-6.1294	whistling
-5.1910	inch
-8.9423	greg
-4.6684	colour
-6.1416	teddy
-4.9241	escort
-5.4445	burns
-5.9047	polish
-5.3179	vampire
-5.1846	beats
-5.3390	chef
-5.1747	frozen
-5.0042	pro
-6.1355	headache
-4.6872	dramatic
-4.0494	network
-4.1172	centre
-6.5873	ba
-6.1804	yell
-4.6847	scientists
-4.7498	electricity
-4.9835	invitation
-4.6653	waters
-5.0031	furniture
-4.4769	reaction
-6.0401	suitcase
-4.4902	device
-6.6069	chatter
-8.9423	davis
-5.3751	bend
-4.2578	basic
-4.5571	instrumental
-6.0805	slap
-4.0448	earned
-4.0913	systems
-5.6457	cowboy
-3.9662	highest
-3.8853	related
-4.3487	classes
-8.0673	boston
-8.5444	alexander
-5.9158	stubborn
-4.9195	divorced
-3.9831	studied
-6.4830	wee
-3.7201	developed
-4.6477	destruction
-4.8934	praise
-5.3805	bottles
-4.5767	cable
-5.8146	manners
-5.6547	laundry
-4.4958	interests
-4.8393	beneath
-4.6831	moral
-3.9550	schools
-5.3231	lightning
-4.3855	authorities
-4.5690	engineer
-4.8594	permit
-7.5110	exhales
-4.6197	behalf
-4.6969	fighter
-4.1298	smaller
-7.4580	cole
-5.9000	swallow
-6.5418	messed
-6.3609	whispers
-4.3515	plants
-5.6392	deserves
-4.9377	knee
-4.2320	holds
-5.8229	clown
-5.9115	shouts
-6.4762	latin
-3.8709	placed
-6.6764	doorbell
-5.2139	worthy
-4.8896	cinema
-5.4151	cage
-5.6049	es
-4.9517	finest
-4.8557	favourite
-5.9769	waiter
-5.8675	junk
-3.6722	appeared
-7.9423	ron
-4.7283	strip
-5.3938	guilt
-4.2189	removed
-4.5397	passengers
-5.8760	buzz
-8.0972	tryin
-5.1533	kit
-4.5873	deputy
-6.8893	granny
-5.1665	underneath
-7.5274	cunt
-5.9154	hers
-5.3560	shark
-3.8671	construction
-4.6898	newspapers
-5.3222	eagle
-4.5181	poet
-7.8632	oscar
-5.3367	cliff
-4.4381	painted
-5.4098	sounded
-4.8545	absolute
-4.1966	captured
-4.6889	boats
-8.6413	tyler
-4.9788	counts
-7.9423	parker
-5.0035	peaceful
-8.3983	rita
-8.9423	holmes
-5.9325	madness
-8.6413	raymond
-6.3222	softly
-5.3835	slipped
-4.7798	considering
-4.2361	effects
-4.2573	prevent
-5.6550	snap
-4.3754	sets
-4.8558	ambassador
-4.7285	decisions
-7.9881	nina
-5.4578	listened
-5.9170	honeymoon
-5.4444	bail
-5.8180	beard
-4.7206	superior
-5.5411	hut
-5.8432	yen
-8.5444	ofthe
-5.9835	underwear
-4.9636	tale
-6.7916	heck
-5.2548	warrior
-5.2425	chip
-4.8214	crimes
-9.2434	steven
-8.2891	jordan
-9.2434	ricky
-5.0990	bitter
-8.0393	juan
-4.5354	injured
-4.2698	returning
-5.1358	contrary
-4.9303	terrorist
-4.0160	uses
-4.9696	shelter
-5.4400	hid
-4.5529	eleven
-6.8472	scoffs
-5.1811	mount
-5.2081	dealer
-5.1491	forbidden
-4.5537	limit
-5.3681	liquor
-5.5396	imagined
-4.7349	chamber
-5.5374	sauce
-4.1016	produce
-8.1642	miami
-5.1771	odds
-4.3878	combat
-6.1656	baker
-5.1561	corn
-5.0664	costume
-4.1922	potential
-4.5035	images
-5.7053	cries
-4.3662	yards
-4.9164	succeed
-4.7405	argument
-5.3242	propose
-8.2891	tina
-5.0743	shed
-5.6705	insult
-4.9690	relatives
-4.7634	pitch
-5.5651	beans
-5.9218	salad
-4.1107	complex
-5.4433	corpse
-4.5275	commission
-5.5821	meanwhile
-5.1155	murders
-6.3569	raining
-5.4103	gym
-5.8249	lazy
-4.1144	nearby
-4.6390	landed
-4.2182	granted
-5.8233	roses
-5.6176	goat
-6.9029	scum
-5.3567	foul
-6.9191	beep
-4.7216	operator
-4.6246	meters
-6.0693	yells
-4.9215	helicopter
-4.3511	acts
-4.7427	internet
-4.5835	frame
-5.3802	cancel
-4.4984	link
-5.4172	exhausted
-5.2663	pin
-5.9226	daisy
-5.7890	absurd
-4.8337	slaves
-5.3653	hammer
-5.8875	admire
-8.6413	williams
-5.6119	tastes
-4.5873	identify
-4.5185	benefit
-5.4711	corrected
-8.9423	benny
-4.5897	motor
-5.0480	quarters
-5.1373	boxes
-5.1209	gifts
-6.2754	greetings
-5.4074	ace
-3.9295	election
-4.4070	replace
-4.9113	therapy
-4.8891	loyal
-4.1946	cities
-8.7663	jamie
-4.0758	specific
-5.6649	blonde
-5.8075	catholic
-5.4022	troubles
-4.4007	et
-4.8352	fantasy
-4.2789	confirmed
-5.4736	punish
-4.8258	daughters
-5.3112	dressing
-4.4319	charged
-4.2884	represent
-4.8918	cleared
-5.0439	custody
-5.2655	mothers
-4.8842	clan
-3.7019	version
-5.2842	dive
-5.3359	elephant
-5.9800	si
-4.0353	native
-4.9308	counter
-5.1052	jumping
-4.4113	cells
-5.2924	prayers
-5.5189	dumped
-5.1093	skull
-5.0025	stroke
-4.3254	determined
-7.8816	florida
-4.9961	fights
-5.7296	pearl
-6.0398	rubbish
-5.0414	romance
-5.4125	freezing
-5.5586	anxious
-4.5652	teachers
-5.5167	avenue
-6.3706	naughty
-4.2261	product
-3.9863	individual
-4.7703	communist
-5.3437	tooth
-5.1836	gambling
-5.4929	shoulders
-5.1428	timing
-4.8869	rocket
-5.5670	grief
-5.4764	brush
-6.3609	sucker
-5.8456	chicks
-4.9349	enormous
-4.3919	actions
-4.5715	testing
-5.7467	alley
-5.1739	humanity
-8.7663	dennis
-7.5110	wong
-5.1071	lawyers
-8.9423	judy
-4.4056	brief
-4.7393	personality
-4.4680	documents
-4.6841	assault
-5.0708	judgment
-4.8160	literally
-5.6748	potatoes
-5.1560	robot
-4.7988	angle
-8.6413	anthony
-7.6413	ail
-4.4598	mobile
-5.4476	invisible
-4.9422	drives
-4.9252	sends
-5.3619	pope
-4.1456	status
-4.9428	profit
-5.2102	wounds
-4.3455	actual
-5.7282	nut
-5.4180	tent
-4.1739	host
-5.2838	barn
-4.7987	stress
-4.5295	broad
-4.9836	gross
-4.0810	companies
-5.4188	chips
-5.5061	sack
-5.3572	kicking
-8.9423	feei
-6.8120	cooper
-6.6029	stink
-4.0645	recording
-4.5428	anniversary
-4.5785	expression
-4.8550	oxygen
-4.5216	paintings
-5.4180	raped
-5.9621	squeeze
-4.6047	en
-5.2130	ranch
-3.8384	directed
-5.0882	crystal
-3.8972	southern
-4.5006	di
-5.6465	whip
-6.8454	coughs
-4.5767	labor
-4.6086	relief
-6.3014	soviet
-4.4049	adult
-4.8925	scientist
-5.3311	hostage
-4.9367	wars
-6.1486	marvelous
-5.6768	fascinating
-8.7663	oliver
-5.2203	blade
-4.1926	upper
-5.0564	sings
-4.4800	scale
-5.5315	alike
-4.1792	response
-5.9947	drown
-5.9681	spoil
-8.3983	lucas
-4.3395	festival
-5.7648	fellows
-5.8091	sunshine
-4.9589	salary
-4.4549	jazz
-7.9010	assholes
-8.7663	harris
-5.1553	palm
-4.5634	extreme
-7.2989	october
-4.1190	characters
-4.4215	fleet
-5.1398	pump
-4.2599	unable
-5.7179	luggage
-5.2613	clinic
-4.5952	visitors
-5.7567	shaking
-5.4093	sailor
-5.8523	cheated
-5.5681	pockets
-5.1111	promises
-4.7882	horror
-5.5699	eats
-4.9253	clay
-7.8284	canada
-4.0798	forms
-7.4510	stinks
-5.4212	nowadays
-6.4777	dame
-5.5094	answering
-5.0240	abandon
-4.9361	jet
-5.6947	corporal
-5.4265	washing
-5.0413	offense
-5.8794	polite
-5.0653	deeper
-5.2569	dishes
-7.3626	blah
-4.2939	drama
-4.1653	minor
-4.2622	editor
-5.0005	wheels
-4.5638	roads
-6.4039	mo
-4.3114	slightly
-5.8887	ford
-5.1809	sandy
-5.4611	humble
-4.7930	throne
-5.1388	confirm
-6.7018	screeching
-5.0164	backup
-5.4539	digging
-6.1301	shave
-5.9408	sore
-4.8708	remarkable
-4.5806	driven
-4.9590	pit
-8.7663	sammy
-5.8583	socks
-4.8944	engagement
-6.3795	bunny
-4.9157	delay
-4.7378	colors
-5.5972	sneak
-4.7192	sung
-6.7249	ay
-4.3722	typical
-4.5060	resistance
-6.1278	rub
-4.4921	environment
-5.5431	shining
-4.4835	returns
-4.2300	occurred
-4.0334	buildings
-5.7133	meantime
-5.4323	tap
-6.1440	walker
-5.4127	depressed
-7.2181	african
-8.0129	mademoiselle
-6.0684	vodka
-5.0262	diet
-4.3160	heavily
-5.3486	wisdom
-8.0972	pedro
-5.1366	faithful
-5.6614	ripped
-6.4952	holly
-4.6483	statue
-6.1202	louder
-9.2434	tracy
-5.2364	defendant
-4.6870	grows
-5.4830	gently
-4.6612	manner
-4.5043	crossing
-3.9995	recent
-3.9506	groups
-5.0802	spin
-8.5444	ralph
-8.3403	vietnam
-6.0624	su
-5.5884	praying
-5.4322	con
-5.3272	recommend
-5.9130	lamb
-5.2029	humor
-4.7666	pages
-7.3089	anyhow
-4.8682	pale
-5.4451	pile
-4.8651	grey
-8.1294	sid
-4.9616	dropping
-7.2702	jan
-5.9458	khan
-5.3506	chaos
-5.7229	soda
-5.4292	fits
-4.2438	claims
-5.2659	jersey
-4.5658	apply
-5.6356	kisses
-6.2735	skinny
-9.2434	ronnie
-9.2434	iot
-5.0489	torn
-4.9223	academy
-4.9160	cotton
-4.9329	kings
-4.6567	intention
-8.1642	matthew
-6.3643	champ
-4.5515	explained
-5.1382	burnt
-4.3861	maintain
-5.3432	spider
-8.0393	brazil
-5.3459	twins
-6.4045	humming
-6.9578	honking
-4.3567	attacks
-5.7007	gloves
-4.1788	stations
-4.7827	bears
-7.1067	kay
-7.1865	dutch
-5.9308	misery
-4.5980	facing
-4.3041	sales
-3.9798	commercial
-5.6504	pan
-4.4273	drawn
-8.5444	joan
-4.6828	remote
-5.1927	exam
-5.2765	phones
-4.4454	capture
-4.3331	transport
-4.7889	battery
-5.6398	cows
-7.2140	allen
-4.4578	separated
-6.2071	brandy
-6.3306	buzzing
-5.4537	unfortunate
-5.7524	penis
-8.1294	ross
-5.0858	profession
-6.4020	messing
-5.7044	cherry
-4.4696	classic
-4.9196	protecting
-4.7965	cemetery
-8.2020	diego
-5.1917	servants
-7.1903	maya
-4.6964	bid
-3.9999	musical
-6.5731	donna
-5.3374	toys
-5.2350	bee
-4.4968	plot
-4.6601	supplies
-5.4365	cared
-5.0620	parade
-5.5730	crane
-8.7663	egypt
-5.4034	advise
-5.1626	patch
-7.9881	dna
-6.0758	envy
-4.6095	option
-4.8209	signature
-6.8705	hush
-5.2982	casino
-4.0341	increase
-4.7033	shell
-6.0544	nicely
-5.3334	drill
-4.4940	protected
-5.4025	twist
-4.1688	matches
-5.7453	temper
-5.9083	min
-8.5444	lincoln
-4.9840	consequences
-6.1304	steak
-5.4170	dignity
-6.0333	ham
-4.6637	blocks
-4.5074	massive
-5.8984	sorrow
-4.4267	rear
-5.0534	coin
-8.7663	freddy
-4.6375	centuries
-7.8120	ned
-7.2348	dee
-6.0127	hopeless
-4.1775	recognized
-5.7061	z
-6.6764	rumbling
-9.2434	cla
-5.4821	backwards
-5.3792	ashes
-6.1114	clicks
-4.3485	format
-5.1244	shocked
-5.9021	chin
-5.1183	drops
-5.1293	safely
-4.7941	wealth
-8.2434	jess
-5.3812	delicate
-3.3896	population
-4.1942	medal
-4.9332	respond
-5.5364	coffin
-3.8880	introduced
-6.6099	almighty
-4.1929	compared
-5.4913	que
-8.2020	virginia
-5.9505	goose
-7.1465	gloria
-8.3983	jennifer
-5.0294	comment
-4.1141	transferred
-4.0738	studies
-4.6184	entertainment
-5.9367	laughed
-7.2940	mexican
-4.6218	appeal
-5.9713	pill
-5.4028	sub
-8.4652	amanda
-4.2992	activity
-6.1552	towel
-5.2012	slide
-5.8206	ups
-5.2397	tragic
-8.9423	claus
-4.2678	leaders
-5.0293	fires
-4.9401	feeding
-8.2434	leon
-4.3526	faced
-4.4149	core
-4.5926	satellite
-8.7663	wendy
-8.2020	mick
-5.8045	motel
-6.1631	ja
-4.7006	worn
-4.2802	shortly
-8.4652	aaron
-5.4797	happily
-5.6111	objection
-4.6253	chapter
-5.6471	mankind
-4.2349	executive
-8.2434	romeo
-5.8229	breasts
-4.3057	global
-4.2316	basketball
-4.0173	serving
-4.5005	entering
-4.9812	rhythm
-5.4793	grabbed
-4.9114	nest
-4.6286	soccer
-8.6413	uhh
-5.4935	fried
-5.8463	betray
-5.3521	terror
-4.6777	stable
-7.8816	wh
-8.4652	dammit
-4.4383	experienced
-5.1276	liver
-4.8372	procedure
-4.8579	reception
-4.6265	solar
-9.2434	zack
-5.3220	wreck
-5.9289	bothered
-4.4951	measure
-8.9423	howdy
-4.9341	illness
-5.1027	wears
-4.5932	accounts
-4.9913	talented
-5.4782	dull
-4.9370	arguing
-4.0195	retired
-5.3609	checks
-7.3089	whimpering
-4.7187	gathered
-4.0471	appearance
-4.7487	demands
-4.1266	artists
-5.1275	dish
-5.1072	rap
-6.3441	han
-4.2213	basis
-5.6194	blanket
-5.0535	loyalty
-4.6267	unlike
-5.8856	kindly
-5.4335	fog
-6.4770	fooling
-5.4759	sticks
-5.7013	bugs
-5.2935	zoo
-5.4227	blessing
-6.9511	giggling
-5.3393	pulse
-5.3844	lamp
-5.6104	samurai
-4.7751	photographs
-5.8617	perfume
-4.8356	taxes
-5.0576	threatening
-6.3264	banging
-7.2522	december
-4.9173	abroad
-4.3952	dates
-4.1213	officially
-5.2186	burden
-5.1837	oath
-3.7099	development
-4.0980	award
-8.9423	mario
-4.4248	marine
-7.7382	felix
-5.7866	bargain
-4.6429	tools
-5.2829	catching
-6.1044	rusty
-7.1294	hans
-7.5806	irish
-5.2989	cooked
-4.6226	rising
-5.0230	rubber
-5.7928	kindness
-5.3624	hunger
-4.3370	positions
-4.8084	payment
-5.3556	dragged
-4.4679	scenes
-8.6413	russell
-5.3980	drowned
-5.6241	faint
-8.6413	bernard
-5.3164	interfere
-8.2020	hercules
-5.7258	cellar
-8.5444	vince
-7.4238	soo
-5.5192	excitement
-6.3654	troy
-4.8073	constantly
-4.6794	dismissed
-4.5650	pattern
-4.9998	item
-5.3081	niece
-9.2434	sarge
-6.3452	pacific
-6.3280	ji
-5.2410	badge
-4.5632	conduct
-5.0751	goddess
-5.3194	differently
-5.1860	frog
-6.3958	gunshots
-4.5223	engines
-5.6706	smash
-8.6413	derek
-6.6191	shove
-5.6663	sunny
-5.6425	toes
-4.3189	sixth
-4.8916	stepped
-4.8003	reveal
-4.5932	tennis
-4.6847	discussion
-5.4137	monsters
-8.3983	ivan
-9.2434	xena
-3.8497	previous
-8.6413	maurice
-4.2782	visited
-5.2273	mob
-4.9475	assignment
-4.1665	organized
-7.1942	superman
-4.6717	gene
-4.2883	proved
-5.3491	poker
-5.7959	nails
-5.7581	ram
-4.6109	symbol
-5.0298	lighter
-5.5182	pork
-7.7663	satan
-5.7466	forgiveness
-4.5691	inner
-5.2526	republic
-5.2121	emotions
-4.4361	makeup
-5.4893	terrorists
-5.7023	homicide
-7.4952	fanny
-5.1421	bits
-5.4684	apology
-4.6348	soil
-4.5695	session
-7.3683	november
-5.6552	vain
-5.1286	supreme
-5.0742	masters
-5.9485	forgetting
-4.7324	sum
-4.9360	survival
-5.3664	hatred
-9.2434	kenny
-8.3403	jessica
-5.2387	scout
-5.7361	shadows
-5.3836	fathers
-5.1089	colleague
-5.3511	boot
-4.6209	discovery
-3.3721	album
-6.9692	buddha
-5.5120	senses
-7.6523	carmen
-5.1476	tender
-4.9625	plates
-4.8431	lap
-9.2434	rebecca
-4.7950	arrives
-4.4979	arrival
-5.2162	deadly
-4.8160	celebration
-5.6027	understands
-4.7942	tanks
-4.3828	entry
-4.8928	boarding
-7.6993	motherfuckers
-6.1298	puppy
-5.3143	airplane
-9.2434	watson
-6.7328	warren
-4.3054	shared
-5.0140	discipline
-4.6565	possession
-5.3408	tin
-8.9423	philip
-6.5086	wailing
-5.4753	incredibly
-5.7864	necklace
-8.2434	marco
-5.7336	warden
-5.8801	butcher
-8.7663	nathan
-5.0539	inches
-6.8650	rosa
-8.4652	yup
-6.5585	fuss
-8.7663	houston
-6.0246	happier
-5.4641	stiff
-9.2434	nicky
-8.9423	jacques
-4.3739	joining
-8.4652	lawrence
-4.5892	belonged
-6.1278	countess
-4.0998	management
-4.4972	folk
-6.8507	european
-4.5040	temporary
-4.6312	practical
-8.0673	vic
-4.9347	cent
-6.7885	asses
-5.6460	cart
-5.4600	rehearsal
-4.6691	protest
-4.8859	retreat
-5.1025	surveillance
-8.1294	liz
-6.8088	scotch
-4.5942	tend
-5.2088	pistol
-3.6202	produced
-4.3403	del
-6.0740	cookie
-5.6011	flip
-4.7284	reporting
-4.3740	operate
-5.6561	bucket
-3.5798	various
-6.0209	lo
-6.7145	booze
-5.4956	inn
-5.2898	math
-5.6484	glorious
-8.6413	kurt
-4.8036	tons
-5.5564	disturbing
-5.3409	searched
-4.5274	acted
-3.9619	required
-5.8818	bets
-5.2819	bare
-4.5912	vast
-5.8666	crawl
-6.1660	ruby
-5.7204	chanting
-8.0673	israel
-5.8170	forbid
-5.0931	gravity
-4.8233	preparing
-5.0472	leather
-3.9242	owned
-7.6993	sis
-5.5404	basket
-4.6707	nations
-4.3324	rank
-5.0476	embassy
-4.2376	branch
-3.9108	active
-5.0501	depend
-5.1330	instant
-6.4420	eyed
-6.0702	chi
-5.2585	lit
-4.6235	penalty
-5.5483	packing
-5.0619	borrowed
-5.3654	weakness
-5.6455	gum
-4.4223	attached
-5.0904	ancestors
-4.5064	personnel
-5.0872	barrel
-4.8425	drum
-5.2681	sheets
-6.2451	stare
-8.2020	abby
-5.4575	potato
-9.2434	christopher
-4.5504	philosophy
-4.4217	causes
-5.6496	deserved
-5.5439	needle
-8.2891	allah
-5.6716	fashioned
-6.8596	darn
-5.5360	heal
-4.9647	wished
-4.9053	muscle
-4.8707	cuts
-5.6288	rage
-4.8777	raid
-5.4712	daylight
-7.2305	giggles
-4.7987	honored
-9.2434	neil
-5.5207	leak
-5.3880	blank
-5.5304	uncomfortable
-7.7810	jung
-4.9784	breast
-5.3852	flame
-3.6963	recorded
-5.2326	halfway
-5.1235	feast
-8.9423	casey
-4.3361	closely
-5.3766	sorts
-7.9010	hallelujah
-5.4189	unfair
-5.0291	testimony
-5.4605	testify
-5.7709	sticking
-5.5804	complaining
-3.8355	areas
-5.2142	suspects
-7.0447	nazi
-6.8779	chap
-6.2104	porter
-5.9323	ne
-6.0920	worthless
-4.0678	operations
-5.3735	tense
-5.4214	tire
-4.6762	meetings
-4.2399	marked
-6.1423	fooled
-5.9006	neat
-4.4837	amongst
-6.1667	em
-8.3983	barney
-5.2566	announce
-7.1903	nelson
-4.4659	achieve
-4.5595	duties
-4.3149	impact
-4.7532	ideal
-5.6070	se
-4.8410	grandson
-5.1268	celebrating
-5.2475	diary
-4.4093	importance
-4.5581	steam
-4.8998	register
-4.8344	investigate
-9.2434	erm
-8.4652	bruno
-4.2104	text
-5.6728	buffalo
-5.2112	rumors
-5.2752	approve
-4.7252	limits
-5.2530	congress
-4.5306	islands
-5.1413	deposit
-7.1981	shitty
-5.8297	bait
-5.8453	fist
-5.4516	carpet
-4.8146	suspected
-8.9423	fbi
-4.1214	intended
-4.9933	dining
-5.4739	safer
-4.3116	effective
-5.6250	toe
-8.9423	nicole
-5.8439	chickens
-8.6413	anderson
-4.9836	strikes
-3.8464	teams
-5.1255	carriage
-5.2379	burst
-4.9124	bore
-5.1533	visitor
-5.8082	dessert
-4.8379	fame
-5.5806	lean
-5.5535	awkward
-8.5444	australia
-4.2446	review
-4.6738	arriving
-4.7291	rounds
-5.3681	bureau
-4.6013	proposal
-5.0580	foster
-4.9377	photographer
-8.9423	todd
-6.0207	dreadful
-5.7792	jewels
-4.5148	railroad
-5.1195	treating
-8.1294	hiya
-8.1642	owen
-5.4546	horns
-7.0233	sobs
-4.3264	trains
-6.2108	dime
-4.5481	immediate
-5.7523	pre
-4.4351	foundation
-5.0837	scandal
-4.8933	raw
-8.9423	michel
-4.5158	grounds
-5.6760	cursed
-6.3290	lick
-4.3459	internal
-3.8882	northern
-5.3147	disturbed
-5.9549	donkey
-4.3574	causing
-7.6413	oughta
-5.3241	confident
-5.9697	disgrace
-6.2322	eternity
-4.3980	combination
-4.2268	method
-7.4173	randy
-4.8197	sits
-6.7275	ii
-5.9408	bump
-5.6414	worm
-5.1633	silk
-4.2240	suggested
-5.6702	hooked
-5.3951	rod
-5.6760	upside
-4.1987	concept
-5.0370	conspiracy
-4.2166	critical
-5.0905	sealed
-5.3379	alpha
-4.5601	spiritual
-4.3147	comedy
-5.1949	wrapped
-5.7178	telegram
-6.7043	dong
-5.1917	prints
-4.5188	constant
-5.0140	retire
-5.8219	explode
-4.4700	lands
-4.0651	structure
-5.2005	recognise
-5.6267	tattoo
-5.9891	cookies
-5.7533	weed
-8.7663	sayin
-5.3169	worlds
-8.5444	donald
-4.7325	sample
-6.0644	gin
-4.6297	column
-5.1894	suite
-7.0028	marshall
-5.7371	skirt
-5.8146	killers
-8.3983	blake
-6.9979	raj
-5.1223	surgeon
-6.1382	bingo
-4.6864	raising
-5.2466	privacy
-5.1063	fraud
-4.4363	chemical
-4.3569	relations
-5.2653	hears
-5.8373	skies
-4.5328	communication
-8.6413	ian
-4.7397	sharing
-4.9612	sheet
-4.5563	denied
-5.8306	apples
-8.9423	michelle
-8.0673	oops
-8.2891	korea
-5.4049	ladder
-5.6396	booth
-7.1642	ding
-4.4722	economy
-5.3296	plague
-4.5394	existed
-4.4630	phase
-5.7693	sunset
-8.4652	miguel
-3.7591	largest
-6.1454	mason
-8.4652	brooklyn
-5.1033	trucks
-4.4666	du
-5.4759	snakes
-5.3643	holidays
-5.0194	floating
-5.6166	toss
-7.1865	yu
-3.9427	defeated
-6.5265	dearest
-6.7328	fridge
-3.8284	provided
-5.5150	unto
-6.1733	pops
-5.4368	stabbed
-5.4796	obsessed
-5.4383	danced
-4.3889	racing
-5.5140	poisoned
-7.3349	faggot
-4.6046	brick
-8.0972	craig
-3.8482	region
-3.9471	independent
-4.3372	content
-6.7328	growls
-8.2891	lola
-8.2891	gabriel
-6.2289	whistles
-4.3903	require
-5.0489	democracy
-4.7976	profile
-6.3387	gal
-4.8139	reverse
-4.8836	colleagues
-5.1175	declare
-5.6375	porn
-4.6589	defence
-5.2389	planets
-5.3162	picnic
-4.6007	appropriate
-4.7062	connect
-4.8438	options
-4.0297	eastern
-4.8208	necessarily
-5.0343	clerk
-9.2434	natalie
-7.2020	rio
-4.9509	mall
-4.3138	permanent
-8.3403	paula
-6.2657	sleepy
-6.8705	psycho
-4.4416	somewhat
-4.2516	advanced
-4.9871	mere
-6.4115	yang
-5.8133	scar
-5.3508	embrace
-8.7663	shirley
-5.0444	tracking
-4.9382	elsewhere
-5.8768	sober
-4.6371	passage
-5.3045	sweep
-6.1697	handy
-4.7682	root
-4.5166	budget
-5.5678	shirts
-4.3606	promotion
-5.7499	cigar
-5.4174	whale
-7.7249	mel
-3.9614	aircraft
-4.4346	height
-5.9378	annoying
-6.4845	buddies
-5.0343	log
-5.6446	wolves
-4.8032	orchestra
-7.7520	willy
-7.2181	arse
-6.2647	drawer
-6.1172	creep
-4.2161	develop
-4.8586	spite
-5.8980	rot
-4.2506	creating
-7.2263	graham
-4.7664	intense
-5.0351	lecture
-4.9540	drums
-8.2434	nora
-4.9699	boxing
-8.3403	scotland
-5.1928	harbor
-5.8482	hopefully
-5.1297	complaint
-5.3529	las
-5.1493	counsel
-4.0149	limited
-4.9195	tomb
-4.6511	painter
-4.7432	repair
-4.6086	fund
-7.4580	victoria
-4.6121	executed
-4.6369	writes
-9.2434	stuart
-4.9187	recover
-5.4338	collar
-8.4652	thinkin
-5.7370	lemon
-5.0648	observe
-8.6413	sonia
-5.3441	villa
-4.6798	affect
-5.1271	examine
-5.3897	brakes
-6.6647	muffled
-6.9786	freaking
-4.6132	strategy
-3.8461	completed
-4.4919	persons
-4.5823	creative
-6.9930	tae
-5.0955	purple
-7.4173	oi
-5.3308	tapes
-5.8039	candles
-4.8816	tube
-5.2480	audition
-5.1845	solved
-4.5217	journalist
-8.2434	murphy
-4.8031	radar
-4.5053	reserve
-5.6312	monkeys
-6.1922	roaring
-4.6876	relationships
-4.8221	error
-5.5291	messenger
-5.6522	offended
-5.5257	wandering
-4.5530	technique
-4.4697	relative
-5.8052	terrified
-5.2780	civilization
-4.5257	coal
-5.2205	cease
-4.5363	assistance
-4.9321	strictly
-4.9085	dialogue
-5.9075	appetite
-5.5149	mortal
-3.8994	episode
-4.8334	ministry
-5.1839	cannon
-4.8977	tag
-5.4733	demons
-4.7534	winds
-5.0348	shield
-7.1465	wu
-5.1378	fears
-4.1968	function
-8.7663	leonard
-6.9274	turner
-5.4095	motive
-4.9240	ultimate
-8.5444	rudy
-4.7996	worship
-5.9207	sleeps
-5.5399	locker
-7.7962	wha
-7.2140	seor
-5.4554	medication
-5.1319	laying
-4.7214	fairly
-8.9423	carla
-6.5070	
-4.5655	concerns
-4.2265	oldest
-4.7174	deaths
-5.0907	rode
-5.5818	gunfire
-7.7249	clara
-4.7928	abuse
-6.1638	breeze
-7.7249	korean
-5.1889	seated
-5.6261	click
-8.6413	sylvia
-5.7411	heels
-9.2434	claude
-4.9078	announcement
-4.4698	covering
-4.7519	adults
-5.2226	subway
-5.7147	pigeon
-4.8168	execution
-5.6630	swore
-8.9423	mikey
-5.5563	dresses
-4.7838	fee
-5.9257	dynamite
-5.1893	homeless
-4.6467	description
-5.5118	minus
-4.4802	investment
-8.9423	caroline
-5.4090	deed
-4.2574	creation
-7.4440	org
-5.4311	affection
-5.5567	thumb
-6.6636	dizzy
-4.9364	blues
-5.1766	choices
-4.3699	graduate
-5.0737	suggestion
-4.1954	championship
-5.8551	massage
-5.3862	les
-5.3913	kidnapping
-4.9014	arrangements
-5.4862	twisted
-5.2754	unconscious
-5.3705	grip
-4.8767	computers
-5.4604	curtain
-5.3049	privilege
-6.6895	dale
-5.4060	helpful
-6.0985	prom
-5.6388	pepper
-4.8977	skill
-5.0493	ballet
-5.2089	beds
-4.8475	fighters
-8.2891	moore
-5.7761	candle
-4.9637	slight
-4.8424	vital
-5.5244	plug
-4.7678	elder
-8.3983	justin
-4.9546	spotted
-4.5078	damaged
-5.5521	flames
-4.1953	types
-6.0299	homer
-5.7489	groom
-6.3765	heather
-5.8277	spoiled
-4.9117	insisted
-5.3443	reply
-7.4305	hon
-8.7663	lenny
-4.6769	principle
-4.8615	employee
-4.4979	document
-5.0849	fur
-4.9115	believing
-7.1535	whirring
-6.6740	cha
-5.0837	publicity
-4.6480	discussed
-4.5254	employees
-4.5018	sequence
-5.8953	helpless
-8.3983	lloyd
-4.4275	resources
-5.0916	sixty
-6.3807	phoenix
-4.3598	follows
-5.1389	melody
-6.0997	pillow
-3.6578	continued
-8.0129	dunno
-5.4042	emotion
-4.6286	exposed
-9.2434	bernie
-4.6135	outer
-8.4652	sharon
-4.6898	stream
-8.9423	pablo
-4.2877	clubs
-5.6762	bald
-5.0460	loses
-6.6968	beware
-8.3983	polly
-7.9212	diana
-5.2909	quote
-4.8038	bearing
-5.8681	hath
-4.8654	spots
-6.1977	sirens
-4.3491	facility
-5.7875	misunderstanding
-6.3089	dreamt
-5.2108	overnight
-9.2434	malcolm
-4.4282	era
-4.3942	copies
-6.1613	fry
-6.0914	tub
-3.5889	established
-7.3801	ana
-4.5108	sector
-6.3649	straighten
-5.2539	pm
-4.9942	chess
-5.8578	dentist
-4.5051	attracted
-8.4652	julian
-4.4669	seventh
-8.4652	cuba
-6.9253	screwing
-6.1105	nanny
-5.4775	envelope
-5.7667	miracles
-5.7989	dummy
-4.6362	belief
-3.8719	added
-5.7284	wizard
-6.0301	lance
-6.0028	rang
-4.1895	elements
-5.8514	surprises
-4.3812	controlled
-5.0509	tables
-7.3921	january
-5.5348	psychiatrist
-5.4269	aliens
-5.1967	warriors
-5.3847	booked
-4.4287	requires
-8.9423	walt
-4.9821	bench
-6.1348	excuses
-7.8816	hal
-5.0828	ceiling
-7.2020	whores
-5.5376	owes
-4.9872	climbing
-5.8296	stab
-5.2335	warehouse
-9.2434	cathy
-5.6277	dial
-5.0938	practicing
-3.4876	published
-4.3540	improve
-5.0266	magical
-4.9571	monitor
-4.6323	mill
-4.2415	identified
-8.0673	toby
-9.2434	edgar
-6.2791	creepy
-8.3403	iraq
-8.2891	napoleon
-5.0985	unexpected
-8.6413	irene
-8.9423	wallace
-5.3540	doubts
-6.5658	cal
-4.5938	acid
-5.6847	lungs
-6.3029	lunatic
-4.4087	conflict
-5.1353	genuine
-5.4726	desires
-5.3863	jewelry
-4.9425	crashed
-5.4261	cooperate
-4.7020	conclusion
-6.9274	vera
-4.6815	instrument
-8.9423	jessie
-5.0107	chorus
-4.0746	author
-4.4655	visual
-5.7215	euros
-6.5621	adore
-4.7646	farmers
-5.4376	arrow
-5.8565	skipper
-6.6693	barks
-5.3479	helmet
-5.2408	reporters
-4.8146	random
-5.1694	expenses
-4.3106	administration
-7.8454	otto
-5.2224	deer
-5.8984	clicking
-4.1280	dedicated
-5.7616	trousers
-4.0193	larger
-4.2236	entitled
-4.3403	regarding
-7.1500	ling
-4.7066	tribe
-4.7991	deals
-5.6412	fortunate
-5.5661	stuffed
-4.9167	respected
-5.9109	blond
-4.7098	parent
-4.0935	broadcast
-5.2939	tide
-5.0188	butterfly
-4.6658	recovered
-9.2434	freddie
-5.3523	gig
-4.1493	assigned
-5.0856	bold
-7.7810	sakes
-5.2184	obliged
-7.2989	chang
-5.5506	hostages
-4.7206	seed
-4.4574	severe
-6.5863	nap
-5.4850	hatch
-4.7448	twin
-5.5628	fixing
-6.8951	moans
-4.3033	alternative
-5.4654	lip
-8.6413	dylan
-5.3657	prosecutor
-8.3983	collins
-6.7302	panties
-4.7635	prices
-3.5026	include
-5.0356	investigating
-8.9423	shakespeare
-5.8047	amusing
-4.8537	sailing
-5.7134	gossip
-5.7433	te
-5.0070	cruise
-4.1309	activities
-4.9290	triple
-8.2434	hyun
-6.0267	hawk
-3.7280	elected
-4.3890	hockey
-5.8994	shepherd
-5.6903	vanished
-4.3190	technical
-4.7972	clothing
-5.1438	chains
-7.3089	stella
-4.4630	poverty
-5.6212	parked
-4.3711	registered
-5.3596	sympathy
-5.3184	debts
-5.2992	muscles
-4.9299	overcome
-4.8414	institute
-4.4800	meets
-6.1631	lame
-5.4136	guardian
-6.8088	maniac
-4.5087	objects
-6.7018	brat
-7.5191	shan
-7.6752	wang
-5.9049	greedy
-6.0398	bacon
-6.0850	bleed
-8.4652	tarzan
-5.2511	dug
-7.9010	seth
-4.6518	requested
-7.7810	br
-5.4176	galaxy
-5.3262	chased
-4.6172	depth
-5.7516	rumor
-4.1545	tournament
-5.8391	sensible
-5.0248	regards
-4.9991	bicycle
-4.6739	mid
-5.8164	despair
-6.2829	apologies
-5.1304	trailer
-5.3438	tortured
-9.2434	reai
-6.0755	ape
-6.1819	fortunately
-4.3388	educated
-5.6758	pencil
-5.6010	lions
-4.8146	magazines
-3.7899	remained
-5.5393	impress
-4.5083	residence
-6.0104	murderers
-5.1169	strings
-6.0414	fingerprints
-4.8231	flood
-6.5062	jolly
-4.6677	cargo
-7.9212	gotcha
-5.6879	hats
-4.8866	beam
-6.0644	forgiven
-4.9383	priests
-5.5592	banana
-5.2963	vault
-5.4499	illusion
-8.3983	heil
-5.8756	cheek
-8.4652	benjamin
-4.7731	portrait
-8.2020	jill
-5.3841	crowded
-8.5444	monica
-5.0956	technically
-4.5752	regiment
-6.1041	phoned
-4.2950	association
-9.2434	scotty
-5.0852	accompany
-6.3084	smarter
-5.4805	turtle
-6.0013	ginger
-4.9708	rely
-8.7663	britain
-7.1163	fag
-5.7863	beers
-4.3707	methods
-5.5923	shotgun
-4.3781	display
-4.9109	planted
-5.7076	coma
-4.9264	corps
-8.4652	elvis
-8.6413	chloe
-3.7082	formed
-5.6172	cured
-5.8481	bloom
-4.9200	blocked
-5.0761	infected
-4.5229	narrow
-7.9423	jen
-7.4799	douglas
-7.4109	http
-4.7658	serial
-4.8907	heir
-6.9337	fart
-6.1035	cough
-6.1507	hooker
-5.6277	gratitude
-7.8632	aha
-4.8064	volunteer
-5.8159	greet
-4.8084	revolutionary
-4.8594	radiation
-6.4631	howling
-6.1073	gamble
-4.7141	organ
-4.8323	gallery
-5.8135	losers
-5.3333	react
-4.7297	judges
-9.2434	sandra
-4.2290	levels
-5.5322	endless
-8.9423	andrea
-5.3158	backs
-5.7331	husbands
-5.4311	rolls
-4.1769	declared
-5.6340	smashed
-5.0868	relieved
-5.4605	respects
-5.7300	naive
-6.2382	starve
-4.5941	civilian
-3.9103	income
-5.7370	bean
-5.4943	heroin
-4.4298	admitted
-4.8251	custom
-5.4739	wiped
-6.6274	easter
-4.9000	gathering
-4.8675	handled
-5.4386	honorable
-5.3390	pirate
-4.3481	officials
-5.0355	certificate
-8.3983	jerusalem
-5.2043	tremendous
-4.5495	bass
-5.7869	bandits
-4.8461	strict
-5.7431	slice
-5.2128	crushed
-6.6907	pervert
-5.6581	cracked
-6.6359	smack
-4.7198	ties
-6.1413	apologise
-5.0242	harsh
-4.9565	motorcycle
-6.0612	roast
-7.7382	marc
-4.7669	nearest
-8.9423	orleans
-8.9423	switzerland
-4.4560	invasion
-8.5444	moses
-5.7680	slim
-4.9394	confusion
-5.3533	threaten
-5.2497	lobby
-8.9423	poland
-5.6787	sickness
-5.5614	crashing
-4.3796	platform
-3.9972	economic
-4.5487	exception
-4.9863	customs
-5.7759	ignorant
-4.7529	formula
-4.8069	liquid
-4.7094	rivers
-4.2075	solo
-4.7719	filming
-7.2305	sh
-5.7487	bounce
-4.7311	bonus
-9.2434	iove
-8.2891	veronica
-4.7174	regard
-5.5417	tore
-8.4652	madrid
-8.2891	luis
-4.1278	length
-4.8480	physics
-8.4652	samantha
-5.8929	paranoid
-5.4048	bent
-6.2571	sweater
-7.1004	sighing
-4.6688	designer
-6.0101	instinct
-4.5850	seeking
-4.7458	tested
-4.6840	chapel
-5.3336	meals
-5.0915	circles
-4.3425	analysis
-5.1650	cloth
-5.4851	im
-5.2367	umbrella
-4.2818	occupied
-4.1618	adopted
-7.9881	kane
-6.0929	congratulate
-5.7156	dice
-5.3195	verdict
-8.7663	duncan
-7.4372	yea
-4.2106	efforts
-4.9066	destination
-5.3179	questioning
-4.4038	electronic
-5.7087	cape
-5.1293	lung
-5.4238	ton
-4.7155	attacking
-5.7315	vampires
-5.1689	tales
-4.9073	breed
-4.9237	generations
-8.2020	manny
-4.1465	operating
-5.9255	tango
-5.7973	blackmail
-5.4708	herd
-5.5154	parole
-8.5444	charley
-8.6413	carrie
-6.1048	guessed
-4.5188	web
-5.0145	priority
-5.4845	deeds
-5.0256	tobacco
-8.1642	omar
-5.7326	curiosity
-4.7963	businessman
-4.7216	tool
-4.8497	coins
-4.6387	essential
-5.7133	nun
-3.8593	addition
-3.9176	traditional
-8.9423	kansas
-6.8385	stinking
-5.5296	disguise
-5.2638	den
-5.5471	ditch
-4.1537	revealed
-7.4952	oo
-5.2986	elegant
-4.8127	suggesting
-4.7220	cabinet
-7.8120	miranda
-8.7663	megan
-9.2434	ashley
-4.2672	inspired
-5.0488	discussing
-4.6915	convention
-6.0880	sandwiches
-4.5680	shares
-4.7712	closest
-4.8171	missile
-7.8284	hector
-8.2891	venice
-5.1634	pub
-4.3361	reaching
-6.0450	noodles
-3.3254	located
-5.8482	chew
-5.9688	razor
-6.1348	narrating
-5.7916	harmless
-6.1179	sucking
-9.2434	noah
-4.2975	maximum
-5.6225	salesman
-5.9491	sausage
-7.2020	valentine
-4.8039	commitment
-8.7663	colin
-5.8592	whisky
-5.3851	furious
-4.4005	comic
-8.6413	dallas
-5.9540	minded
-6.2289	slams
-6.2020	scares
-8.4652	gina
-4.0570	remaining
-9.2434	hyah
-5.0860	brass
-5.1389	directions
-4.8254	mines
-4.8962	aggressive
-7.3349	halloween
-5.6709	doomed
-6.0503	pounding
-6.4271	disappoint
-5.0613	sworn
-8.2891	manhattan
-5.6114	sharks
-4.5509	minimum
-4.8986	autumn
-5.6108	assassin
-4.5480	signing
-7.9423	logan
-4.9056	politicians
-4.9597	withdraw
-6.2016	frighten
-4.5344	element
-5.4775	buttons
-9.2434	brenda
-4.8997	destroying
-5.2575	intentions
-5.5611	swords
-7.9212	ciao
-5.9549	swine
-5.2733	watches
-4.3330	application
-5.0221	pace
-5.4792	preacher
-6.8686	bloke
-3.6741	described
-5.2256	convenient
-4.9946	tension
-8.0972	mitchell
-8.5444	keith
-6.7119	bothers
-7.0155	chen
-3.8380	replaced
-5.2159	compare
-4.4889	wooden
-4.9183	welfare
-4.5977	devoted
-4.4184	assumed
-7.0233	scoundrel
-4.9149	survivors
-7.1430	murmuring
-9.2434	boris
-4.6606	vessel
-7.1827	harper
-5.1913	realised
-6.5585	bon
-5.6928	wa
-5.2927	drain
-5.2741	pond
-4.5041	fiction
-8.7663	jonas
-5.6046	gangster
-8.4652	debbie
-6.0280	butler
-6.5769	wade
-4.9282	bin
-5.8729	shrink
-4.6726	carries
-4.6281	fled
-4.6978	dam
-8.5444	juliet
-8.1294	carlo
-6.2984	alibi
-5.6090	cafe
-5.2979	harvest
-4.7251	arrangement
-6.9930	chow
-5.7611	smoked
-4.3141	models
-4.8050	collapse
-4.6722	imperial
-5.2892	spinning
-5.4183	ambition
-5.1063	reads
-8.2020	wally
-4.8168	controls
-4.9978	communicate
-4.9652	corporation
-5.2380	harmony
-4.5366	stores
-5.9556	rum
-7.7810	kent
-5.9152	theirs
-4.8561	speaker
-9.2434	allison
-5.3580	pirates
-8.9423	arizona
-8.6413	travis
-8.1294	franklin
-8.4652	nate
-5.8451	glove
-5.0606	violin
-4.6518	absence
-6.2234	gracious
-6.5240	behold
-6.2382	mon
-4.7043	alliance
-8.0129	lena
-5.0013	companion
-4.6824	roots
-5.3895	hanged
-4.4510	literature
-4.9352	rebel
-5.3987	rains
-6.4271	moonlight
-5.0985	rented
-8.4652	hugo
-5.0915	fatal
-5.1596	marching
-7.8632	eli
-7.1067	atlantic
-5.7551	gut
-5.2833	bark
-5.3899	menu
-4.5950	electrical
-6.3408	pimp
-5.6189	orphan
-5.6547	unpleasant
-4.6018	defending
-7.5713	honks
-4.8854	physically
-4.9490	luxury
-8.5444	ahem
-6.9715	broadway
-5.2113	fare
-5.4131	rabbi
-5.0569	nevertheless
-5.5713	vicious
-4.2333	candidate
-4.6527	principles
-5.7448	worms
-7.4580	kang
-5.6047	prostitute
-5.4559	respectable
-7.3039	takin
-8.5444	tellin
-8.0129	workin
-7.2434	rascal
-5.1411	consciousness
-7.5191	february
-6.0155	crawling
-4.3908	formal
-3.6789	announced
-4.8672	photography
-5.8128	mouths
-4.5806	decides
-5.4067	undercover
-7.8816	hah
-5.9871	compliment
-5.8853	queer
-5.3811	cocaine
-5.4700	gesture
-5.6452	risky
-4.5527	institution
-4.8615	depression
-5.7338	salute
-6.6160	nicer
-9.2434	jeffrey
-8.9423	peggy
-5.3139	reservation
-5.5817	salvation
-4.5253	amateur
-5.3007	riot
-6.4762	whisper
-8.7663	waitin
-5.0989	risks
-5.5144	cousins
-4.5367	corporate
-6.2740	racket
-6.4115	tasty
-4.0193	claimed
-4.5942	concrete
-5.3144	theft
-5.4988	swamp
-7.9010	yankee
-7.3296	jr
-5.3130	vegetables
-4.9887	voyage
-5.5893	saddle
-4.1220	serves
-8.5444	florence
-4.6153	musician
-5.5029	lawn
-6.1271	potter
-5.0896	shoots
-4.9621	ritual
-9.2434	gabrielle
-7.8454	murray
-5.9996	sucked
-4.1056	offers
-5.2628	brutal
-5.4470	float
-5.7058	heavenly
-5.6986	cleaner
-4.9895	ammunition
-4.6299	rarely
-5.8297	oven
-8.5444	shane
-5.6866	hay
-5.0074	contacts
-8.7663	thompson
-5.1675	savings
-8.2434	einstein
-9.2434	sidney
-5.4449	petty
-5.8893	waitress
-4.6658	wealthy
-4.6842	pointed
-7.5999	arab
-5.7944	waking
-6.8912	morris
-5.0055	modest
-7.6201	anyways
-5.7832	sentimental
-6.5759	horny
-6.8040	chirping
-4.9504	grain
-4.4694	injury
-8.4652	lester
-6.7931	sal
-7.2749	swiss
-5.1391	sells
-5.0976	anonymous
-4.8371	sixteen
-4.8387	bombing
-4.5882	subjects
-4.6051	expedition
-7.6523	nazis
-4.4360	stadium
-5.4221	bachelor
-5.7247	marines
-4.4109	votes
-4.9750	possessed
-4.5887	debate
-4.9453	counted
-8.2020	milan
-4.5910	draft
-5.3022	mice
-5.8205	savage
-6.8218	arabic
-5.6360	ransom
-5.9432	whatsoever
-5.6789	knives
-5.6676	repay
-5.1613	persuade
-4.8092	experiments
-7.7810	sydney
-7.8454	motherfucking
-5.6422	spill
-5.6689	wit
-4.8932	leaf
-5.8960	roommate
-5.9790	delightful
-5.4504	seas
-4.6182	medium
-4.1097	divided
-5.2490	dock
-5.2464	proves
-5.9144	loudly
-4.6922	explains
-3.7777	performed
-5.9378	crow
-5.3739	deserted
-4.6163	advertising
-4.9190	choir
-6.4489	belle
-4.2677	attempted
-9.2434	gwen
-5.5512	tech
-5.5427	fireworks
-4.3785	passenger
-5.2212	conscious
-5.2469	suspicion
-6.2160	compliments
-5.8044	congressman
-8.7663	sasha
-5.6478	counselor
-4.7430	inspiration
-5.9293	je
-5.9608	paperwork
-4.9490	civilians
-4.8270	footage
-3.9120	generally
-5.2541	surprising
-7.4238	thats
-6.0647	tick
-4.8998	ski
-4.9076	ruins
-8.3403	seattle
-3.6877	currently
-5.3840	weigh
-8.1642	rico
-5.0305	prey
-7.1642	venus
-6.4454	luckily
-7.3569	bugger
-6.0966	nightmares
-8.4652	curtis
-4.2220	online
-8.5444	zoe
-5.9619	slightest
-4.7382	scholarship
-4.8026	accomplished
-4.9755	demonstration
-4.2648	covers
-4.3034	receiving
-5.5317	lottery
-5.8653	honesty
-5.6855	jealousy
-6.9069	whining
-5.4530	bubble
-6.1202	ca
-5.6012	echo
-5.2990	assured
-4.8358	kilometers
-5.2041	uniforms
-5.3855	touches
-5.5537	balcony
-5.1372	dried
-5.2278	lesbian
-5.3376	wells
-6.8489	bella
-5.9930	bandit
-8.5444	claudia
-6.6140	adorable
-4.6254	suspended
-5.9205	stove
-5.0700	filling
-3.9393	primary
-6.7916	rex
-5.5430	tolerate
-4.8584	samples
-5.4368	dot
-4.9642	mansion
-5.0390	flee
-8.2434	stewart
-4.4810	values
-7.8454	whimpers
-4.4295	retirement
-5.9974	autograph
-5.4692	wax
-7.4799	mae
-4.9790	precise
-6.8403	muslim
-5.7355	ducks
-5.3263	eager
-4.4075	funds
-4.8242	travelling
-5.5683	au
-5.7627	scent
-5.4386	remembers
-5.4933	hangs
-5.6614	drowning
-8.6413	leslie
-5.1125	negotiate
-4.6022	scheme
-7.4799	romans
-5.7768	arrogant
-4.9692	secretly
-5.0330	meter
-4.5330	traveled
-9.2434	samuel
-5.2031	resting
-4.1999	growth
-5.3394	platoon
-8.6413	burt
-4.8317	laboratory
-6.0896	tricky
-5.5562	wrist
-5.0664	pension
-5.7374	cracking
-7.7810	helena
-8.6413	runnin
-5.1891	corridor
-8.9423	marion
-4.0367	presented
-5.3458	triumph
-5.6413	reed
-5.4814	reminded
-4.8613	experts
-8.6413	teresa
-5.8576	sadness
-4.7151	automatic
-8.4652	barnes
-5.7557	amber
-9.2434	jules
-6.3783	ms
-5.8449	marina
-5.2827	asylum
-5.1030	creek
-4.3506	establish
-8.7663	clyde
-4.0064	majority
-7.6413	giri
-5.3351	conquer
-6.1660	briefcase
-5.6612	quicker
-6.3689	lipstick
-5.4841	relaxed
-9.2434	kiiled
-6.5150	singh
-4.1813	household
-4.8107	handling
-6.3789	kneel
-4.2063	products
-6.5418	rattling
-5.3601	ash
-4.4347	affected
-8.3983	archie
-4.6266	concentration
-5.3941	satisfaction
-4.4138	determine
-6.9295	snoring
-5.8169	mule
-5.7332	cocktail
-4.8355	signals
-5.3882	fold
-4.5904	occupation
-6.6232	kirk
-4.7682	cavalry
-4.7227	connections
-5.1049	logical
-5.3763	nurses
-5.8688	noises
-5.1239	locate
-8.0129	shaw
-5.4609	senate
-9.2434	frankenstein
-6.0089	thrill
-5.4702	haunted
-4.9701	behaviour
-5.3902	chairs
-4.6166	cycle
-8.9423	becky
-4.6990	poems
-7.9212	jose
-4.3953	volume
-5.5023	spray
-7.9212	bam
-5.0475	invention
-7.9646	shanghai
-6.1067	smiles
-4.4446	programme
-4.8752	seeds
-4.9697	possess
-5.4585	psychic
-5.8764	regrets
-8.2020	makin
-5.5601	confusing
-5.8811	cakes
-4.8855	condemned
-8.7663	trevor
-3.5068	included
-4.5288	owners
-4.6171	sole
-5.3842	learnt
-6.3301	fi
-5.2071	troubled
-5.9340	bully
-5.9527	gypsy
-5.3665	feathers
-5.5951	slaughter
-5.7702	forehead
-4.7553	submarine
-5.1821	intimate
-5.3905	rays
-4.9131	lighting
-5.0537	spreading
-4.8508	examination
-4.3354	classical
-5.3839	mini
-6.3201	presume
-4.8397	pilots
-5.4320	knights
-5.3202	tips
-9.2434	katherine
-5.0489	deceased
-4.7176	phrase
-8.3403	rosie
-4.3281	focused
-5.7921	begged
-8.9423	harrison
-4.9734	vulnerable
-5.0117	keen
-5.1577	static
-6.0644	spoon
-7.7249	vienna
-4.3735	specifically
-4.8939	earthquake
-5.4130	disco
-5.6312	magician
-4.7979	opponent
-5.6055	beautifully
-7.4510	lois
-4.6305	associate
-5.1806	clearing
-8.5444	thankyou
-5.6118	wonders
-5.4575	cane
-4.9671	tourists
-5.1506	virtue
-5.4747	kicks
-5.7081	password
-5.3595	loads
-3.8998	via
-5.3832	shooter
-9.2434	burke
-9.2434	philadelphia
-5.5225	fragile
-4.4774	rejected
-6.9809	creaking
-5.7191	sa
-4.5109	dated
-5.5126	proposition
-5.0128	enterprise
-5.7933	tan
-8.3983	mercedes
-4.3265	sources
-5.7517	sincere
-4.8886	legally
-4.7261	cooperation
-5.9699	hesitate
-7.7249	ming
-4.9421	mature
-6.3425	sofa
-4.3815	compete
-6.0309	curtains
-5.4845	prophet
-5.7003	stir
-8.0393	senor
-4.4878	standards
-4.4031	collected
-6.3414	girlfriends
-6.0026	bartender
-8.7663	joyce
-8.2434	stu
-3.7699	originally
-5.1044	pine
-6.5892	joker
-6.3789	fries
-5.1207	armor
-6.8403	muttering
-5.3448	balloon
-5.8542	wander
-7.6636	momma
-5.7271	vengeance
-5.9603	fiance
-5.8794	peanut
-4.7417	scores
-5.6500	receipt
-5.1811	picks
-5.3636	altogether
-5.8697	thrilled
-5.1992	abortion
-5.7203	immortal
-8.9423	roberto
-5.8738	mafia
-5.6104	innocence
-4.4338	climate
-4.2180	capacity
-4.1104	multiple
-5.2480	olive
-5.0877	pointing
-6.5825	madman
-4.9194	perspective
-4.7375	objective
-5.0087	floors
-6.7736	awhile
-8.2020	sharpe
-5.0024	logic
-4.9991	consent
-8.9423	anton
-4.8928	manual
-5.1677	rolled
-5.4925	mates
-5.3726	ink
-5.3051	accidents
-5.6164	caf
-8.9423	louie
-4.3608	voted
-5.6739	snack
-5.4272	pledge
-6.3513	crook
-4.6621	approval
-7.1500	yi
-4.9847	laser
-5.7354	autopsy
-6.4160	haircut
-5.3639	courtesy
-4.3999	bands
-4.7966	regulations
-4.8795	hamlet
-4.5522	races
-4.9393	rebels
-5.8941	frightening
-4.3674	aged
-4.7472	evolution
-4.6330	reaches
-8.5444	pam
-5.6520	endure
-5.6368	neighbour
-5.4272	hunters
-6.7170	mia
-5.4017	shade
-4.3480	finishing
-5.1414	stamp
-5.3811	peculiar
-5.6388	orphanage
-4.4917	lasted
-5.2722	peasant
-4.5983	sentenced
-6.8385	buster
-8.3983	franois
-5.9434	beasts
-5.6192	rainbow
-9.2434	robinson
-7.2100	batman
-5.2514	brake
-4.3776	qualified
-4.7060	wrestling
-4.3579	occur
-8.4652	eun
-5.6835	accountant
-6.7410	dolly
-5.4683	delta
-5.0038	orbit
-5.3326	pulls
-5.0107	colored
-5.4506	treason
-5.5711	fork
-8.9423	phillip
-4.9266	refuses
-9.2434	geez
-4.0766	graduated
-4.9713	hostile
-4.2927	campus
-5.6776	rig
-4.3965	represents
-5.1823	dances
-6.2843	dodge
-5.4452	communists
-4.9642	threats
-4.9604	allies
-8.1642	hooray
-6.0811	hereby
-5.8608	quitting
-5.9608	restless
-6.0323	wig
-7.1903	alas
-4.8849	dealt
-5.6906	misses
-5.2206	maker
-5.5770	hobby
-5.5816	tails
-6.9170	blaring
-5.6498	spies
-8.1294	oui
-4.6865	directors
-4.6487	instruments
-4.2534	reference
-4.8202	fourteen
-6.1961	devils
-5.6913	pouring
-7.4440	andre
-4.4339	couples
-5.0117	feared
-5.4583	clues
-4.9680	reliable
-7.0911	squealing
-5.0136	complaints
-4.9013	eighteen
-6.5722	pals
-4.3535	scheduled
-4.6121	suitable
-4.8552	graduation
-6.7196	screech
-5.2413	possibilities
-7.8284	milo
-5.5397	nickel
-5.1446	auto
-5.3510	needing
-4.3444	towns
-4.8707	notion
-5.7068	flush
-5.7602	feather
-4.7575	battalion
-5.5532	straw
-6.6381	sigh
-5.3986	foreigners
-5.3794	stunt
-8.9423	clarence
-5.3762	veins
-4.9843	pursuit
-5.5487	buys
-7.4440	turkish
-6.3079	scaring
-4.5618	translation
-4.9866	strongest
-6.0802	ol
-4.8775	collecting
-5.1427	maiden
-8.9423	sullivan
-4.7605	preserve
-7.0850	whack
-7.3741	bonnie
-4.7969	universal
-5.1425	satisfy
-3.8498	approximately
-9.2434	audrey
-5.5839	kidnap
-4.7828	thirteen
-5.6797	owl
-7.3983	swedish
-8.6413	detroit
-5.3001	homeland
-5.0019	rally
-7.3296	perry
-5.2157	seize
-6.2012	guessing
-5.4834	canyon
-6.4755	ai
-8.9423	marilyn
-5.2641	shuttle
-8.9423	campbell
-5.4095	explosives
-5.3761	lords
-5.8788	barber
-8.7663	abe
-6.5435	weep
-5.7894	spying
-4.8273	symptoms
-8.6413	esther
-4.7614	drivers
-5.2646	cottage
-5.3317	shorts
-5.4163	wakes
-6.3222	phony
-5.7902	cans
-4.2290	applied
-7.0880	ss
-5.8781	cheerful
-5.3990	warming
-6.1521	jeep
-6.2566	burger
-5.4669	haul
-6.4660	vous
-5.4536	neighbours
-4.7923	accurate
-5.2281	myth
-5.2786	barracks
-4.8179	recovery
-5.3952	duel
-5.6907	sour
-4.6845	exclusive
-5.4342	seventy
-7.7810	ichi
-4.6677	transmission
-5.6825	spike
-5.1055	throws
-5.5844	stall
-6.1815	rug
-8.1294	fletcher
-8.6413	adams
-7.6201	tara
-5.9337	robe
-4.6312	departure
-5.3726	confessed
-6.1304	childish
-6.7369	roars
-5.6604	ninety
-6.0914	gladly
-4.5975	assembly
-8.2891	holland
-6.1850	pierce
-5.2900	fountain
-7.7663	asia
-4.5626	youngest
-5.3238	heights
-5.6584	ego
-4.9051	tissue
-6.3830	tramp
-9.2434	greece
-4.4838	independence
-5.9043	ranger
-6.6944	sherry
-6.1922	scissors
-6.3150	wretched
-5.1258	assuming
-5.7326	karate
-4.5213	measures
-5.7208	compassion
-6.9857	dudes
-5.8088	choke
-8.7663	brandon
-8.7663	lizzie
-8.5444	sheila
-4.6943	convicted
-5.7181	vow
-6.1756	q
-5.1282	missiles
-5.7090	cue
-4.6918	communications
-4.0808	proposed
-4.1804	allows
-8.0129	yay
-5.6856	queens
-9.2434	erik
-4.3267	approved
-5.4691	bees
-6.0693	curly
-6.2048	hysterical
-5.5901	landlord
-5.7924	shiny
-4.6705	isolated
-5.8514	camel
-5.8885	outrageous
-5.6982	corpses
-4.5549	offensive
-4.0876	prior
-5.6218	melt
-5.7081	jewel
-5.0304	neighbourhood
-6.5523	freaks
-5.0524	bonds
-5.9869	ruining
-5.2400	countryside
-7.6201	ireland
-8.5444	evans
-5.8594	swallowed
-5.2755	passionate
-4.6780	tourist
-5.5482	drunken
-5.0438	deliberately
-4.1175	cultural
-4.9147	anchor
-5.7731	rabbits
-5.8162	zip
-6.3259	morgue
-5.0859	hotels
-5.7629	quarrel
-4.3703	ruled
-5.2575	pose
-4.7601	difficulty
-5.3574	exams
-8.3983	preston
-4.5109	writers
-7.4510	mona
-5.6032	shocking
-4.3377	domestic
-4.6273	carbon
-4.8650	shops
-5.3769	conversations
-8.5444	olga
-5.8601	pony
-4.8363	specialist
-4.5606	assist
-6.2791	embarrass
-5.0751	altar
-4.8818	observation
-5.6466	hardest
-4.9843	struggling
-3.9178	significant
-5.2300	graves
-7.5358	jun
-6.8437	untie
-7.2222	thud
-4.2756	opposed
-5.5593	convict
-4.4438	ensure
-4.0228	mainly
-4.6659	circuit
-6.0068	fianc
-8.7663	bert
-4.5998	experiences
-5.2771	peasants
-7.7382	lin
-7.4580	chun
-5.0358	infection
-5.3641	ashore
-4.8138	psychological
-8.3983	doris
-5.8868	jar
-3.7382	appointed
-5.1064	resign
-6.4580	chopper
-5.7491	accuse
-5.6901	prayed
-5.7873	violet
-6.9010	butch
-4.8067	copper
-4.7050	switched
-6.2222	happiest
-6.3535	marvellous
-5.1920	corrupt
-4.8727	camps
-5.4785	scan
-6.0264	awaits
-4.5003	occasionally
-6.0344	tu
-7.0207	ju
-5.0373	freely
-6.0618	offend
-4.5033	journal
-4.4406	architect
-5.7088	dip
-5.2477	owed
-5.4483	inviting
-4.6498	benefits
-4.7594	travels
-5.5555	ants
-5.6188	hint
-5.6955	wired
-8.6413	pooh
-9.2434	lndia
-6.4645	ticking
-5.7596	fade
-8.9423	feelin
-8.4652	tammy
-6.2399	thanksgiving
-5.3562	ankle
-6.1831	spaghetti
-5.0962	batteries
-8.4652	elsa
-5.5900	knocks
-5.4216	bizarre
-8.7663	lndian
-5.2231	rides
-5.4253	marijuana
-4.8821	encounter
-6.1496	stew
-5.4083	stepping
-4.9185	trips
-5.5933	urge
-9.2434	alds
-4.7958	cancelled
-4.4825	strongly
-6.3940	ping
-5.1013	guaranteed
-4.8981	identification
-5.7270	attic
-5.2493	costumes
-5.4221	jaw
-5.9991	sweets
-6.0994	boil
-8.5444	darwin
-5.6365	dolls
-5.2393	porch
-5.3536	anxiety
-8.9423	gilbert
-4.4635	exhibition
-5.7373	noisy
-5.1501	spectacular
-4.5538	storage
-5.9189	ka
-5.1301	fulfill
-6.6659	cant
-5.5213	eighty
-5.2591	farther
-5.0345	expense
-4.2356	achieved
-5.1694	correctly
-5.8191	insulted
-8.0972	jupiter
-5.9408	sync
-4.4652	origin
-4.8451	mutual
-4.7341	visits
-4.6905	genetic
-5.8489	righteous
-5.2429	convent
-5.0589	pastor
-5.1363	massacre
-5.1599	underwater
-5.4071	sperm
-6.2482	tease
-3.9345	contains
-8.2434	lana
-4.9564	rescued
-5.8619	dagger
-5.3921	caring
-4.9111	organize
-4.9940	responsibilities
-5.3575	stereo
-4.7761	battles
-7.1570	sniffs
-5.6412	rack
-5.8109	gown
-8.5444	marta
-5.5322	sacrificed
-8.0129	fuckers
-4.1033	issued
-4.3588	contain
-4.5531	trading
-5.6276	stark
-8.6413	agnes
-5.5995	hairy
-5.1775	springs
-4.9384	proven
-4.9402	eliminate
-4.7275	grades
-5.4263	leap
-4.5566	posted
-4.5120	items
-5.0934	divide
-8.7663	kiddo
-7.1396	nd
-4.7606	engage
-5.7330	plead
-5.6604	sting
-5.4835	inevitable
-5.0813	profits
-6.6847	cocks
-5.0433	lifted
-8.3403	kathy
-7.4238	portuguese
-3.9877	railway
-5.9323	hallway
-4.2707	performing
-5.9093	dared
-5.7551	waits
-6.6823	baba
-5.7185	lordship
-6.5150	po
-6.7094	nam
-6.0086	clumsy
-5.2654	villain
-5.2099	wages
-4.5603	squadron
-5.6295	ropes
-8.6413	denver
-8.0393	apollo
-8.9423	vanessa
-7.1865	lu
-5.2400	mortgage
-5.3567	cord
-5.2669	rifles
-8.3403	mimi
-4.8730	advised
-5.0948	fails
-6.6636	tai
-6.3637	despise
-5.0418	diving
-5.6032	obsession
-5.4387	habits
-8.0393	manuel
-8.6413	sweden
-3.9394	previously
-6.4064	fainted
-8.7663	reynolds
-5.9857	lust
-7.9010	bollocks
-8.0129	playin
-4.9613	hospitals
-8.0673	fei
-4.7801	delayed
-5.1163	troop
-5.3720	puzzle
-5.0001	legitimate
-5.0390	lined
-4.8620	ferry
-4.5317	filed
-5.6413	woody
-7.7810	puke
-8.7663	luther
-9.2434	baxter
-5.5813	heel
-8.9423	jeanne
-5.4513	bolt
-4.8514	attract
-6.1857	bra
-5.4501	judging
-4.2721	label
-6.5207	sniffing
-6.0315	interrupting
-4.4868	classified
-4.2179	succeeded
-6.0081	godfather
-5.1137	catches
-5.9280	foreman
-6.3306	handkerchief
-7.2940	drake
-4.9665	colours
-5.6184	cups
-8.9423	philippe
-5.7714	tomato
-5.5224	betting
-7.6523	shorty
-5.1429	inspection
-8.9423	stevens
-4.7131	colony
-4.2557	industrial
-4.9873	bowling
-6.1588	sneaking
-4.8599	explore
-7.7520	christians
-5.7540	dove
-6.8420	ra
-6.6636	filth
-7.7810	dings
-6.5102	tuck
-5.7922	ghetto
-5.0219	submit
-5.5986	torch
-7.4580	ella
-7.0731	val
-5.5557	avenge
-5.7099	tricked
-4.4046	engineering
-5.6323	bounty
-4.7022	parliament
-5.3368	pipes
-5.4080	trumpet
-9.2434	glenn
-6.2829	negro
-5.1422	compromise
-4.9526	chemistry
-4.6344	outstanding
-5.3117	puppet
-6.4740	merciful
-4.5018	distinguished
-8.0393	egyptian
-5.3064	locks
-4.5400	musicians
-8.5444	rahul
-5.7950	skipped
-5.7221	mole
-5.4628	wires
-5.4417	lively
-4.8338	resort
-5.3205	translate
-6.0880	waltz
-8.5444	joshua
-4.8905	corruption
-4.9327	witnessed
-4.6067	pursue
-8.2891	dracula
-5.0925	strain
-4.7753	theories
-4.9772	consideration
-8.3983	hudson
-4.6701	movements
-6.9423	cowards
-8.5444	jae
-5.9329	civilized
-4.2606	projects
-8.7663	denise
-6.3074	aspirin
-5.4981	fascist
-5.3646	perimeter
-4.3237	sought
-4.1345	gained
-5.6587	disagree
-5.4859	recipe
-8.5444	austin
-5.9152	iris
-6.2730	rooster
-8.2891	lauren
-5.2025	breakdown
-4.9546	situations
-7.4173	tucker
-4.8780	scattered
-4.8199	targets
-7.9881	yee
-6.9954	ee
-5.9051	glue
-5.1203	villagers
-3.9762	annual
-5.7058	billions
-6.0823	jelly
-6.8951	dj
-6.8723	hunch
-5.9857	loneliness
-5.5936	entertain
-6.3507	mug
-7.8816	gil
-5.2941	chambers
-5.8841	amazed
-4.7291	intellectual
-4.9345	ridge
-5.0606	sophisticated
-7.2891	sissy
-7.7810	santos
-4.9914	atomic
-4.7409	nickname
-4.6993	hence
-5.6369	baggage
-5.9006	invent
-4.8253	democratic
-5.5044	desperately
-6.0043	cheque
-5.3785	thread
-9.2434	lorenzo
-8.9423	evelyn
-8.7663	missy
-4.8919	reserved
-5.2862	alcoholic
-5.9361	erase
-5.3630	salmon
-5.8895	wardrobe
-5.1954	boxer
-9.2434	offlcer
-6.8403	patty
-5.0138	rushing
-6.1726	pudding
-8.9423	stephanie
-8.6413	sofia
-6.2517	buzzer
-5.3859	saints
-5.5547	mechanic
-5.7536	hike
-4.9805	unlikely
-4.5174	artistic
-6.1176	scarf
-8.4652	spencer
-7.9423	melissa
-5.4132	globe
-5.3916	supervisor
-4.2312	reduced
-7.8284	usa
-6.0227	swan
-4.9295	conductor
-4.4588	vehicles
-4.8391	expelled
-5.1504	reflection
-5.3149	wishing
-4.7992	restore
-8.7663	monty
-5.8826	humiliated
-6.5316	smelled
-5.9601	echoing
-7.8816	palmer
-8.5444	movin
-4.7622	constitution
-4.7520	encourage
-7.0104	squeaking
-5.8267	dragging
-5.0788	seventeen
-5.5543	tops
-4.8934	accidentally
-5.1222	ally
-5.9465	comb
-9.2434	marvin
-7.6413	ching
-5.8187	pains
-4.5982	eighth
-6.5358	hissing
-5.6792	tearing
-8.6413	fritz
-5.1434	breach
-9.2434	angie
-5.6609	delight
-5.8544	ninja
-4.7798	canal
-4.9660	promising
-8.3983	rogers
-5.5963	dispatch
-4.4067	representative
-5.8486	pronounce
-8.3983	cynthia
-5.0732	runner
-6.2063	choking
-6.2052	messy
-5.2361	subtle
-4.0668	historical
-5.1703	wheat
-6.0225	crooked
-4.9207	adopt
-6.1440	peach
-5.6657	shrimp
-5.5951	ribs
-5.4901	evacuate
-6.9089	freaked
-5.2732	essence
-4.9879	handful
-5.7790	millionaire
-8.2891	yoo
-7.2305	pissing
-6.2140	retarded
-5.1042	fierce
-5.0144	explaining
-4.9005	rises
-7.2522	madison
-8.7663	seoul
-4.5228	indicate
-6.1521	popped
-5.6602	fuse
-5.3638	banker
-5.1753	quest
-5.4762	spark
-5.7399	bodyguard
-7.9423	jon
-8.4652	havin
-6.1048	ox
-5.9415	bracelet
-5.8044	warmth
-4.7539	failing
-5.0249	screenplay
-5.3006	expose
-7.0475	clattering
-4.9385	questioned
-5.5111	sunlight
-5.5132	shelf
-5.2552	cheaper
-8.9423	brady
-8.0673	yah
-4.4143	offices
-5.8811	robbing
-4.4262	peak
-5.2047	shaft
-5.5792	policemen
-5.9831	rupees
-5.9385	rash
-4.9472	examined
-5.5270	carnival
-5.7492	empress
-5.0179	blamed
-5.9952	jeans
-5.8223	glow
-6.0466	phantom
-5.6782	crab
-8.6413	evan
-5.9774	unlucky
-5.9812	jammed
-4.7916	shorter
-6.7492	sip
