[n]
3

[smoother]
kylm.model.ngram.smoother.KNSmoother

[max_length]
4974

[vocab_cutoff]
0

[start_symbol]
<s>

[terminal_symbol]
</s>

[unknown_symbol]
<unk>

\data\
ngram 1=97
ngram 2=7833
ngram 3=173665

\1-grams: 
-99.0000	<s>	-4.1346
-1.9301	</s>
-1.9208	<unk>	-0.6162
-2.0366	!	-1.2946
-1.9162	"	-1.9613
-2.1086	#	-1.0572
-2.1615	$	-1.2256
-2.1457	%	-1.2023
-2.0247	&	-1.4393
-1.9445	'	-1.7205
-1.9208	(	-1.9546
-1.9254	)	-1.8467
-2.0744	*	-0.9058
-2.0189	+	-1.3113
-1.9162	,	-1.9855
-1.9494	-	-1.9198
-1.9254	.	-1.9594
-1.9494	/	-1.7053
-1.9594	0	-1.5784
-1.9301	1	-1.8366
-1.9301	2	-1.8412
-1.9445	3	-1.8048
-1.9594	4	-1.7857
-1.9445	5	-1.7469
-1.9645	6	-1.7204
-1.9544	7	-1.6939
-1.9854	8	-1.6918
-1.9696	9	-1.6669
-1.9749	:	-1.6671
-1.9854	;	-1.6522
-2.0247	<	-0.9996
-1.9696	=	-1.3811
-2.1864	>	-0.9867
-2.1015	?	-1.1711
-2.6152	@	-0.3672
-1.9301	A	-1.9278
-1.9349	B	-1.7596
-1.9162	C	-1.8582
-1.9349	D	-1.7751
-1.9397	E	-1.8363
-1.9349	F	-1.7091
-1.9494	G	-1.7440
-1.9349	H	-1.6578
-1.9301	I	-1.8493
-1.9494	J	-1.5381
-1.9544	K	-1.7016
-1.9349	L	-1.7073
-1.9445	M	-1.8028
-1.9349	N	-1.7498
-1.9544	O	-1.8083
-1.9397	P	-1.7744
-1.9801	Q	-1.3445
-1.9397	R	-1.7066
-1.9301	S	-1.8781
-1.9254	T	-1.7810
-1.9494	U	-1.7252
-1.9494	V	-1.6467
-1.9445	W	-1.6365
-1.9854	X	-1.5146
-1.9594	Y	-1.4274
-1.9854	Z	-1.4115
-2.0877	[	-1.3985
-2.3257	\	-0.6208
-2.0074	]	-1.4575
-2.3754	^	-0.6006
-2.0247	_	-1.0499
-2.5137	`	-0.7060
-1.9162	a	-1.9490
-1.9254	b	-1.5794
-1.9208	c	-1.5891
-1.9301	d	-1.6418
-1.9254	e	-1.9059
-1.9162	f	-1.5458
-1.9445	g	-1.5536
-1.9301	h	-1.6215
-1.9162	i	-1.8720
-1.9908	j	-1.3269
-1.9445	k	-1.5911
-1.9208	l	-1.6063
-1.9254	m	-1.6852
-1.9445	n	-1.6748
-1.9349	o	-1.8762
-1.9445	p	-1.6163
-1.9749	q	-1.1351
-1.9301	r	-1.6167
-1.9162	s	-1.8657
-1.9208	t	-1.7594
-1.9445	u	-1.7700
-1.9494	v	-1.3859
-1.9445	w	-1.4161
-2.0074	x	-1.4238
-1.9645	y	-1.7291
-2.0131	z	-1.4738
-2.4168	{	-0.6763
-2.0946	|	-1.0826
-2.3029	}	-0.8241
-2.2605	~	-0.7969

\2-grams: 
-2.5814	<s> <unk>	-3.4777
-2.4032	<s> !	-2.1373
-0.8199	<s> "	-3.3253
-3.5072	<s> #	-1.8532
-5.8681	<s> $	-0.2711
-3.3920	<s> %	-1.8892
-5.1917	<s> &	-0.3961
-3.7196	<s> '	-0.7830
-3.0245	<s> (	-1.2422
-2.0990	<s> )	-2.3368
-4.2093	<s> *	-0.5085
-4.4086	<s> +	-0.6513
-2.5121	<s> ,	-1.7340
-3.1233	<s> -	-1.2034
-2.8400	<s> .	-1.5856
-4.0717	<s> /	-0.7318
-4.0025	<s> 0	-0.7140
-2.4608	<s> 1	-1.8823
-2.6886	<s> 2	-1.6984
-3.2476	<s> 3	-1.2094
-3.4636	<s> 4	-1.0391
-3.5548	<s> 5	-1.0727
-3.6147	<s> 6	-1.0129
-3.5652	<s> 7	-1.0167
-3.7627	<s> 8	-0.8985
-3.7667	<s> 9	-0.9701
-4.5575	<s> :	-0.6565
-4.8343	<s> ;	-0.4472
-2.2903	<s> <	-2.4677
-4.6739	<s> =	-0.4820
-5.8772	<s> >	-0.2711
-5.8447	<s> ?	-0.2711
-1.1981	<s> A	-2.9744
-1.5317	<s> B	-2.8372
-1.3545	<s> C	-2.9803
-1.6523	<s> D	-2.6992
-1.6790	<s> E	-2.6397
-1.6662	<s> F	-2.7908
-1.7826	<s> G	-2.6137
-1.4274	<s> H	-2.9596
-1.2376	<s> I	-3.0290
-1.9670	<s> J	-2.5606
-2.0133	<s> K	-2.4023
-1.6908	<s> L	-2.8000
-1.3882	<s> M	-2.9000
-1.8545	<s> N	-2.5418
-1.2538	<s> O	-3.1151
-1.5307	<s> P	-2.9051
-2.9031	<s> Q	-1.7088
-1.2442	<s> R	-3.2128
-1.3123	<s> S	-2.9833
-0.7946	<s> T	-3.5569
-2.2343	<s> U	-2.0766
-2.1866	<s> V	-2.2290
-1.7340	<s> W	-2.7229
-3.4555	<s> X	-1.0354
-2.5024	<s> Y	-2.0382
-2.8534	<s> Z	-1.7906
-3.4659	<s> [	-1.1020
-5.3512	<s> \	-0.2711
-4.4269	<s> ]	-0.7298
-3.8449	<s> ^	-1.0115
-5.4987	<s> _	-0.5721
-4.5932	<s> `	-0.7763
-2.9415	<s> a	-1.6261
-3.5599	<s> b	-1.2949
-3.4782	<s> c	-1.3503
-3.6840	<s> d	-1.0739
-3.8531	<s> e	-0.7906
-2.5841	<s> f	-2.4750
-4.1541	<s> g	-0.8632
-3.5183	<s> h	-1.5406
-2.4882	<s> i	-2.2921
-4.3569	<s> j	-0.7482
-4.2312	<s> k	-0.7135
-3.9363	<s> l	-1.1681
-3.6542	<s> m	-1.2005
-4.0395	<s> n	-0.8152
-3.3195	<s> o	-1.4842
-3.5864	<s> p	-1.3586
-4.6740	<s> q	-0.6861
-2.4899	<s> r	-2.4899
-3.4803	<s> s	-1.2999
-3.2733	<s> t	-1.5815
-4.2690	<s> u	-0.7482
-4.1966	<s> v	-0.9079
-2.8730	<s> w	-2.1446
-4.3571	<s> x	-0.8574
-4.0889	<s> y	-0.9287
-4.4666	<s> z	-0.8944
-5.9469	<s> {	-0.2711
-3.4577	<s> |	-1.0452
-4.0190	<s> }	-1.5648
-5.9024	<s> ~	-0.2711
-2.2507	<unk> </s>	0.0000
-0.3007	<unk> <unk>	-3.9442
-2.3014	<unk> !	-0.7298
-2.2436	<unk> "	-1.9421
-2.3319	<unk> #	-0.2711
-2.3526	<unk> $	-0.5264
-2.3466	<unk> %	-0.5721
-2.2960	<unk> &	-0.5264
-2.2579	<unk> '	-1.3921
-2.2460	<unk> (	-1.6678
-2.2483	<unk> )	-2.1171
-2.3178	<unk> *	-0.5721
-2.2934	<unk> +	-0.5721
-2.2436	<unk> ,	-2.1579
-2.2604	<unk> -	-1.3515
-2.2483	<unk> .	-1.9918
-2.2604	<unk> /	-0.9355
-2.2653	<unk> 0	-1.5908
-2.2507	<unk> 1	-2.3166
-2.2507	<unk> 2	-2.0560
-2.2579	<unk> 3	-1.6312
-2.2653	<unk> 4	-1.5571
-2.2579	<unk> 5	-1.5111
-2.2678	<unk> 6	-1.4088
-2.2628	<unk> 7	-1.3912
-2.2778	<unk> 8	-1.3397
-2.2703	<unk> 9	-1.4018
-2.2728	<unk> :	-0.6932
-2.2778	<unk> ;	-1.0954
-2.2960	<unk> <	-1.3645
-2.2703	<unk> =	-0.6813
-2.3618	<unk> >	-0.3125
-2.3291	<unk> ?	-0.6769
-2.2507	<unk> A	-1.7630
-2.2531	<unk> B	-1.7873
-2.2436	<unk> C	-1.8108
-2.2531	<unk> D	-1.7597
-2.2555	<unk> E	-1.2137
-2.2531	<unk> F	-1.8401
-2.2604	<unk> G	-1.5357
-2.2531	<unk> H	-1.6531
-2.2507	<unk> I	-1.4057
-2.2604	<unk> J	-2.4104
-2.2628	<unk> K	-1.3801
-2.2531	<unk> L	-1.5133
-2.2579	<unk> M	-2.1167
-2.2531	<unk> N	-1.6391
-2.2628	<unk> O	-1.6142
-2.2555	<unk> P	-1.6246
-2.2753	<unk> Q	-1.2156
-2.2555	<unk> R	-1.5499
-2.2507	<unk> S	-1.7773
-2.2483	<unk> T	-1.8087
-2.2604	<unk> U	-1.3107
-2.2604	<unk> V	-1.3445
-2.2579	<unk> W	-1.4198
-2.2778	<unk> X	-0.7684
-2.2653	<unk> Y	-1.0705
-2.2778	<unk> Z	-1.1206
-2.3234	<unk> [	-0.6748
-2.4073	<unk> \	-0.2711
-2.2881	<unk> ]	-1.2488
-2.4212	<unk> ^	-0.2711
-2.2960	<unk> _	-0.6513
-2.4543	<unk> `	-0.4472
-2.2436	<unk> a	-2.1769
-2.2483	<unk> b	-1.9049
-2.2460	<unk> c	-3.1744
-2.2507	<unk> d	-1.9236
-2.2483	<unk> e	-1.9790
-2.2436	<unk> f	-2.7869
-2.2579	<unk> g	-2.0221
-2.2507	<unk> h	-1.8239
-2.2436	<unk> i	-2.1341
-2.2804	<unk> j	-1.4639
-2.2579	<unk> k	-2.2357
-2.2460	<unk> l	-2.0777
-2.2483	<unk> m	-2.2325
-2.2579	<unk> n	-2.3646
-2.2531	<unk> o	-2.5260
-2.2579	<unk> p	-2.3922
-2.2728	<unk> q	-1.3280
-2.2507	<unk> r	-2.3511
-2.2436	<unk> s	-2.3702
-2.2460	<unk> t	-2.2791
-2.2579	<unk> u	-1.5605
-2.2604	<unk> v	-1.8180
-2.2579	<unk> w	-1.8497
-2.2881	<unk> x	-1.2106
-2.2678	<unk> y	-1.4025
-2.2907	<unk> z	-1.5132
-2.4319	<unk> {	-0.2711
-2.3262	<unk> |	-1.4815
-2.4005	<unk> }	-0.2711
-2.3872	<unk> ~	-0.2711
-1.2991	! </s>	0.0000
-1.6917	! <unk>	-1.8274
-1.4542	! !	-0.8070
-1.1859	! "	-1.6777
-2.9573	! #	-0.2711
-1.6378	! '	-0.6535
-1.6123	! (	-0.5429
-1.4873	! )	-0.7482
-2.9230	! +	-0.2711
-1.4694	! ,	-0.6971
-2.0930	! -	-0.5721
-1.6373	! .	-0.8995
-1.9670	! /	-0.3223
-2.5747	! 1	-0.4472
-2.3956	! 2	-0.4472
-2.8912	! 3	-0.2711
-2.8912	! 5	-0.2711
-2.5800	! 7	-0.4472
-2.9091	! 8	-0.2711
-2.2739	! :	-0.2711
-2.1790	! <	-1.0493
-2.5832	! =	-0.5721
-2.9836	! >	-0.2711
-1.8749	! ?	-0.5400
-1.7892	! A	-0.9243
-1.7893	! B	-1.2711
-1.7886	! C	-1.5110
-1.6921	! D	-1.9946
-1.9150	! E	-0.9621
-1.9662	! F	-0.9701
-1.8278	! G	-0.9808
-1.7221	! H	-1.2534
-1.6638	! I	-1.7771
-1.9670	! J	-0.7684
-2.0934	! K	-0.7717
-2.0246	! L	-1.0950
-1.6378	! M	-1.2663
-1.8688	! N	-0.9401
-1.7551	! O	-0.9312
-1.6922	! P	-1.1519
-2.5854	! Q	-0.5721
-1.9150	! R	-0.9843
-1.6920	! S	-1.2340
-1.5454	! T	-1.4234
-2.3984	! U	-0.6691
-2.5789	! V	-1.1919
-1.6378	! W	-1.0792
-2.5864	! X	-0.8152
-1.8699	! Y	-1.2005
-2.2750	! Z	-0.7482
-3.0233	! \	-0.2711
-2.5908	! ]	-0.2711
-1.5452	! a	-1.1681
-2.0913	! b	-1.2156
-1.9141	! c	-2.2373
-2.0916	! d	-0.6391
-2.1710	! e	-0.4752
-1.8680	! f	-0.8026
-2.2708	! g	-0.3680
-2.1714	! h	-0.6391
-1.3759	! i	-1.5589
-2.5875	! j	-0.5721
-2.1706	! l	-0.5721
-1.9657	! m	-0.9401
-2.0252	! n	-0.4752
-2.1718	! o	-0.5721
-2.0252	! p	-0.7482
-2.9045	! q	-0.2711
-2.0916	! r	-1.4325
-1.9652	! s	-2.1260
-1.7217	! t	-0.8410
-2.5778	! u	-0.2711
-2.1731	! v	-0.8732
-1.6642	! w	-1.1849
-2.9183	! x	-0.2711
-2.9001	! y	-0.2711
-2.9522	! |	-0.2711
-2.6298	! ~	-0.2711
-1.7845	" </s>	0.0000
-1.8104	" <unk>	-4.0153
-2.5466	" !	-0.5915
-1.8673	" "	-1.8475
-2.5490	" #	-0.7482
-2.6309	" $	-0.5441
-3.3566	" %	-0.2711
-2.5841	" &	-0.7482
-1.9606	" '	-1.3909
-1.7257	" (	-2.5440
-1.7043	" )	-2.5058
-2.4805	" *	-0.5874
-2.3236	" +	-1.2165
-1.6991	" ,	-2.8486
-1.9332	" -	-1.4821
-1.6991	" .	-3.5187
-2.1608	" /	-0.9037
-2.2254	" 0	-0.8439
-1.9604	" 1	-1.5257
-2.0210	" 2	-1.5052
-2.2612	" 3	-1.3493
-2.2084	" 4	-0.8540
-2.3674	" 5	-0.9733
-2.2617	" 6	-0.9272
-2.3443	" 7	-0.8127
-2.3934	" 8	-0.7409
-2.3224	" 9	-0.8393
-1.9902	" :	-1.2614
-1.9336	" ;	-1.4340
-2.3945	" <	-0.9243
-1.9902	" =	-1.1043
-2.0577	" >	-2.2017
-2.7270	" ?	-0.6391
-3.2034	" @	-0.4472
-1.8038	" A	-2.3872
-1.8105	" B	-2.5200
-1.8523	" C	-2.5004
-1.8599	" D	-2.4225
-1.9074	" E	-2.1378
-1.8830	" F	-2.2945
-1.8911	" G	-2.3103
-1.8830	" H	-2.4827
-1.9157	" I	-2.2176
-1.9607	" J	-2.1323
-1.9422	" K	-2.1292
-1.8675	" L	-2.4739
-1.8600	" M	-2.4691
-1.8990	" N	-2.2648
-2.0002	" O	-2.0152
-1.8830	" P	-2.4306
-2.1324	" Q	-1.5264
-1.8910	" R	-2.3198
-1.8038	" S	-2.6260
-1.7973	" T	-3.6108
-2.0436	" U	-1.7436
-2.0001	" V	-2.0252
-1.8752	" W	-2.4227
-2.2436	" X	-1.0831
-1.9801	" Y	-1.7752
-2.1187	" Z	-1.5671
-2.1629	" [	-0.9171
-3.1863	" \	-0.2711
-2.3233	" ]	-0.6691
-3.7696	" ^	-0.2711
-3.3325	" _	-0.2711
-2.9552	" `	-0.5142
-1.6889	" a	-2.7863
-1.7313	" b	-2.8293
-1.7483	" c	-2.7376
-1.8309	" d	-2.5555
-1.8451	" e	-2.0447
-1.7368	" f	-2.6873
-1.8831	" g	-2.3354
-1.8452	" h	-2.5657
-1.6939	" i	-2.8405
-2.1054	" j	-1.8238
-2.0105	" k	-1.7891
-1.8524	" l	-2.4756
-1.7541	" m	-2.5625
-1.8453	" n	-2.2840
-1.7314	" o	-2.6224
-1.7784	" p	-2.4348
-2.1051	" q	-1.6827
-1.7369	" r	-2.4538
-1.7149	" s	-2.6761
-1.7313	" t	-2.8585
-1.9074	" u	-1.9235
-1.9159	" v	-2.1796
-1.7097	" w	-3.1839
-2.0008	" x	-1.4789
-2.0794	" y	-1.8294
-2.2441	" z	-1.3988
-2.8681	" {	-0.3961
-2.4226	" |	-1.6407
-3.3807	" }	-0.2711
-3.3749	" ~	-0.2711
-2.5500	# <unk>	-0.2711
-1.5236	# "	-0.4630
-1.8990	# #	-0.4472
-2.2110	# '	-0.2711
-2.5500	# (	-0.2711
-1.8868	# )	-0.4752
-1.6351	# ,	-0.4338
-2.2117	# -	-0.2711
-1.5240	# .	-0.6391
-2.2117	# /	-0.2711
-1.8895	# 0	-1.3851
-0.9671	# 1	-1.4752
-1.1726	# 2	-1.2407
-1.2190	# 3	-1.1549
-1.3298	# 4	-1.0923
-1.2991	# 5	-0.9836
-1.3299	# 6	-0.8667
-1.3297	# 7	-0.8220
-1.3630	# 8	-0.7551
-1.3980	# 9	-0.7104
-2.2157	# :	-0.2711
-1.8872	# A	-0.7104
-2.0193	# B	-1.5648
-2.0173	# C	-0.7482
-1.8876	# D	-1.7994
-1.8880	# E	-0.8274
-2.5552	# F	-1.3851
-2.2117	# G	-0.2711
-2.2094	# H	-0.4472
-2.5534	# I	-0.2711
-2.2117	# J	-0.2711
-2.2094	# L	-0.5721
-2.5552	# N	-0.2711
-1.5244	# P	-0.8354
-2.0198	# R	-0.2711
-1.8872	# S	-0.3503
-2.0183	# T	-0.2711
-2.5605	# V	-0.2711
-2.5730	# X	-0.2711
-2.0173	# a	-0.7482
-2.5517	# b	-1.7183
-1.8865	# c	-1.9871
-2.5534	# d	-1.2711
-2.2078	# e	-1.9569
-2.5483	# f	-1.8732
-2.5587	# g	-0.2711
-2.5534	# h	-0.2711
-1.8861	# i	-2.1162
-2.5552	# o	-0.5721
-2.0204	# p	-0.4472
-1.7854	# s	-0.8944
-2.5500	# t	-0.2711
-1.2442	# v	-2.0972
-2.5587	# w	-0.2711
-2.6351	$ </s>	0.0000
-2.2646	$ <unk>	-0.7482
-2.6645	$ !	-0.2711
-1.5187	$ "	-0.5985
-2.6928	$ $	-0.2711
-2.2646	$ (	-0.2711
-1.6786	$ )	-0.6069
-2.2640	$ ,	-0.2711
-2.0688	$ .	-0.5721
-2.6408	$ /	-0.2711
-1.4772	$ 0	-0.6069
-0.9426	$ 1	-1.9065
-0.9796	$ 2	-1.7507
-1.0648	$ 3	-1.6347
-1.1146	$ 4	-1.4722
-1.0494	$ 5	-1.5298
-1.1913	$ 6	-1.2419
-1.1707	$ 7	-1.2974
-1.1915	$ 8	-1.1376
-1.2128	$ 9	-1.0756
-2.6510	$ ;	-0.7482
-2.6351	$ A	-0.2711
-2.0680	$ C	-0.3961
-2.2670	$ E	-0.5721
-2.6365	$ N	-0.2711
-2.6422	$ O	-0.2711
-1.8324	$ U	-0.7482
-2.0680	$ a	-0.8152
-2.6336	$ e	-0.2711
-2.6308	$ f	-0.2711
-1.9343	$ h	-0.4752
-1.7479	$ i	-0.6971
-2.2676	$ k	-0.5721
-2.6322	$ l	-0.2711
-2.6336	$ m	-0.5721
-2.2664	$ o	-0.5721
-2.6393	$ p	-0.2711
-2.2640	$ s	-0.2711
-1.8311	$ t	-0.4930
-2.6451	$ y	-0.2711
-1.8575	% </s>	0.0000
-1.8570	% <unk>	-1.4472
-2.7885	% !	-0.5721
-1.6999	% "	-1.3412
-2.7536	% '	-0.2711
-1.6201	% (	-0.7700
-1.5852	% )	-1.6697
-2.7821	% +	-0.2711
-1.6200	% ,	-0.9722
-1.7475	% -	-0.7717
-1.6584	% .	-1.3369
-2.7556	% /	-0.2711
-1.1286	% 2	-1.4987
-1.6591	% 3	-1.1162
-2.4225	% 5	-0.2711
-2.7656	% :	-0.2711
-1.6603	% ;	-1.9010
-2.2399	% =	-0.8732
-1.6586	% A	-1.1162
-1.5855	% B	-0.7349
-1.6200	% C	-0.6861
-2.1063	% D	-0.5721
-2.0072	% E	-0.7482
-2.0068	% F	-0.6233
-2.1077	% G	-0.3680
-1.7988	% H	-0.5344
-1.9256	% I	-0.5721
-2.2375	% J	-0.5721
-2.4244	% K	-0.5721
-2.4207	% L	-0.5721
-1.8582	% M	-0.7482
-1.6587	% N	-1.2349
-1.6589	% P	-1.2442
-2.1068	% R	-0.6971
-1.7467	% S	-0.6328
-2.1055	% T	-0.2711
-2.1077	% U	-0.3680
-2.7556	% V	-0.2711
-1.7010	% W	-1.8274
-2.1310	% \	-0.7482
-1.6581	% a	-1.5683
-1.7003	% b	-1.3075
-1.7001	% c	-1.4752
-1.6586	% d	-1.0281
-1.7465	% e	-0.9457
-1.6999	% f	-1.8257
-1.7992	% g	-1.0035
-1.7004	% h	-1.6916
-1.6999	% i	-1.7704
-2.1113	% j	-0.7482
-2.4225	% k	-0.2711
-1.7001	% l	-1.5142
-1.7003	% m	-1.5634
-1.8582	% n	-0.9243
-1.5530	% o	-2.7174
-1.7010	% p	-1.1742
-2.7656	% q	-0.2711
-1.7004	% r	-1.8480
-1.6581	% s	-1.2843
-1.7001	% t	-1.5639
-1.7473	% u	-1.2131
-1.8585	% v	-0.7482
-1.7010	% w	-1.9613
-2.7615	% y	-0.2711
-2.8082	% |	-2.0345
-2.4766	& <unk>	-1.0493
-3.0297	& !	-0.2711
-2.1678	& "	-0.3554
-3.0541	& #	-0.5721
-3.0704	& $	-0.2711
-2.4796	& '	-0.2711
-2.9826	& ,	-0.2711
-3.0004	& 0	-0.2711
-1.8638	& 1	-0.6021
-1.9437	& 2	-0.5721
-2.4796	& 3	-0.2711
-2.6676	& 4	-0.2711
-2.4796	& 5	-0.4930
-2.3511	& 7	-0.2711
-2.4826	& 9	-0.2711
-3.0045	& =	-0.2711
-1.4492	& A	-0.9293
-1.4354	& B	-1.5699
-1.5092	& C	-1.4909
-1.5794	& D	-1.0493
-1.6405	& E	-0.7360
-1.6865	& F	-1.1344
-1.5796	& G	-1.1781
-1.6865	& H	-1.2254
-1.6190	& I	-0.8410
-1.8292	& J	-1.2412
-1.7118	& K	-1.0538
-1.5794	& L	-1.1632
-1.4636	& M	-1.1849
-1.7379	& N	-1.1264
-1.8645	& O	-0.9379
-1.5260	& P	-1.1651
-2.4839	& Q	-0.4472
-1.5795	& R	-1.2904
-1.5258	& S	-1.4126
-1.5258	& T	-1.1442
-1.9908	& U	-0.5721
-1.9025	& V	-0.7763
-1.5796	& W	-1.2100
-2.4845	& X	-0.4472
-1.9912	& Y	-0.8594
-1.9048	& _	-0.4930
-1.7375	& a	-0.7940
-1.9017	& b	-0.7482
-1.6402	& c	-1.0744
-1.5258	& d	-1.5016
-1.8636	& e	-1.0493
-1.6188	& f	-1.3503
-2.1696	& g	-0.3851
-1.7962	& h	-0.9401
-1.9014	& i	-1.0950
-3.0127	& j	-0.2711
-2.1696	& k	-0.6971
-1.6402	& l	-1.1969
-1.9435	& m	-0.7940
-1.9906	& n	-0.4472
-1.9902	& o	-1.2412
-1.5432	& p	-1.5304
-2.0438	& q	-1.5142
-1.8638	& r	-1.0058
-1.5092	& s	-1.2294
-1.5792	& t	-1.3680
-2.3502	& u	-0.6391
-1.7383	& v	-1.0193
-1.9906	& w	-0.7830
-2.3520	& y	-0.8732
-1.9598	' </s>	0.0000
-1.8486	' <unk>	-2.8577
-2.7487	' !	-0.2711
-1.8485	' "	-1.1627
-3.4131	' #	-0.2711
-3.0804	' %	-0.2711
-2.7475	' &	-0.6691
-2.2991	' '	-0.3554
-1.6773	' (	-1.1523
-1.6589	' )	-1.4943
-2.7523	' *	-0.2711
-2.8749	' +	-0.4472
-1.6325	' ,	-1.5784
-1.9602	' -	-0.6606
-1.5843	' .	-1.8155
-2.7394	' /	-0.5721
-2.0620	' 0	-1.2294
-2.0613	' 1	-1.5153
-2.0613	' 2	-1.1306
-2.2613	' 3	-0.8152
-2.1367	' 4	-0.6343
-2.0851	' 5	-0.6135
-2.0856	' 6	-1.2488
-2.4380	' 7	-0.9932
-2.1956	' 8	-0.8152
-2.0857	' 9	-1.0115
-2.1953	' :	-0.6002
-2.1374	' ;	-0.6051
-2.8756	' <	-0.2711
-2.7417	' =	-0.3169
-2.7547	' ?	-0.2711
-1.7274	' A	-1.8652
-1.8087	' B	-1.6433
-1.8927	' C	-1.7826
-1.8930	' D	-1.7538
-1.8088	' E	-1.3602
-1.9784	' F	-1.3072
-1.9602	' G	-1.3870
-1.8488	' H	-1.8186
-1.8630	' I	-1.5473
-1.9255	' J	-1.3212
-2.0184	' K	-1.2923
-1.9599	' L	-1.4886
-1.8779	' M	-1.6433
-1.7839	' N	-1.2930
-1.9255	' O	-1.4015
-1.9089	' P	-1.4154
-2.4978	' Q	-1.0493
-1.8489	' R	-1.4630
-1.6869	' S	-1.4744
-1.8215	' T	-1.7530
-1.9980	' U	-1.0582
-2.1101	' V	-0.8732
-1.8088	' W	-1.6188
-2.3883	' X	-0.4260
-2.1103	' Y	-1.1742
-2.3008	' Z	-0.7482
-2.6535	' [	-0.2711
-3.3714	' ]	-0.2711
-3.3790	' _	-0.2711
-1.5076	' a	-1.9051
-1.7168	' b	-1.9820
-1.6773	' c	-2.0736
-1.6681	' d	-1.4946
-1.7273	' e	-1.5157
-1.8485	' f	-2.0078
-1.8632	' g	-1.5829
-1.7838	' h	-2.0556
-1.6076	' i	-1.7704
-2.1958	' j	-1.0756
-2.0181	' k	-0.9545
-1.8085	' l	-1.8327
-1.7490	' m	-1.5625
-1.7492	' n	-1.4026
-1.6870	' o	-1.7121
-1.7605	' p	-1.9561
-2.2624	' q	-0.9913
-1.6681	' r	-2.0265
-1.4536	' s	-3.2020
-1.6773	' t	-2.0490
-1.8632	' u	-1.2793
-1.9091	' v	-1.9146
-1.7275	' w	-2.1008
-2.6473	' x	-0.3381
-1.9984	' y	-1.3593
-2.1964	' z	-0.6447
-3.5073	' {	-0.2711
-3.1159	( </s>	0.0000
-1.7470	( <unk>	-4.0091
-3.6319	( !	-0.7482
-1.7531	( "	-2.2261
-2.5243	( #	-0.9189
-2.2800	( $	-1.0588
-2.9141	( %	-0.8152
-2.1211	( '	-0.9382
-2.3931	( (	-0.4472
-1.9749	( )	-1.4875
-2.2999	( *	-0.9524
-2.2379	( +	-0.8240
-2.2752	( ,	-0.5721
-2.2181	( -	-0.7640
-2.2176	( .	-0.6826
-2.5565	( /	-0.6391
-1.9753	( 0	-1.4238
-1.7007	( 1	-2.6934
-1.7233	( 2	-2.2785
-1.8276	( 3	-1.7772
-1.8427	( 4	-1.5726
-1.8502	( 5	-1.5778
-1.8582	( 6	-1.4862
-1.8825	( 7	-1.4858
-1.9086	( 8	-1.4632
-1.9084	( 9	-1.4676
-2.3948	( :	-1.3223
-2.1075	( ;	-0.9328
-2.9051	( <	-0.3503
-2.2977	( =	-0.6099
-2.9166	( >	-0.5473
-2.5241	( ?	-1.0670
-3.8006	( @	-0.2711
-1.7471	( A	-1.9782
-1.8424	( B	-1.7109
-1.7721	( C	-1.8756
-1.8202	( D	-1.7713
-1.8349	( E	-1.6251
-1.8130	( F	-1.8814
-1.7991	( G	-1.8354
-1.8059	( H	-1.6683
-1.7921	( I	-1.9605
-1.8503	( J	-2.0094
-1.8742	( K	-1.4821
-1.8275	( L	-1.6764
-1.7855	( M	-2.0146
-1.8130	( N	-1.9835
-1.8351	( O	-1.6715
-1.8130	( P	-1.8302
-2.2187	( Q	-0.9524
-1.8275	( R	-1.6959
-1.7921	( S	-2.0298
-1.7787	( T	-1.8173
-1.8581	( U	-1.7303
-1.9263	( V	-1.3397
-1.8994	( W	-1.7441
-2.2373	( X	-0.5864
-2.1071	( Y	-1.1774
-2.2010	( Z	-0.7845
-2.3712	( [	-0.6435
-3.3607	( \	-0.2711
-2.0309	( ]	-1.9227
-2.7721	( ^	-0.3803
-3.1306	( _	-0.2711
-1.7174	( a	-2.3871
-1.7291	( b	-3.2183
-1.7921	( c	-2.3743
-1.8130	( d	-2.2384
-1.8201	( e	-2.0602
-1.7594	( f	-2.5130
-1.8994	( g	-1.9361
-1.8993	( h	-2.2052
-1.7853	( i	-2.2293
-2.2011	( j	-1.5044
-1.9963	( k	-1.6180
-1.8129	( l	-2.5620
-1.7921	( m	-2.2818
-1.7855	( n	-2.1996
-1.7533	( o	-2.5441
-1.7789	( p	-2.3306
-2.4228	( q	-1.2534
-1.8501	( r	-2.0701
-1.7470	( s	-2.5278
-1.7232	( t	-2.7320
-1.8824	( u	-2.1964
-1.9649	( v	-1.8284
-1.7411	( w	-2.8427
-2.2192	( x	-0.9524
-2.2184	( y	-1.2254
-2.6008	( z	-0.7298
-3.7598	( {	-0.2711
-2.2609	( ~	-0.8952
-1.6378	) </s>	0.0000
-1.8047	) <unk>	-2.6513
-2.8025	) !	-0.3291
-1.6755	) "	-1.6183
-2.9124	) $	-0.5721
-3.5714	) %	-0.2711
-2.5955	) &	-0.3291
-2.0800	) '	-0.7084
-1.6377	) (	-1.5257
-1.7242	) )	-1.1986
-2.2941	) *	-0.8594
-2.1540	) +	-0.7671
-1.5457	) ,	-2.7514
-1.8324	) -	-1.0398
-1.5556	) .	-2.9767
-2.0037	) /	-0.5879
-3.0168	) 0	-0.3961
-1.8822	) 1	-1.0138
-2.0633	) 2	-0.8285
-2.3185	) 3	-0.6069
-2.4536	) 4	-0.5721
-2.3484	) 5	-0.5308
-2.6500	) 6	-0.3381
-2.6493	) 7	-0.3381
-2.4547	) 8	-0.5441
-2.6504	) 9	-0.4752
-1.7631	) :	-1.4931
-1.7474	) ;	-1.3683
-2.2664	) <	-1.3223
-2.1152	) =	-0.8860
-3.0465	) >	-0.5721
-2.7265	) ?	-0.4752
-1.8418	) A	-1.1050
-1.9386	) B	-1.2254
-1.8513	) C	-1.2172
-1.9268	) D	-1.0308
-2.0799	) E	-0.7280
-2.0968	) F	-0.8585
-2.1148	) G	-0.9496
-1.9634	) H	-1.2005
-1.9038	) I	-1.1328
-2.1333	) J	-1.0281
-2.2163	) K	-0.8632
-1.9897	) L	-1.0115
-1.9510	) M	-1.1988
-2.0798	) N	-0.8493
-2.1527	) O	-0.7202
-1.9765	) P	-1.2106
-2.7182	) Q	-0.5721
-1.9152	) R	-1.1364
-1.8929	) S	-1.1664
-1.8515	) T	-1.6513
-2.2162	) U	-0.5885
-2.2907	) V	-0.7684
-1.9269	) W	-1.4568
-3.1984	) X	-0.2711
-2.5407	) Y	-0.6513
-2.5933	) Z	-0.3961
-2.2944	) [	-0.5189
-3.2570	) \	-0.2711
-2.5431	) ]	-0.4260
-3.6449	) ^	-0.2711
-3.2072	) _	-0.2711
-1.5657	) a	-2.8573
-1.6318	) b	-2.4925
-1.6438	) c	-2.4408
-1.6889	) d	-2.3759
-1.7546	) e	-1.6993
-1.6562	) f	-2.7692
-1.8050	) g	-1.9089
-1.6626	) h	-2.5578
-1.5657	) i	-3.6249
-2.1535	) j	-1.5183
-2.0326	) k	-1.4530
-1.7789	) l	-2.4159
-1.6822	) m	-2.2778
-1.7792	) n	-1.9850
-1.6144	) o	-2.8285
-1.6959	) p	-2.0470
-2.4543	) q	-1.5016
-1.7169	) r	-2.2113
-1.6562	) s	-2.1799
-1.6377	) t	-2.8072
-1.7171	) u	-2.0878
-1.9388	) v	-1.6297
-1.6032	) w	-3.6972
-2.5431	) x	-0.4260
-2.1943	) y	-1.2254
-2.8005	) z	-0.9701
-2.6699	) {	-0.9401
-2.3855	) |	-0.3223
-2.9222	) }	-0.2711
-3.2485	) ~	-0.3961
-1.7339	* </s>	0.0000
-2.1421	* <unk>	-0.9701
-2.5085	* !	-0.2711
-1.3485	* "	-0.3639
-2.4723	* '	-0.2711
-1.6527	* (	-0.5344
-1.5852	* )	-0.8536
-1.2546	* *	-0.7763
-1.5261	* ,	-0.4172
-1.5865	* -	-0.6902
-1.7335	* .	-0.6391
-2.1479	* /	-0.4472
-1.4288	* 1	-0.6343
-1.8328	* 2	-0.6069
-1.7350	* 3	-0.3803
-2.1498	* 4	-0.2711
-1.9630	* 5	-0.5142
-1.9643	* 7	-0.2711
-2.4890	* 8	-0.2711
-2.1528	* :	-0.2711
-2.5041	* <	-0.2711
-1.9662	* =	-0.2711
-1.3871	* A	-1.0308
-2.4682	* B	-0.2711
-1.5261	* C	-0.7763
-1.7342	* D	-0.3961
-1.8337	* E	-0.4930
-2.1450	* F	-0.2711
-2.1450	* H	-1.1036
-1.9611	* I	-0.3961
-2.4744	* J	-0.2711
-2.4764	* K	-0.2711
-2.1450	* L	-0.2711
-1.9630	* M	-0.3961
-1.6537	* N	-0.5721
-2.1489	* O	-0.4472
-2.1460	* P	-0.4472
-1.6540	* R	-0.5721
-1.5855	* S	-1.1264
-1.6530	* T	-0.5721
-2.4744	* U	-0.2711
-2.1479	* V	-0.2711
-1.9630	* W	-0.3961
-2.4785	* Y	-0.2711
-2.4890	* Z	-0.2711
-2.1587	* ]	-0.4472
-2.5041	* _	-0.2711
-1.5847	* a	-0.4472
-1.5852	* b	-0.4260
-1.7331	* c	-0.4930
-1.8328	* d	-0.4930
-1.8314	* f	-0.4472
-2.4723	* g	-0.2711
-1.5847	* i	-1.1462
-2.4723	* k	-0.3680
-2.1421	* l	-0.7482
-1.8323	* m	-0.3961
-2.1469	* n	-0.5721
-1.7342	* o	-0.7482
-1.9630	* p	-1.0115
-2.4847	* q	-1.2254
-2.1440	* r	-0.5721
-1.6524	* s	-0.3961
-1.8319	* t	-0.6233
-1.9630	* u	-0.4472
-1.6543	* w	-0.5721
-2.4975	* x	-0.2711
-2.1597	* z	-0.2711
-2.5888	* }	-0.2711
-2.4124	+ </s>	0.0000
-1.7385	+ <unk>	-1.8274
-1.5832	+ "	-0.7743
-2.9741	+ #	-0.2711
-2.4383	+ %	-0.7482
-2.9080	+ '	-0.2711
-1.7085	+ (	-0.4930
-1.6292	+ )	-0.8074
-1.8089	+ +	-0.6802
-1.6290	+ ,	-0.4892
-2.1098	+ -	-0.3381
-1.4529	+ .	-0.9323
-2.1899	+ /	-0.8732
-1.7397	+ 0	-0.6786
-1.2506	+ 1	-1.1272
-1.3278	+ 2	-1.1128
-1.3931	+ 3	-1.0193
-1.4869	+ 4	-0.8777
-1.4696	+ 5	-0.8181
-1.6551	+ 6	-0.6736
-1.6813	+ 7	-0.6932
-1.9339	+ 8	-0.5499
-1.6817	+ 9	-0.5344
-2.9259	+ ;	-0.2711
-2.2902	+ =	-0.2711
-3.0004	+ >	-0.2711
-2.9716	+ ?	-0.2711
-1.8439	+ A	-0.4630
-1.9830	+ B	-0.4094
-2.1074	+ C	-0.9243
-1.8856	+ D	-0.5264
-2.2870	+ E	-0.4472
-2.1886	+ F	-0.5142
-2.1899	+ G	-0.4472
-1.6808	+ H	-0.6691
-2.1882	+ I	-0.6971
-2.5957	+ J	-1.3851
-2.4159	+ K	-0.3961
-2.2865	+ L	-0.5721
-1.9321	+ M	-0.6069
-2.0414	+ N	-0.6971
-2.1102	+ O	-0.2711
-1.9318	+ P	-0.8594
-2.6021	+ Q	-0.4472
-2.0417	+ R	-0.3803
-1.8439	+ S	-0.7994
-1.8852	+ T	-0.4850
-2.4152	+ U	-0.5721
-2.1899	+ V	-0.5142
-2.9080	+ W	-0.2711
-2.6032	+ Z	-0.2711
-2.6076	+ ]	-0.2711
-1.5620	+ a	-1.2991
-1.8437	+ b	-0.5721
-1.6804	+ c	-0.6485
-1.9828	+ d	-0.5721
-2.4117	+ e	-0.5721
-1.8848	+ f	-0.6301
-1.9321	+ g	-0.6069
-1.9828	+ h	-0.6691
-1.5832	+ i	-0.9954
-2.9282	+ j	-0.5721
-2.9080	+ k	-0.2711
-2.0405	+ l	-1.4568
-1.9825	+ m	-0.6813
-2.1894	+ n	-0.7104
-1.7389	+ o	-0.9575
-1.7392	+ p	-1.0359
-2.6011	+ q	-0.8152
-1.9314	+ r	-0.6691
-1.8054	+ s	-0.6691
-1.5621	+ t	-1.0281
-2.5946	+ u	-0.2711
-2.2881	+ v	-0.5721
-1.7715	+ w	-1.1336
-2.4230	+ x	-0.2711
-2.1109	+ y	-0.6391
-2.9374	+ z	-0.2711
-1.9151	, </s>	0.0000
-1.7842	, <unk>	-3.5797
-3.0521	, !	-0.5721
-1.7902	, "	-2.7770
-2.5381	, #	-1.1540
-2.3729	, $	-1.3881
-3.7187	, %	-0.2711
-2.3479	, &	-0.5222
-2.0454	, '	-1.2447
-1.8481	, (	-1.4534
-2.3042	, )	-0.6456
-2.7499	, *	-0.5142
-2.2870	, +	-0.8622
-2.1555	, ,	-0.7840
-2.2494	, -	-0.9871
-2.0909	, .	-0.9079
-2.6051	, /	-0.4878
-2.1291	, 0	-2.9963
-1.8414	, 1	-3.0385
-1.8552	, 2	-2.7492
-1.9233	, 3	-1.8650
-1.9850	, 4	-1.7886
-1.9755	, 5	-1.9070
-2.0350	, 6	-1.8262
-2.0042	, 7	-1.7604
-2.0459	, 8	-1.7302
-2.0567	, 9	-1.7292
-2.3925	, :	-0.4472
-2.8031	, ;	-0.2711
-2.2337	, <	-1.3503
-3.0444	, =	-0.2711
-2.9649	, >	-0.4172
-3.0586	, ?	-0.5721
-3.2276	, @	-0.2711
-1.7668	, A	-2.4298
-1.8088	, B	-2.5416
-1.7725	, C	-2.6937
-1.7964	, D	-2.3667
-1.8151	, E	-2.3376
-1.8088	, F	-2.3491
-1.8026	, G	-2.4781
-1.8281	, H	-2.4002
-1.7668	, I	-2.3228
-1.8768	, J	-2.5705
-1.8217	, K	-2.3231
-1.8347	, L	-2.4938
-1.7964	, M	-2.6177
-1.8151	, N	-2.5063
-1.8282	, O	-2.1260
-1.8216	, P	-2.5163
-1.9156	, Q	-1.7875
-1.8151	, R	-2.4486
-1.7726	, S	-2.6338
-1.7902	, T	-2.4047
-1.8624	, U	-2.1623
-1.8843	, V	-2.1055
-1.8026	, W	-2.3387
-1.9759	, X	-1.1082
-1.9235	, Y	-1.7845
-1.9490	, Z	-1.5530
-2.1723	, [	-0.8825
-3.4078	, \	-0.2711
-2.5698	, ]	-1.2442
-3.2142	, ^	-0.2711
-3.0508	, _	-0.2711
-2.8950	, `	-0.6391
-1.7233	, a	-3.5248
-1.7611	, b	-3.4464
-1.8024	, c	-3.0255
-1.8482	, d	-2.7498
-1.8413	, e	-2.7838
-1.7962	, f	-3.1997
-1.9233	, g	-2.6361
-1.7843	, h	-3.4375
-1.7667	, i	-3.3404
-2.0248	, j	-2.2019
-1.9152	, k	-2.2709
-1.8087	, l	-3.0708
-1.7902	, m	-3.1587
-1.8623	, n	-2.7735
-1.7446	, o	-3.1314
-1.8152	, p	-2.8870
-2.1427	, q	-2.0146
-1.8280	, r	-3.0026
-1.7783	, s	-3.3693
-1.7499	, t	-3.9199
-1.8553	, u	-2.6135
-1.9574	, v	-2.4660
-1.7446	, w	-3.9060
-2.2170	, x	-0.7183
-2.0143	, y	-2.0725
-2.3062	, z	-1.2435
-2.8221	, {	-0.7048
-3.3713	, |	-0.7482
-3.7729	, }	-0.2711
-2.8865	, ~	-0.4930
-2.0767	- </s>	0.0000
-1.9856	- <unk>	-2.7554
-3.5917	- !	-0.2711
-1.8637	- "	-1.1445
-3.6214	- #	-0.2711
-3.2946	- $	-0.7482
-3.6356	- %	-0.5721
-3.5866	- &	-0.2711
-2.3235	- '	-0.4414
-2.1386	- (	-0.4930
-2.1066	- )	-0.9625
-3.6077	- *	-0.2711
-2.8611	- +	-0.2711
-2.0222	- ,	-0.5834
-1.8138	- -	-1.7475
-2.1557	- .	-0.9545
-2.7088	- /	-0.2711
-1.9415	- 0	-1.5766
-1.6908	- 1	-2.2169
-1.6967	- 2	-1.9489
-1.7217	- 3	-1.4786
-1.7834	- 4	-1.4347
-1.8299	- 5	-1.3235
-1.9109	- 6	-1.3591
-1.8219	- 7	-1.2711
-1.8141	- 8	-1.3410
-1.8732	- 9	-1.3150
-3.5640	- :	-0.2711
-2.9558	- ;	-0.2711
-3.0795	- =	-0.3961
-2.6621	- >	-0.4279
-2.7178	- ?	-1.0115
-1.7216	- A	-2.1947
-1.7759	- B	-2.0414
-1.7215	- C	-2.2528
-1.7832	- D	-1.7896
-1.8298	- E	-1.6302
-1.7832	- F	-1.8129
-1.7908	- G	-1.9764
-1.8381	- H	-1.9136
-1.8297	- I	-1.6314
-1.8382	- J	-2.1643
-1.9632	- K	-1.7069
-1.7982	- L	-2.0267
-1.7346	- M	-2.1674
-1.7759	- N	-1.8799
-1.7908	- O	-1.4712
-1.7833	- P	-2.1988
-2.2538	- Q	-1.5761
-1.7688	- R	-1.8868
-1.7280	- S	-2.1705
-1.7152	- T	-1.8225
-1.9010	- U	-1.2726
-1.8914	- V	-1.6803
-1.8640	- W	-2.0921
-2.1931	- X	-0.5924
-2.0772	- Y	-1.4123
-2.0776	- Z	-1.1691
-2.7854	- [	-0.4172
-3.1189	- \	-0.2711
-3.7075	- ^	-0.2711
-2.7813	- _	-0.3803
-3.7392	- `	-1.0115
-1.7831	- a	-2.2490
-1.7832	- b	-2.7343
-1.7478	- c	-2.6555
-1.7832	- d	-2.8389
-1.8136	- e	-2.1853
-1.7905	- f	-2.6651
-1.8299	- g	-2.4640
-1.9008	- h	-2.5768
-1.7980	- i	-2.2819
-2.0924	- j	-1.7154
-1.9309	- k	-2.3386
-1.7546	- l	-3.0056
-1.7616	- m	-2.5003
-1.8466	- n	-2.1394
-1.8217	- o	-2.3898
-1.7618	- p	-2.6386
-2.3507	- q	-1.9613
-1.7906	- r	-2.5720
-1.7215	- s	-2.8491
-1.7279	- t	-2.8933
-1.9859	- u	-2.3536
-1.9010	- v	-2.1886
-1.7833	- w	-2.8035
-2.6027	- x	-0.5441
-1.9523	- y	-2.2670
-2.2130	- z	-1.1620
-3.2829	- |	-0.4472
-1.6677	. </s>	0.0000
-1.7973	. <unk>	-3.4375
-3.0219	. !	-0.3680
-1.7361	. "	-2.5060
-3.1586	. #	-0.4472
-2.7233	. $	-0.6135
-3.3510	. %	-0.8732
-2.7169	. &	-0.5721
-1.9180	. '	-1.1644
-1.7908	. (	-1.7720
-1.7974	. )	-1.7678
-2.8461	. *	-0.2711
-2.3880	. +	-0.7585
-1.8609	. ,	-1.5949
-2.1397	. -	-0.7081
-1.7657	. .	-2.0836
-2.4702	. /	-0.5606
-2.0985	. 0	-1.8073
-1.8108	. 1	-1.9592
-1.7909	. 2	-1.8701
-1.9180	. 3	-1.7168
-1.9639	. 4	-1.7052
-1.9449	. 5	-1.9233
-2.0374	. 6	-1.7019
-1.9938	. 7	-1.6858
-2.0492	. 8	-1.6493
-2.0044	. 9	-1.6527
-1.9838	. :	-1.4782
-2.5037	. ;	-0.5612
-2.0497	. <	-2.6878
-2.6626	. =	-0.5210
-3.0356	. >	-0.4472
-3.6722	. ?	-0.7482
-1.7362	. A	-3.0649
-1.7597	. B	-2.9164
-1.7718	. C	-2.6744
-1.7537	. D	-2.5612
-1.7975	. E	-2.5281
-1.7658	. F	-2.8530
-1.7846	. G	-2.4476
-1.7305	. H	-3.6662
-1.7139	. I	-3.6184
-1.7976	. J	-2.3930
-1.7911	. K	-2.1838
-1.7845	. L	-2.7081
-1.7363	. M	-2.8391
-1.7658	. N	-2.4492
-1.7659	. O	-2.8136
-1.7537	. P	-2.6503
-1.9361	. Q	-1.5562
-1.7658	. R	-2.4649
-1.7249	. S	-3.2205
-1.6979	. T	-3.8975
-1.7976	. U	-2.1565
-1.7976	. V	-2.0420
-1.7538	. W	-2.9710
-2.1403	. X	-1.1041
-1.8463	. Y	-3.8409
-1.9362	. Z	-1.5215
-2.0274	. [	-1.3451
-3.3778	. \	-0.7482
-2.5772	. ]	-0.6656
-2.1444	. ^	-0.9603
-3.6392	. _	-0.2711
-3.0538	. `	-0.4930
-1.8244	. a	-1.8309
-1.9934	. b	-1.5618
-1.8460	. c	-2.0622
-1.8926	. d	-1.5864
-1.9178	. e	-1.6856
-1.9354	. f	-1.6673
-1.9735	. g	-2.0714
-1.8388	. h	-2.1445
-1.8175	. i	-1.9153
-2.2026	. j	-1.1328
-2.2943	. k	-1.0264
-2.0979	. l	-1.4147
-1.9635	. m	-1.7211
-1.9835	. n	-1.3064
-1.8845	. o	-1.7528
-1.8767	. p	-1.9027
-2.8389	. q	-0.6391
-2.0851	. r	-1.4684
-1.8459	. s	-2.0405
-1.8534	. t	-1.9628
-2.0487	. u	-1.2579
-2.0854	. v	-1.2078
-1.9449	. w	-2.0075
-2.3170	. x	-0.8089
-2.4408	. y	-1.4752
-2.6649	. z	-0.5052
-3.1867	. {	-0.3961
-3.3415	. |	-0.8152
-3.7436	. }	-0.2711
-3.7303	. ~	-0.2711
-1.9675	/ </s>	0.0000
-1.8184	/ <unk>	-2.4912
-3.3600	/ !	-0.2711
-2.0792	/ "	-0.6630
-3.4076	/ $	-0.2711
-2.3567	/ '	-0.5721
-2.3097	/ (	-0.3738
-1.9674	/ )	-1.0930
-3.3753	/ *	-0.2711
-2.0544	/ ,	-0.5016
-2.4082	/ -	-0.5031
-1.8627	/ .	-1.2373
-2.1968	/ /	-1.6809
-1.9303	/ 0	-1.6317
-1.6378	/ 1	-1.7580
-1.6471	/ 2	-1.4557
-1.8050	/ 3	-1.0437
-1.9126	/ 4	-0.9640
-1.9300	/ 5	-0.8393
-1.9683	/ 6	-0.7625
-1.9681	/ 7	-0.6662
-2.0325	/ 8	-0.8767
-2.0322	/ 9	-0.9094
-3.3333	/ :	-0.5721
-2.3586	/ ;	-0.5210
-2.3662	/ >	-0.7234
-2.5435	/ ?	-1.4806
-1.6471	/ A	-1.0144
-1.7189	/ B	-1.0880
-1.6565	/ C	-1.1296
-1.7418	/ D	-1.2631
-1.7915	/ E	-0.9243
-1.7418	/ F	-1.0493
-1.8631	/ G	-0.9110
-1.8186	/ H	-1.3451
-1.7079	/ I	-0.8768
-1.9124	/ J	-0.9162
-1.9487	/ K	-0.6258
-1.7302	/ L	-1.1254
-1.7303	/ M	-1.1494
-1.8787	/ N	-0.9843
-1.8051	/ O	-0.8970
-1.6568	/ P	-1.1032
-2.4683	/ Q	-0.4752
-1.7537	/ R	-1.0420
-1.6471	/ S	-1.1394
-1.6764	/ T	-1.1853
-1.8051	/ U	-0.9932
-1.8631	/ V	-0.7867
-1.6973	/ W	-1.1719
-2.2709	/ X	-0.5142
-2.2320	/ Y	-0.8082
-2.4102	/ Z	-0.5142
-3.3805	/ [	-0.5721
-2.8767	/ \	-0.4472
-3.0273	/ ]	-0.4472
-1.7187	/ a	-1.3339
-1.8047	/ b	-1.9599
-1.7535	/ c	-1.3851
-1.7784	/ d	-2.4111
-1.8785	/ e	-1.1526
-1.8947	/ f	-1.3747
-1.8330	/ g	-1.2056
-1.8048	/ h	-1.7217
-1.7657	/ i	-1.9281
-1.9688	/ j	-0.9189
-1.8050	/ k	-1.8351
-1.8948	/ l	-1.2594
-1.6764	/ m	-1.4592
-1.8630	/ n	-1.2711
-1.8476	/ o	-1.7189
-1.6868	/ p	-1.4271
-2.4096	/ q	-1.1462
-1.8048	/ r	-1.5213
-1.6285	/ s	-1.5238
-1.8327	/ t	-1.9818
-2.0800	/ u	-1.0651
-2.0317	/ v	-1.0810
-1.8478	/ w	-1.9579
-2.7169	/ x	-0.7104
-2.3117	/ y	-0.8909
-2.4703	/ z	-0.5142
-2.8558	/ |	-0.3961
-3.4395	/ ~	-0.2711
-1.9428	0 </s>	0.0000
-1.7304	0 <unk>	-4.0993
-2.7562	0 !	-0.2711
-1.8066	0 "	-1.3053
-2.3859	0 #	-0.7940
-2.5390	0 $	-0.2711
-1.9962	0 %	-1.8927
-2.2252	0 &	-0.5415
-1.9667	0 '	-1.6494
-1.8067	0 (	-1.2603
-1.7167	0 )	-2.1709
-2.0480	0 +	-1.0777
-1.5498	0 ,	-2.6682
-1.7171	0 -	-1.8437
-1.5061	0 .	-2.5702
-2.0179	0 /	-1.2066
-1.4981	0 0	-3.3053
-1.5886	0 1	-2.9687
-1.6657	0 2	-2.1325
-1.7037	0 3	-2.1495
-1.6426	0 4	-2.1762
-1.6202	0 5	-2.2468
-1.5992	0 6	-2.2624
-1.6096	0 7	-2.3017
-1.6099	0 8	-2.2482
-1.6205	0 9	-2.2075
-1.8425	0 :	-1.1576
-2.0190	0 ;	-1.8531
-2.3813	0 <	-1.0493
-2.0466	0 =	-0.7889
-2.4538	0 ?	-0.5721
-3.4245	0 @	-0.2711
-2.0452	0 A	-1.7511
-2.0753	0 B	-1.8436
-1.7744	0 C	-1.4502
-1.9912	0 D	-1.4925
-2.0176	0 E	-1.2208
-2.0174	0 F	-1.5899
-2.1804	0 G	-1.4977
-2.1798	0 H	-1.1589
-2.1072	0 I	-0.9878
-2.1427	0 J	-1.8519
-2.0760	0 K	-0.7830
-2.1421	0 L	-1.1004
-2.1425	0 M	-1.6769
-2.1074	0 N	-1.6432
-2.1807	0 O	-1.5368
-2.1800	0 P	-1.2913
-2.6223	0 Q	-0.4172
-2.1423	0 R	-1.2343
-2.0751	0 S	-1.6494
-2.1793	0 T	-1.2172
-2.1080	0 U	-1.6018
-2.1080	0 V	-0.9218
-2.1802	0 W	-1.3053
-2.5255	0 X	-0.4472
-2.2680	0 Y	-1.2601
-2.3788	0 Z	-0.4930
-2.3848	0 [	-0.5721
-3.3596	0 \	-0.2711
-2.1449	0 ]	-0.8732
-3.3732	0 ^	-0.5721
-2.5290	0 _	-0.4172
-1.6777	0 a	-2.3686
-1.9427	0 b	-2.0549
-1.9203	0 c	-2.5274
-1.7747	0 d	-2.0553
-2.1070	0 e	-1.6212
-1.8991	0 f	-2.4464
-2.0457	0 g	-1.7862
-2.0452	0 h	-2.1672
-1.7166	0 i	-2.6040
-2.3209	0 j	-1.1954
-2.1425	0 k	-2.2147
-1.9907	0 l	-2.0134
-1.9205	0 m	-2.4313
-2.0757	0 n	-1.6428
-1.8069	0 o	-2.0086
-2.0177	0 p	-2.5275
-2.3781	0 q	-1.0950
-2.0173	0 r	-2.0658
-1.8991	0 s	-2.5904
-1.7745	0 t	-2.8871
-1.9915	0 u	-2.0373
-1.9211	0 v	-1.9397
-1.8998	0 w	-2.5495
-2.1100	0 x	-0.6813
-2.1811	0 y	-2.8378
-2.7528	0 z	-0.6691
-2.1478	0 |	-0.7482
-2.9818	0 }	-0.2711
-2.6469	0 ~	-0.5721
-1.9360	1 </s>	0.0000
-1.7899	1 <unk>	-3.6799
-3.0143	1 !	-0.3503
-1.7811	1 "	-1.3092
-2.7936	1 #	-0.9701
-1.9915	1 %	-1.4105
-2.2782	1 &	-0.7867
-1.9889	1 '	-1.0807
-1.7812	1 (	-1.1287
-1.7021	1 )	-2.1129
-2.8904	1 *	-0.3680
-2.0836	1 +	-0.8995
-1.5938	1 ,	-2.5970
-1.7729	1 -	-1.6778
-1.6111	1 .	-2.5035
-1.7992	1 /	-1.4144
-1.5563	1 0	-2.7777
-1.6053	1 1	-2.5431
-1.5827	1 2	-2.5652
-1.6171	1 3	-2.5185
-1.6545	1 4	-2.5500
-1.6416	1 5	-2.5877
-1.6055	1 6	-2.5073
-1.6232	1 7	-2.5516
-1.6115	1 8	-2.9054
-1.6056	1 9	-3.5344
-1.8679	1 :	-1.3215
-2.2024	1 ;	-0.8425
-2.5809	1 <	-0.6971
-2.0657	1 =	-0.9050
-3.5732	1 >	-0.2711
-2.7120	1 ?	-0.3291
-3.6826	1 @	-0.2711
-1.8367	1 A	-1.6320
-2.0177	1 B	-1.3029
-2.0483	1 C	-1.3045
-1.9888	1 D	-1.6641
-2.1578	1 E	-0.9731
-2.1182	1 F	-1.5922
-2.0179	1 G	-1.1954
-2.1375	1 H	-0.9554
-2.2491	1 I	-1.0874
-2.0332	1 J	-2.1333
-2.2251	1 K	-0.9445
-2.1577	1 L	-0.8732
-1.9006	1 M	-1.7962
-2.0030	1 N	-1.6195
-2.0490	1 O	-1.5998
-2.1578	1 P	-1.0217
-2.7037	1 Q	-0.7148
-2.0822	1 R	-0.7877
-2.0176	1 S	-1.6328
-2.0175	1 T	-1.2923
-2.1001	1 U	-1.1126
-2.3661	1 V	-0.8732
-2.2013	1 W	-1.0840
-2.3352	1 X	-0.6301
-2.7021	1 Y	-0.4752
-3.1846	1 Z	-0.2711
-3.2062	1 [	-0.6971
-3.2427	1 \	-0.2711
-2.2029	1 ]	-0.9586
-2.7871	1 _	-0.2711
-1.6607	1 a	-2.1865
-1.8269	1 b	-1.7909
-1.8269	1 c	-1.9485
-1.8891	1 d	-1.7303
-1.9119	1 e	-1.2319
-1.8366	1 f	-2.0278
-1.9618	1 g	-1.3851
-1.8781	1 h	-2.9663
-1.7243	1 i	-2.3908
-2.3354	1 j	-0.7048
-2.0331	1 k	-1.7305
-2.0648	1 l	-1.4752
-1.8081	1 m	-1.9286
-2.0331	1 n	-1.3463
-1.7990	1 o	-2.0773
-1.8272	1 p	-2.0167
-2.8798	1 q	-0.5721
-1.9486	1 r	-1.8685
-1.7167	1 s	-2.2420
-1.7398	1 t	-2.6732
-2.0823	1 u	-1.7987
-2.0490	1 v	-1.6036
-1.7814	1 w	-2.2797
-2.4031	1 x	-0.5721
-2.1189	1 y	-2.0959
-3.5035	1 z	-0.2711
-2.3708	1 |	-1.0727
-3.0428	1 }	-0.6233
-3.2343	1 ~	-0.2711
-1.8920	2 </s>	0.0000
-1.8038	2 <unk>	-3.6664
-3.0270	2 !	-0.2711
-1.7017	2 "	-1.5264
-2.9067	2 #	-0.8732
-2.0197	2 %	-1.3723
-2.2919	2 &	-0.5487
-2.0961	2 '	-0.9818
-1.7382	2 (	-1.1226
-1.6747	2 )	-2.1387
-2.4989	2 *	-0.6813
-1.9767	2 +	-0.7884
-1.6077	2 ,	-2.5072
-1.8041	2 -	-1.6740
-1.5966	2 .	-2.5132
-1.8815	2 /	-1.2046
-1.5702	2 0	-3.3391
-1.6813	2 1	-2.2240
-1.6430	2 2	-2.1918
-1.6882	2 3	-2.1924
-1.6816	2 4	-2.2084
-1.6882	2 5	-2.2738
-1.6952	2 6	-2.1642
-1.7385	2 7	-2.1757
-1.7093	2 8	-2.1609
-1.7464	2 9	-2.1418
-1.8225	2 :	-1.2333
-2.1938	2 ;	-0.8152
-2.4969	2 <	-0.9701
-2.0795	2 =	-0.7848
-3.0452	2 >	-0.2711
-3.0356	2 ?	-0.5721
-3.6950	2 @	-0.2711
-1.8920	2 A	-1.6012
-1.9625	2 B	-1.1777
-1.8127	2 C	-1.1400
-1.9888	2 D	-1.3285
-2.1927	2 E	-1.0840
-1.9259	2 F	-1.4752
-2.0470	2 G	-1.0990
-2.0315	2 H	-0.8684
-2.1319	2 I	-0.7763
-2.0628	2 J	-1.9889
-2.0171	2 K	-0.8896
-2.1513	2 L	-0.9913
-1.9379	2 M	-1.6777
-2.0026	2 N	-1.4520
-1.9145	2 O	-1.3978
-2.0027	2 P	-1.0941
-2.7170	2 Q	-0.6391
-2.0960	2 R	-1.0682
-1.8813	2 S	-1.6680
-2.0623	2 T	-1.1448
-2.1516	2 U	-0.9755
-2.4934	2 V	-0.5721
-2.2633	2 W	-1.2005
-2.5922	2 X	-0.5400
-2.7943	2 Y	-0.9146
-2.7174	2 Z	-0.3291
-2.8054	2 [	-1.0493
-3.2556	2 \	-0.2711
-2.2402	2 ]	-1.0370
-3.2614	2 ^	-0.5721
-3.0253	2 _	-0.3680
-1.6879	2 a	-2.1842
-1.8605	2 b	-1.8551
-1.8038	2 c	-1.7783
-1.8708	2 d	-1.5488
-1.9498	2 e	-1.3732
-1.8219	2 f	-2.0162
-1.9501	2 g	-1.6249
-1.9499	2 h	-2.1175
-1.6746	2 i	-2.3749
-2.5925	2 j	-0.7104
-2.0791	2 k	-1.6379
-1.9886	2 l	-1.6328
-1.8408	2 m	-1.9553
-1.8710	2 n	-2.1170
-1.7699	2 o	-1.8872
-1.8410	2 p	-2.0052
-2.6496	2 q	-1.1462
-1.8220	2 r	-1.8042
-1.8038	2 s	-1.9301
-1.7382	2 t	-2.5095
-2.1138	2 u	-1.9750
-1.9032	2 v	-1.4820
-1.7619	2 w	-2.1414
-2.0480	2 x	-0.8002
-2.0631	2 y	-2.2166
-3.0236	2 z	-0.2711
-3.6535	2 {	-0.2711
-2.4578	2 |	-0.8509
-3.2527	2 }	-0.2711
-3.0524	2 ~	-0.4472
-1.9964	3 </s>	0.0000
-1.8002	3 <unk>	-3.6691
-2.9784	3 !	-0.2711
-1.7113	3 "	-1.4339
-2.6761	3 #	-0.8152
-1.9995	3 %	-1.3378
-2.4053	3 &	-0.6887
-2.1013	3 '	-0.8995
-1.8308	3 (	-1.0579
-1.6956	3 )	-2.1906
-2.5471	3 *	-0.3961
-2.0835	3 +	-0.7482
-1.6112	3 ,	-2.4726
-1.7036	3 -	-1.6379
-1.5746	3 .	-2.4262
-1.8311	3 /	-1.2331
-1.5989	3 0	-2.4096
-1.6585	3 1	-2.1109
-1.6445	3 2	-1.9396
-1.6658	3 3	-1.9114
-1.6732	3 4	-1.8799
-1.6244	3 5	-1.9850
-1.6517	3 6	-1.9353
-1.6881	3 7	-1.9504
-1.7039	3 8	-1.8815
-1.6883	3 9	-1.8739
-1.8760	3 :	-1.1491
-2.1659	3 ;	-0.8299
-2.5446	3 <	-0.9243
-2.2683	3 =	-0.5721
-3.5383	3 >	-0.2711
-2.7569	3 ?	-0.2711
-1.8873	3 A	-1.5448
-1.9385	3 B	-1.1758
-1.8994	3 C	-1.0083
-1.7536	3 D	-1.4826
-2.1648	3 E	-0.9787
-2.0633	3 F	-1.4486
-1.9668	3 G	-1.0212
-2.1881	3 H	-0.9511
-2.1423	3 I	-0.7482
-1.9967	3 J	-1.9129
-2.2678	3 K	-0.6971
-2.1011	3 L	-0.9323
-1.9387	3 M	-1.6723
-1.9385	3 N	-1.5234
-2.0126	3 O	-1.4301
-1.9813	3 P	-0.9880
-2.4450	3 Q	-0.5721
-2.1012	3 R	-0.8732
-1.8639	3 S	-1.4968
-2.0816	3 T	-1.0840
-2.2676	3 U	-0.8493
-2.4022	3 V	-0.7717
-2.2675	3 W	-1.1982
-2.7475	3 X	-0.3503
-2.6659	3 Y	-0.5142
-2.7475	3 Z	-0.5721
-2.6066	3 [	-0.9701
-3.5825	3 \	-0.2711
-2.2413	3 ]	-0.8417
-3.0119	3 ^	-0.4472
-2.9768	3 _	-0.2711
-1.6878	3 a	-2.1532
-1.8754	3 b	-1.9432
-1.7624	3 c	-1.7843
-1.8755	3 d	-1.5594
-1.8754	3 e	-1.3200
-1.8001	3 f	-1.9439
-1.9525	3 g	-1.5850
-1.9121	3 h	-1.8473
-1.6955	3 i	-2.3003
-2.7480	3 j	-0.9701
-2.0288	3 k	-1.7574
-1.9521	3 l	-1.4407
-1.8309	3 m	-1.8766
-2.1013	3 n	-1.3803
-1.7810	3 o	-1.8602
-1.8528	3 p	-2.1447
-2.8438	3 q	-0.9701
-1.7810	3 r	-2.3199
-1.7904	3 s	-1.8311
-1.8203	3 t	-2.5002
-2.1649	3 u	-1.9419
-1.9668	3 v	-1.3661
-1.7907	3 w	-2.1954
-2.1229	3 x	-0.6493
-1.9817	3 y	-2.1224
-2.8481	3 z	-0.5721
-2.2434	3 |	-0.9339
-3.0066	3 }	-0.5721
-1.9284	4 </s>	0.0000
-1.8399	4 <unk>	-3.6848
-3.4576	4 !	-0.2711
-1.7862	4 "	-1.0902
-3.1514	4 #	-0.4472
-1.9603	4 %	-1.3638
-2.4694	4 &	-0.4752
-1.9576	4 '	-0.9094
-1.8286	4 (	-0.9457
-1.6717	4 )	-2.2893
-2.9601	4 *	-0.4472
-2.0993	4 +	-0.6427
-1.6003	4 ,	-2.4816
-1.7388	4 -	-1.6667
-1.5449	4 .	-2.4634
-1.9576	4 /	-1.1644
-1.6006	4 0	-2.2552
-1.6640	4 1	-1.8820
-1.6206	4 2	-1.9253
-1.6876	4 3	-1.8582
-1.7042	4 4	-1.8912
-1.6492	4 5	-2.0163
-1.7042	4 6	-1.8577
-1.7299	4 7	-1.9331
-1.6800	4 8	-1.9500
-1.7301	4 9	-1.9496
-1.8889	4 :	-1.1807
-2.2169	4 ;	-0.7940
-2.6472	4 <	-0.8732
-2.2745	4 =	-0.6833
-2.9634	4 ?	-0.2711
-1.8070	4 A	-1.5951
-1.9884	4 B	-1.1828
-1.8633	4 C	-1.0374
-1.9013	4 D	-1.4414
-2.1410	4 E	-0.9414
-1.9285	4 F	-1.6166
-2.0398	4 G	-1.1919
-2.2154	4 H	-1.4614
-2.2731	4 I	-0.8732
-2.0051	4 J	-2.2797
-2.0979	4 K	-0.9110
-2.0773	4 L	-1.1692
-1.9576	4 M	-1.7322
-1.9285	4 N	-1.5401
-2.0399	4 O	-1.5422
-1.9575	4 P	-0.9836
-2.4213	4 Q	-0.4172
-2.1410	4 R	-1.0907
-1.8883	4 S	-1.5100
-1.9882	4 T	-1.1742
-2.1647	4 U	-0.9287
-2.1895	4 V	-0.9843
-2.0775	4 W	-1.2284
-2.4675	4 X	-0.8732
-2.5754	4 Y	-0.5264
-2.5771	4 Z	-0.5052
-2.9617	4 [	-0.8732
-3.5600	4 \	-0.2711
-2.3080	4 ]	-0.9445
-3.1349	4 _	-0.2711
-1.7038	4 a	-2.1011
-1.8515	4 b	-1.8033
-1.7665	4 c	-1.6790
-1.8516	4 d	-1.7796
-1.9425	4 e	-1.3030
-1.8176	4 f	-2.0798
-1.9015	4 g	-1.6889
-1.8757	4 h	-2.2056
-1.7038	4 i	-2.6669
-2.6448	4 j	-0.5721
-2.0050	4 k	-1.5802
-1.9724	4 l	-1.6691
-1.7571	4 m	-1.8345
-1.9728	4 n	-1.3255
-1.7387	4 o	-1.8752
-1.8885	4 p	-2.0350
-2.7231	4 q	-1.0493
-1.8757	4 r	-1.5142
-1.7665	4 s	-1.9291
-1.7208	4 t	-2.5763
-2.0775	4 u	-1.9643
-2.0398	4 v	-1.5117
-1.7668	4 w	-2.1107
-2.0788	4 x	-1.3680
-2.0053	4 y	-2.1485
-3.1325	4 z	-0.6691
-2.3840	4 |	-0.9401
-2.9831	4 }	-0.5721
-2.8452	4 ~	-0.6691
-1.9385	5 </s>	0.0000
-1.7624	5 <unk>	-3.8283
-2.7927	5 !	-0.2711
-1.8415	5 "	-1.1258
-2.9297	5 #	-0.7482
-3.1257	5 $	-0.4472
-1.8971	5 %	-1.7486
-2.3891	5 &	-0.6233
-2.0056	5 '	-0.9297
-1.8293	5 (	-0.9543
-1.7625	5 )	-2.2480
-2.5480	5 *	-0.5721
-2.2419	5 +	-0.4707
-1.5865	5 ,	-2.5206
-1.7328	5 -	-1.6783
-1.5598	5 .	-2.4284
-1.9089	5 /	-1.1947
-1.5288	5 0	-2.4551
-1.6869	5 1	-1.9541
-1.6078	5 2	-1.9166
-1.6536	5 3	-1.9085
-1.6458	5 4	-1.8989
-1.6700	5 5	-1.9513
-1.6872	5 6	-1.9088
-1.7049	5 7	-1.8909
-1.6540	5 8	-1.8990
-1.7235	5 9	-1.9301
-1.8679	5 :	-1.0797
-2.2109	5 ;	-0.9106
-2.7914	5 <	-0.6691
-2.3452	5 =	-0.5915
-3.4804	5 >	-0.5721
-2.5494	5 ?	-0.4308
-1.8417	5 A	-1.6493
-2.0432	5 B	-1.3369
-2.0427	5 C	-1.0074
-1.9707	5 D	-1.6036
-2.0846	5 E	-0.9758
-1.9386	5 F	-1.5117
-1.9880	5 G	-1.0171
-2.2713	5 H	-1.0180
-2.1301	5 I	-0.6728
-2.0057	5 J	-2.0739
-2.0850	5 K	-0.7148
-2.2392	5 L	-0.8958
-1.8946	5 M	-1.6215
-1.8806	5 N	-1.4217
-2.0850	5 O	-1.4784
-2.1069	5 P	-1.0377
-2.6891	5 Q	-0.3680
-2.1551	5 R	-0.8523
-1.8417	5 S	-1.4396
-2.0843	5 T	-1.1277
-2.2397	5 U	-1.0395
-2.2718	5 V	-0.6769
-2.2096	5 W	-1.1382
-2.6896	5 X	-0.2711
-2.5411	5 Y	-0.8732
-2.6100	5 Z	-0.3803
-2.7976	5 [	-0.8152
-3.5246	5 \	-0.2711
-2.2115	5 ]	-0.9031
-2.7914	5 _	-0.2711
-1.6781	5 a	-2.1821
-1.9085	5 b	-2.0364
-1.7836	5 c	-1.7877
-1.8672	5 d	-1.8632
-1.9085	5 e	-1.3439
-1.8670	5 f	-1.9432
-1.9235	5 g	-1.4815
-1.8417	5 h	-2.0607
-1.6454	5 i	-2.4802
-2.3876	5 j	-0.9079
-1.9235	5 k	-1.9198
-1.9704	5 l	-1.5697
-1.7837	5 m	-2.1462
-2.0241	5 n	-1.4853
-1.7138	5 o	-1.9305
-1.8296	5 p	-2.0952
-2.7859	5 q	-0.5721
-1.9385	5 r	-1.7227
-1.7945	5 s	-1.9450
-1.7230	5 t	-2.6951
-2.1305	5 u	-2.0468
-1.9388	5 v	-1.4520
-1.8062	5 w	-2.2783
-2.2115	5 x	-0.6265
-1.9091	5 y	-2.4154
-2.3918	5 |	-0.9701
-3.1461	5 }	-0.5721
-2.9452	5 ~	-0.7482
-1.9394	6 </s>	0.0000
-1.7312	6 <unk>	-3.6252
-2.7619	6 !	-0.3961
-1.8103	6 "	-0.9981
-2.6685	6 #	-0.5721
-1.9263	6 %	-1.2937
-2.3163	6 &	-0.5899
-2.0324	6 '	-0.8337
-1.8492	6 (	-0.9343
-1.7211	6 )	-2.1809
-2.6661	6 *	-0.7482
-2.3578	6 +	-0.4472
-1.6063	6 ,	-2.4170
-1.7528	6 -	-1.6482
-1.5417	6 .	-2.3882
-1.9234	6 /	-1.0125
-1.5696	6 0	-2.3108
-1.6223	6 1	-1.9318
-1.5988	6 2	-1.9374
-1.6224	6 3	-1.9158
-1.6225	6 4	-1.9815
-1.6144	6 5	-2.0193
-1.6560	6 6	-1.9665
-1.7316	6 7	-1.9603
-1.6562	6 8	-1.9465
-1.6738	6 9	-1.9163
-1.8500	6 :	-1.0773
-2.2420	6 ;	-0.8095
-2.6622	6 <	-0.8152
-2.7546	6 =	-0.3680
-2.5184	6 ?	-0.6135
-3.5585	6 @	-0.2711
-1.8774	6 A	-1.6462
-2.0534	6 B	-1.3308
-2.0116	6 C	-1.0322
-1.9395	6 D	-1.5441
-2.1240	6 E	-1.0048
-1.9743	6 F	-1.6285
-2.0537	6 G	-1.0458
-2.1239	6 H	-0.9575
-2.2079	6 I	-0.8104
-1.8924	6 J	-2.2217
-2.2757	6 K	-0.6343
-2.2081	6 L	-0.9046
-1.8496	6 M	-1.7475
-1.9743	6 N	-1.5977
-1.9235	6 O	-1.4962
-2.1503	6 P	-1.0923
-3.0599	6 Q	-0.2711
-2.2751	6 R	-0.9211
-1.9231	6 S	-1.5805
-2.0754	6 T	-1.0781
-2.2755	6 U	-1.0308
-2.3546	6 V	-0.6447
-2.3544	6 W	-1.2711
-2.8826	6 X	-0.2711
-2.8786	6 Y	-0.2711
-2.5791	6 Z	-0.3169
-3.0823	6 [	-0.7482
-2.2777	6 ]	-0.9425
-2.7607	6 _	-0.3961
-1.6824	6 a	-2.0874
-1.8359	6 b	-2.0412
-1.7634	6 c	-1.8631
-1.8105	6 d	-1.6659
-1.9394	6 e	-1.6666
-1.7746	6 f	-1.8311
-1.9745	6 g	-1.5044
-1.8774	6 h	-2.0855
-1.6555	6 i	-2.6107
-2.6593	6 j	-0.8732
-1.9397	6 k	-1.6135
-1.9740	6 l	-1.3680
-1.7863	6 m	-1.8897
-2.0993	6 n	-1.4912
-1.7526	6 o	-1.7782
-1.8362	6 p	-2.0739
-2.7552	6 q	-0.9701
-1.8360	6 r	-1.6647
-1.7746	6 s	-1.7102
-1.6918	6 t	-2.6347
-2.1242	6 u	-2.1836
-2.0325	6 v	-1.4842
-1.7315	6 w	-2.1998
-2.2777	6 x	-0.6623
-1.9079	6 y	-1.9859
-3.3821	6 z	-0.2711
-2.3187	6 |	-1.0840
-3.1154	6 }	-0.2711
-3.1099	6 ~	-0.2711
-1.9477	7 </s>	0.0000
-1.7597	7 <unk>	-3.5894
-3.0457	7 !	-0.2711
-1.7481	7 "	-0.9909
-2.6420	7 #	-0.5721
-3.4155	7 $	-0.2711
-1.8839	7 %	-1.3680
-2.6357	7 &	-0.4472
-2.1819	7 '	-0.9503
-1.8507	7 (	-0.9493
-1.7839	7 )	-2.1468
-3.0532	7 *	-0.2711
-2.2167	7 +	-0.6099
-1.6037	7 ,	-2.4567
-1.8098	7 -	-1.6735
-1.5428	7 .	-2.3974
-1.9481	7 /	-1.0090
-1.5431	7 0	-2.2772
-1.6292	7 1	-1.9789
-1.6039	7 2	-2.0031
-1.5959	7 3	-2.0137
-1.6209	7 4	-2.0099
-1.5724	7 5	-2.0705
-1.6383	7 6	-1.9947
-1.6124	7 7	-2.0067
-1.6211	7 8	-2.0340
-1.6851	7 9	-2.0906
-1.8663	7 :	-1.0744
-2.1833	7 ;	-0.7817
-2.6357	7 <	-0.7482
-2.2498	7 =	-0.6971
-2.7415	7 ?	-0.3961
-1.8509	7 A	-1.5630
-2.0057	7 B	-1.2488
-2.1231	7 C	-1.1503
-1.8967	7 D	-1.5484
-2.0493	7 E	-1.0727
-1.9662	7 F	-1.6782
-2.1521	7 G	-1.0244
-2.1517	7 H	-0.9634
-2.1515	7 I	-0.8293
-1.9133	7 J	-2.2988
-2.3284	7 K	-0.5458
-2.1816	7 L	-0.8095
-1.8658	7 M	-1.7585
-2.0269	7 N	-1.7298
-2.0979	7 O	-1.5612
-2.1518	7 P	-1.1162
-3.0334	7 Q	-0.2711
-2.2863	7 R	-0.8110
-1.8808	7 S	-1.4763
-2.0971	7 T	-1.1825
-2.0730	7 U	-0.9379
-2.4830	7 V	-0.5400
-2.0059	7 W	-1.0863
-2.6323	7 X	-0.2711
-2.3744	7 Y	-0.5721
-2.4853	7 Z	-0.3961
-3.3872	7 [	-0.5721
-2.1840	7 ]	-0.9496
-2.6357	7 _	-0.2711
-1.7715	7 a	-2.0504
-1.8655	7 b	-2.0239
-1.8365	7 c	-1.7059
-1.8509	7 d	-1.6638
-1.9476	7 e	-1.1315
-1.8653	7 f	-1.8644
-1.9480	7 g	-1.5544
-1.9129	7 h	-2.0832
-1.6845	7 i	-2.7421
-2.5530	7 j	-0.5721
-1.9857	7 k	-1.6632
-1.9852	7 l	-1.4389
-1.8094	7 m	-1.8466
-2.0728	7 n	-1.4698
-1.7718	7 o	-1.6933
-1.7968	7 p	-1.9166
-2.8545	7 q	-0.7482
-1.8808	7 r	-1.6719
-1.7963	7 s	-1.8098
-1.7259	7 t	-2.7943
-2.0977	7 u	-1.9787
-2.1241	7 v	-1.5215
-1.7719	7 w	-2.2049
-2.2163	7 x	-0.5956
-1.8514	7 y	-2.0333
-2.6347	7 z	-0.2711
-2.2540	7 |	-0.7482
-3.4617	7 }	-0.2711
-2.8878	7 ~	-0.2711
-1.8897	8 </s>	0.0000
-1.7647	8 <unk>	-3.5869
-1.8437	8 "	-0.9524
-2.7356	8 #	-0.3961
-1.8928	8 %	-1.3318
-2.2450	8 &	-0.4602
-1.9789	8 '	-0.8184
-1.8296	8 (	-0.8841
-1.8025	8 )	-2.1728
-3.3768	8 *	-0.2711
-2.3245	8 +	-0.6021
-1.6309	8 ,	-2.4503
-1.7651	8 -	-1.5980
-1.5578	8 .	-2.4273
-1.9790	8 /	-1.0319
-1.5433	8 0	-2.3880
-1.6310	8 1	-2.1471
-1.6584	8 2	-2.1064
-1.6879	8 3	-2.1411
-1.6494	8 4	-2.1674
-1.6681	8 5	-2.2297
-1.5891	8 6	-2.2603
-1.6493	8 7	-2.2159
-1.6590	8 8	-2.2547
-1.6881	8 9	-2.2720
-1.9069	8 :	-1.1503
-2.2436	8 ;	-0.7752
-2.6291	8 <	-0.7482
-2.6243	8 =	-0.6971
-3.4191	8 >	-0.2711
-2.4261	8 ?	-0.5264
-1.8440	8 A	-1.5605
-2.0657	8 B	-1.2016
-1.8894	8 C	-0.9992
-1.9232	8 D	-1.5992
-2.1450	8 E	-0.9524
-1.9232	8 F	-1.5815
-1.9992	8 G	-1.0976
-2.1448	8 H	-1.1742
-2.2067	8 I	-0.7270
-1.9412	8 J	-2.4426
-2.2076	8 K	-0.6391
-2.2069	8 L	-0.8062
-1.8589	8 M	-1.8054
-1.9409	8 N	-1.5520
-1.9413	8 O	-1.5933
-2.1170	8 P	-0.9031
-2.7229	8 Q	-0.6391
-2.1450	8 R	-1.0058
-1.8739	8 S	-1.6762
-2.0655	8 T	-1.0319
-2.2074	8 U	-1.0744
-2.4763	8 V	-0.6813
-2.2420	8 W	-1.3158
-2.5460	8 X	-0.2711
-3.0227	8 Y	-0.3961
-2.6257	8 Z	-0.3503
-2.7338	8 [	-0.5721
-2.2444	8 ]	-0.8274
-2.8554	8 _	-0.2711
-1.7189	8 a	-2.1738
-1.8296	8 b	-1.9970
-1.8024	8 c	-1.7482
-1.9061	8 d	-1.6459
-1.9230	8 e	-1.3726
-1.8437	8 f	-1.8955
-1.9234	8 g	-1.4350
-1.9061	8 h	-2.2435
-1.6875	8 i	-2.6594
-2.3233	8 j	-0.6691
-1.9063	8 k	-1.5604
-1.9406	8 l	-1.4207
-1.7190	8 m	-1.9116
-2.0202	8 n	-1.2564
-1.7414	8 o	-1.7462
-1.8442	8 p	-2.2319
-2.7223	8 q	-0.8152
-1.8897	8 r	-1.5499
-1.7769	8 s	-1.7500
-1.7528	8 t	-2.7616
-2.1751	8 u	-1.8274
-1.9790	8 v	-1.3236
-1.8028	8 w	-2.1872
-2.1189	8 x	-0.5551
-1.9067	8 y	-2.2373
-3.3507	8 z	-0.2711
-2.2854	8 |	-1.3503
-3.4561	8 }	-0.2711
-2.5613	8 ~	-0.6391
-1.9902	9 </s>	0.0000
-1.7231	9 <unk>	-3.5476
-1.8931	9 "	-0.9995
-3.0246	9 #	-0.2711
-1.8796	9 %	-1.3804
-2.2951	9 &	-0.5721
-2.1455	9 '	-0.7940
-1.9294	9 (	-0.8843
-1.8441	9 )	-2.2588
-2.8328	9 *	-0.2711
-2.3410	9 +	-0.6069
-1.6101	9 ,	-2.4318
-1.7354	9 -	-1.5747
-1.5671	9 .	-2.4053
-1.7865	9 /	-1.1778
-1.4993	9 0	-2.4698
-1.6287	9 1	-2.4303
-1.5839	9 2	-2.5157
-1.6384	9 3	-2.5014
-1.6483	9 4	-2.6304
-1.5840	9 5	-2.6179
-1.6197	9 6	-2.7048
-1.5757	9 7	-2.7330
-1.5930	9 8	-2.7559
-1.5758	9 9	-2.8703
-1.8149	9 :	-1.0923
-2.2140	9 ;	-0.7915
-2.2951	9 <	-1.2488
-2.5154	9 =	-0.4172
-2.5241	9 ?	-0.6513
-1.8290	9 A	-1.5917
-2.0361	9 B	-1.2534
-2.1146	9 C	-0.9856
-1.9903	9 D	-1.5050
-2.1775	9 E	-1.0635
-1.9903	9 F	-1.4504
-2.0876	9 G	-0.9701
-2.2911	9 H	-1.0972
-2.1450	9 I	-0.7104
-1.9695	9 J	-2.2773
-2.3379	9 K	-0.5721
-2.1152	9 L	-0.8208
-1.9114	9 M	-1.8607
-1.8443	9 N	-1.5731
-1.9908	9 O	-1.6242
-2.1153	9 P	-1.1162
-2.5162	9 Q	-0.5142
-2.2500	9 R	-0.9243
-1.8934	9 S	-1.5027
-2.0869	9 T	-0.9646
-2.1456	9 U	-0.9383
-2.3376	9 V	-0.6135
-2.2502	9 W	-1.2307
-2.5166	9 X	-0.4172
-2.8168	9 Y	-0.4930
-2.5166	9 Z	-0.2711
-2.8344	9 [	-0.4172
-2.1798	9 ]	-0.8995
-3.3282	9 _	-0.2711
-1.6680	9 a	-2.1683
-1.9689	9 b	-1.9214
-1.8440	9 c	-1.5016
-1.9296	9 d	-1.6819
-2.0358	9 e	-1.4554
-1.8439	9 f	-1.9307
-1.9114	9 g	-1.3664
-1.9296	9 h	-1.9675
-1.7230	9 i	-2.6223
-2.3397	9 j	-0.8354
-1.9694	9 k	-1.6898
-1.9688	9 l	-1.3365
-1.7728	9 m	-1.7741
-2.0363	9 n	-1.4234
-1.8001	9 o	-1.7482
-1.8292	9 p	-2.0151
-3.3059	9 q	-0.2711
-1.9296	9 r	-1.7305
-1.8597	9 s	-1.7234
-1.7350	9 t	-2.9221
-2.0128	9 u	-2.0787
-2.1778	9 v	-1.4249
-1.8002	9 w	-2.0520
-2.0892	9 x	-0.4984
-1.8770	9 y	-1.7934
-2.8247	9 z	-0.3961
-2.2558	9 |	-1.3125
-3.0533	9 }	-0.2711
-3.0479	9 ~	-0.2711
-1.4959	: </s>	0.0000
-1.6620	: <unk>	-3.9112
-3.0301	: !	-0.3961
-1.5594	: "	-2.2207
-2.7283	: #	-1.9022
-2.4815	: $	-0.4930
-3.0511	: %	-2.3539
-1.8682	: '	-0.7228
-2.0135	: (	-0.5434
-1.9925	: )	-0.8393
-3.0378	: *	-0.2711
-2.4739	: +	-0.7335
-2.3131	: ,	-0.4472
-2.1690	: -	-1.4428
-2.2002	: .	-0.7385
-2.3605	: /	-2.1254
-1.9006	: 0	-2.0750
-1.7025	: 1	-1.6799
-1.8100	: 2	-1.4680
-1.8102	: 3	-1.3459
-1.9176	: 4	-1.1919
-1.9535	: 5	-1.2797
-1.9355	: 6	-0.9066
-1.9175	: 7	-0.8339
-1.9939	: 8	-1.7354
-1.9734	: 9	-0.9463
-2.2746	: :	-0.4582
-2.6184	: ;	-0.3503
-2.1414	: <	-1.2711
-2.7138	: =	-0.2711
-3.0578	: >	-0.2711
-3.0431	: ?	-0.2711
-3.5170	: @	-0.2711
-1.5994	: A	-1.4734
-1.7243	: B	-1.5925
-1.6817	: C	-1.5002
-1.7712	: D	-1.2825
-1.7968	: E	-1.2615
-1.7967	: F	-1.4246
-1.8103	: G	-1.4782
-1.7967	: H	-1.5658
-1.7711	: I	-1.2456
-1.8841	: J	-1.4131
-1.7970	: K	-1.0665
-1.7712	: L	-1.7380
-1.7357	: M	-1.5459
-1.7590	: N	-1.4270
-1.7970	: O	-1.0514
-1.6527	: P	-1.4742
-2.3621	: Q	-0.7482
-1.7472	: R	-1.5404
-1.6341	: S	-1.6067
-1.5750	: T	-1.9257
-1.8103	: U	-1.0930
-1.8530	: V	-1.2610
-1.7244	: W	-1.4158
-2.4718	: X	-0.3680
-2.0145	: Y	-0.9130
-2.2751	: Z	-0.6468
-2.2408	: [	-1.0786
-3.4516	: \	-0.4930
-3.0237	: ]	-0.2711
-3.4653	: ^	-0.2711
-1.7587	: a	-1.5829
-1.9724	: b	-1.5599
-1.8835	: c	-1.9499
-1.9000	: d	-1.1604
-1.9346	: e	-1.1540
-1.8524	: f	-1.7812
-2.2733	: g	-1.3503
-1.8527	: h	-2.0047
-1.8235	: i	-1.8121
-2.4140	: j	-0.6691
-2.2356	: k	-0.7482
-2.0357	: l	-1.7200
-1.9346	: m	-1.6328
-2.0846	: n	-1.3318
-1.8838	: o	-1.4579
-1.8240	: p	-1.4374
-2.5381	: q	-0.7482
-2.0138	: r	-1.4068
-1.8524	: s	-1.6579
-1.6340	: t	-2.5028
-2.1688	: u	-1.1919
-2.0365	: v	-1.1742
-1.9535	: w	-1.5240
-2.6204	: x	-0.5344
-2.2742	: y	-1.1057
-2.6209	: z	-0.4172
-2.6444	: {	-0.6233
-2.7270	: |	-0.6179
-3.4449	: }	-1.7335
-3.0689	: ~	-0.2711
-1.6133	; </s>	0.0000
-1.8253	; <unk>	-2.4295
-1.6334	; "	-1.6489
-3.3354	; #	-0.2711
-2.3647	; $	-0.5264
-2.7941	; &	-0.2711
-2.2162	; '	-0.3738
-2.0805	; (	-0.5721
-2.3025	; )	-0.6069
-2.9872	; *	-0.2711
-2.6650	; +	-0.6135
-2.4111	; ,	-0.3680
-2.3551	; -	-0.5142
-2.3025	; .	-0.5344
-2.1785	; /	-0.7048
-2.5610	; 0	-0.4172
-1.6770	; 1	-1.3550
-1.7517	; 2	-1.1027
-1.8954	; 3	-0.7422
-2.0536	; 4	-0.4260
-2.0020	; 5	-0.5473
-1.9789	; 6	-0.5178
-2.1116	; 7	-0.5178
-2.1125	; 8	-0.4582
-2.1121	; 9	-0.4867
-2.9673	; :	-0.7482
-2.4831	; ;	-0.5400
-2.1811	; <	-1.5933
-2.8035	; ?	-0.2711
-1.6886	; A	-1.2967
-1.7798	; B	-1.1703
-1.6768	; C	-1.1354
-1.7517	; D	-1.1651
-1.8953	; E	-0.6944
-1.7517	; F	-1.2923
-1.7657	; G	-1.3715
-1.7254	; H	-1.3403
-1.7797	; I	-0.9066
-1.7130	; J	-1.6010
-1.9787	; K	-1.0193
-1.8419	; L	-1.3543
-1.7255	; M	-1.5085
-1.8419	; N	-1.3081
-1.8956	; O	-0.8732
-1.7255	; P	-1.3977
-2.5628	; Q	-0.6691
-1.9561	; R	-1.0058
-1.6770	; S	-1.3961
-1.7796	; T	-1.3064
-1.9786	; U	-0.7068
-2.1114	; V	-0.9339
-1.9785	; W	-1.0907
-3.2849	; X	-0.2711
-2.2583	; Y	-0.6513
-2.6615	; Z	-0.3961
-2.9896	; [	-0.2711
-3.4048	; \	-0.2711
-2.2604	; ]	-0.9146
-3.3019	; _	-0.2711
-1.5163	; a	-2.0823
-1.5578	; b	-2.2861
-1.7004	; c	-1.5743
-1.7005	; d	-2.0115
-1.8950	; e	-1.2393
-1.6546	; f	-2.1727
-2.0813	; g	-0.9942
-1.6233	; h	-2.3792
-1.5664	; i	-2.3268
-2.3058	; j	-0.6391
-2.2162	; k	-0.8451
-1.8253	; l	-2.3517
-1.7004	; m	-2.1939
-1.8769	; n	-1.4508
-1.6336	; o	-1.6821
-1.7946	; p	-1.8612
-2.7873	; q	-0.7482
-1.8589	; r	-1.2871
-1.6546	; s	-1.7981
-1.5407	; t	-2.8761
-1.9785	; u	-1.2333
-2.1114	; v	-1.0493
-1.7255	; w	-2.4244
-2.1119	; y	-1.4886
-2.6644	; z	-2.0015
-2.4800	< </s>	0.0000
-1.6229	< <unk>	-1.1742
-2.1454	< !	-0.2711
-1.8056	< "	-0.2711
-2.1287	< (	-0.3680
-1.9385	< )	-0.4472
-1.9376	< ,	-0.3961
-2.1332	< -	-0.5721
-1.9385	< .	-0.2711
-0.8585	< /	-2.8065
-2.4902	< 0	-0.2711
-1.8067	< 1	-0.4930
-2.1302	< 2	-0.2711
-1.7063	< 3	-0.2711
-2.4850	< 5	-0.2711
-2.1385	< ;	-0.2711
-2.5548	< >	-0.2711
-2.5334	< ?	-0.2711
-2.1886	< @	-0.5721
-2.4817	< B	-0.2711
-1.9376	< C	-0.7482
-2.4817	< D	-0.5721
-2.4867	< G	-0.2711
-1.9395	< H	-0.6391
-2.4800	< I	-0.2711
-2.4817	< L	-0.5721
-2.4800	< S	-0.2711
-2.4783	< T	-0.2711
-2.4867	< V	-0.2711
-1.9376	< a	-0.2711
-0.5625	< b	-3.3297
-1.4422	< c	-1.0493
-2.4800	< d	-0.2711
-2.4750	< f	-1.1162
-1.7054	< h	-0.9913
-1.8056	< i	-2.5278
-2.4850	< k	-0.2711
-2.1287	< l	-0.7482
-1.8063	< m	-0.7763
-1.5550	< n	-1.0193
-1.9395	< o	-2.0670
-1.7063	< p	-1.5422
-2.4953	< q	-0.2711
-1.3536	< r	-2.0670
-1.3149	< s	-1.5142
-1.5540	< t	-1.0035
-2.4850	< u	-0.8152
-2.4867	< v	-0.2711
-2.1325	< w	-0.2711
-2.1416	< x	-0.2711
-2.1525	< |	-0.5721
-1.6205	= </s>	0.0000
-1.6782	= <unk>	-2.0972
-1.5381	= "	-1.8604
-2.5524	= $	-0.3961
-3.0876	= %	-1.0840
-1.8273	= &	-0.8732
-2.1561	= '	-0.3125
-2.0000	= (	-0.6002
-2.5215	= )	-0.3803
-3.0603	= *	-0.7482
-2.5355	= +	-0.3961
-2.2996	= ,	-0.5721
-2.2235	= -	-0.3583
-2.0459	= .	-0.7104
-2.7022	= /	-0.2711
-1.5241	= 0	-0.9643
-1.2932	= 1	-1.1260
-1.4325	= 2	-1.0564
-1.5096	= 3	-0.7660
-1.6033	= 4	-0.7211
-1.6030	= 5	-0.6313
-1.6792	= 6	-0.5198
-1.7002	= 7	-0.5238
-1.7009	= 8	-0.5599
-1.9228	= 9	-0.4556
-3.0223	= ;	-0.5721
-3.0396	= <	-0.2711
-2.1578	= =	-0.5473
-3.1019	= >	-0.2711
-1.7453	= A	-1.1742
-1.8868	= B	-0.5344
-1.7960	= C	-0.4649
-2.0006	= D	-0.6179
-1.9595	= E	-0.4630
-2.2223	= F	-0.4058
-1.8251	= G	-1.8764
-2.1555	= H	-0.4472
-2.5222	= I	-0.2711
-2.7022	= J	-0.3291
-2.2239	= K	-0.3033
-2.2223	= L	-1.3125
-1.7969	= M	-0.6233
-1.8246	= N	-0.6581
-2.0016	= O	-0.7183
-1.6998	= P	-1.5499
-2.4035	= Q	-0.3680
-2.3019	= R	-0.7684
-1.9213	= S	-0.7940
-1.8864	= T	-1.2534
-2.1564	= U	-0.4602
-2.3028	= V	-0.4930
-2.0469	= W	-1.3991
-2.4041	= X	-0.9701
-2.0989	= Y	-0.3961
-3.0223	= Z	-0.2711
-2.2329	= [	-0.3503
-3.0321	= ]	-0.8732
-2.5363	= _	-0.2711
-1.6993	= a	-0.8632
-1.8543	= b	-0.7360
-1.7699	= c	-0.6513
-1.7965	= d	-0.5721
-2.2216	= e	-0.8047
-1.6202	= f	-1.5016
-1.8871	= g	-0.9373
-1.7965	= h	-0.4975
-2.0454	= i	-0.3961
-2.4046	= j	-0.2711
-2.2231	= k	-0.3851
-1.9209	= l	-0.8274
-1.7963	= m	-0.6786
-1.7457	= n	-0.5487
-1.9215	= o	-1.1935
-1.7706	= p	-0.7135
-2.1581	= q	-0.4224
-1.9213	= r	-0.6343
-1.8240	= s	-0.7979
-1.6580	= t	-0.6971
-2.2231	= u	-0.5499
-2.1564	= v	-0.4630
-1.7969	= w	-0.5721
-2.1601	= x	-0.3759
-2.3042	= y	-0.3583
-2.7164	= z	-0.3961
-2.3306	= {	-0.6513
-2.7322	= |	-0.2711
-2.5616	= ~	-0.4472
-1.2530	> </s>	0.0000
-1.9346	> <unk>	-1.5016
-1.6301	> "	-0.4649
-2.6431	> %	-0.5721
-2.2473	> '	-0.2711
-2.0618	> (	-0.3554
-1.8368	> )	-0.2711
-2.6187	> *	-0.2711
-2.5978	> +	-0.4930
-1.4530	> ,	-0.4037
-1.2765	> .	-0.8451
-1.7590	> 0	-0.5721
-1.4535	> 1	-0.4930
-1.6308	> 2	-0.4794
-1.6902	> 3	-0.2711
-1.9386	> 4	-0.5016
-2.0651	> 5	-0.7482
-2.2513	> 6	-0.2711
-2.5714	> 7	-0.2711
-2.5844	> 8	-0.2711
-2.0684	> 9	-0.4472
-1.9401	> :	-0.2711
-2.5844	> ;	-0.2711
-1.6353	> <	-2.6214
-2.5779	> =	-0.2711
-1.7570	> A	-0.7219
-1.5334	> B	-0.9362
-1.7560	> C	-0.7183
-1.6896	> D	-0.7318
-1.9366	> E	-0.6179
-1.8376	> F	-0.9312
-2.0657	> G	-0.7482
-1.6311	> H	-1.1584
-1.6308	> I	-0.9701
-2.2483	> J	-0.7482
-2.2493	> K	-0.5721
-1.9361	> L	-0.9401
-1.9371	> M	-2.6067
-1.8376	> N	-0.7830
-1.7587	> O	-0.6069
-1.9366	> P	-0.5473
-2.5822	> Q	-0.5721
-1.7577	> R	-0.7940
-1.8372	> S	-1.0006
-1.4533	> T	-1.2193
-2.0657	> U	-0.9701
-2.0657	> V	-0.4752
-2.2473	> W	-0.8152
-2.5736	> Y	-0.3961
-2.5844	> Z	-0.2711
-2.6235	> [	-0.2711
-2.2627	> _	-0.2711
-1.5786	> a	-0.7482
-1.9351	> b	-0.4930
-1.8364	> c	-0.5721
-2.0631	> d	-0.6391
-2.5588	> e	-0.2711
-1.9341	> f	-0.6391
-2.5672	> g	-0.7482
-1.8372	> h	-0.4752
-1.4910	> i	-0.9146
-2.2473	> k	-0.4472
-2.2423	> l	-0.2711
-1.8368	> m	-0.8732
-2.5672	> n	-0.2711
-1.8376	> o	-0.6135
-1.6316	> p	-1.6480
-2.0631	> r	-0.7482
-1.9341	> s	-0.4674
-1.9346	> t	-0.9478
-2.0657	> v	-0.5721
-2.2473	> w	-0.8732
-2.6259	> |	-0.5721
-1.1729	? </s>	0.0000
-1.4133	? <unk>	-2.0035
-1.6174	? !	-0.6902
-1.1597	? "	-1.4008
-2.7694	? &	-0.2711
-1.5473	? '	-0.5721
-1.5466	? (	-0.3583
-1.2938	? )	-0.8263
-1.4617	? ,	-0.4024
-1.5474	? -	-0.5885
-1.6940	? .	-0.6565
-1.7412	? /	-0.4930
-2.7438	? 0	-0.2711
-1.9992	? 1	-0.3803
-2.2283	? 5	-0.2711
-2.7459	? 6	-0.2711
-2.7501	? :	-0.2711
-2.2334	? ;	-0.7482
-2.2379	? <	-0.5721
-2.2315	? =	-0.5721
-2.8232	? >	-0.2711
-1.6997	? ?	-0.7896
-1.4371	? A	-0.6581
-1.7406	? B	-0.8354
-2.2245	? C	-0.5142
-1.9996	? D	-0.6971
-1.9193	? E	-0.5142
-1.9996	? F	-0.4472
-1.9190	? H	-0.5721
-1.4371	? I	-0.9787
-2.7397	? J	-0.2711
-2.1005	? K	-0.3961
-1.8510	? L	-0.5264
-2.0003	? M	-0.5721
-1.9996	? N	-0.6691
-1.8521	? O	-0.6691
-1.9193	? P	-0.5721
-2.7356	? R	-0.2711
-1.8508	? S	-0.5985
-1.3698	? T	-1.4614
-2.7397	? V	-0.2711
-1.5797	? W	-1.0345
-1.9205	? Y	-0.5721
-2.7920	? [	-0.2711
-2.4240	? ]	-0.4472
-2.7694	? _	-0.2711
-1.6519	? a	-0.5721
-2.0976	? b	-0.2711
-1.9984	? c	-0.8732
-2.2264	? d	-0.3961
-2.4084	? e	-0.2711
-2.4065	? f	-0.2711
-2.4122	? g	-0.2711
-2.4093	? h	-0.8732
-1.4368	? i	-2.1742
-2.7376	? k	-0.2711
-2.4074	? l	-0.4472
-2.4084	? m	-0.7482
-2.0003	? n	-0.5264
-2.4103	? o	-0.2711
-1.6947	? p	-0.4930
-2.2264	? r	-1.2254
-1.7397	? s	-0.6233
-1.9984	? t	-0.5344
-2.7376	? u	-0.2711
-2.1000	? v	-0.9079
-2.0995	? w	-0.9701
-2.7629	? x	-0.2711
-2.7459	? y	-0.2711
-1.6380	@ </s>	0.0000
-1.6349	@ "	-0.2711
-1.6370	@ )	-0.2711
-1.6349	@ ,	-0.2711
-1.6443	@ 0	-0.2711
-1.6380	@ 2	-0.2711
-1.2416	@ 5	-0.2711
-1.6464	@ 9	-0.2711
-1.6827	@ >	-0.2711
-1.6391	@ B	-0.2711
-1.6349	@ C	-0.7482
-1.6380	@ I	-0.2711
-1.2408	@ L	-0.5721
-1.6412	@ M	-0.5721
-1.6391	@ N	-0.2711
-1.6401	@ R	-0.2711
-1.6370	@ T	-0.2711
-1.6370	@ b	-0.2711
-1.6360	@ c	-0.5721
-1.6380	@ d	-0.2711
-1.6380	@ h	-0.2711
-1.6360	@ l	-0.2711
-1.6370	@ m	-0.2711
-1.2404	@ r	-0.2711
-1.6349	@ s	-0.2711
-1.6412	@ u	-0.2711
-2.1194	A </s>	0.0000
-1.9433	A <unk>	-2.8622
-2.9736	A !	-0.3961
-1.9038	A "	-1.3353
-2.9804	A #	-0.9243
-2.4265	A $	-0.7625
-3.3039	A %	-0.5721
-2.1367	A &	-1.3680
-1.9436	A '	-1.3098
-2.0350	A (	-0.9390
-1.8343	A )	-1.7227
-2.4244	A *	-0.8318
-2.7258	A +	-0.4472
-1.7885	A ,	-1.4825
-1.8345	A -	-1.2991
-1.7217	A .	-1.9276
-2.1866	A /	-0.6363
-2.3366	A 0	-0.6391
-1.9434	A 1	-1.1742
-1.9869	A 2	-1.1124
-2.0353	A 3	-1.5439
-2.1691	A 4	-0.7746
-2.4204	A 5	-0.7342
-2.3911	A 6	-0.7426
-2.4529	A 7	-0.6051
-2.4540	A 8	-0.5374
-2.3632	A 9	-0.5308
-2.1359	A :	-1.1328
-2.3373	A ;	-0.4630
-2.7938	A <	-1.4172
-2.4535	A =	-1.4450
-3.6613	A >	-0.5721
-1.7815	A A	-1.6906
-1.8034	A B	-1.6135
-1.7813	A C	-1.7333
-1.7815	A D	-1.6783
-1.9870	A E	-1.2830
-1.8109	A F	-1.6132
-1.8509	A G	-1.2905
-1.8264	A H	-1.4291
-1.8678	A I	-1.5365
-2.0755	A J	-1.1036
-1.9649	A K	-0.9976
-1.8508	A L	-1.4006
-1.7540	A M	-1.5166
-1.8508	A N	-1.4492
-1.9649	A O	-1.1940
-1.7887	A P	-1.4053
-2.2453	A Q	-0.6658
-1.8110	A R	-1.6191
-1.7675	A S	-1.7898
-1.7959	A T	-1.7042
-1.9541	A U	-1.0700
-1.9541	A V	-1.0377
-1.9871	A W	-1.6993
-2.2454	A X	-0.9974
-2.1868	A Y	-0.6927
-2.1696	A Z	-0.8530
-3.1081	A [	-0.3961
-2.9705	A ]	-0.2711
-3.7190	A ^	-0.2711
-3.5972	A _	-0.2711
-1.7472	A a	-2.0418
-1.6860	A b	-2.7008
-1.6917	A c	-2.9362
-1.7095	A d	-2.6512
-1.8507	A e	-1.8991
-1.7094	A f	-3.1757
-1.8265	A g	-2.4566
-1.7815	A h	-1.9903
-1.6859	A i	-2.6464
-1.9876	A j	-1.7000
-1.8948	A k	-1.8790
-1.6530	A l	-3.0462
-1.6637	A m	-3.1378
-1.6861	A n	-2.9906
-1.8592	A o	-1.4961
-1.7036	A p	-3.0382
-2.0358	A q	-2.4897
-1.6692	A r	-3.1474
-1.6691	A s	-2.7862
-1.6860	A t	-2.6661
-1.6919	A u	-3.1363
-1.7746	A v	-2.4702
-1.7096	A w	-2.8301
-2.0626	A x	-1.6147
-2.0486	A y	-1.8026
-1.9548	A z	-2.3513
-3.1089	A |	-0.6233
-3.6989	A }	-0.2711
-3.3214	A ~	-0.4472
-2.1334	B </s>	0.0000
-1.7454	B <unk>	-3.2438
-3.1075	B !	-0.3961
-1.8089	B "	-1.0686
-3.1213	B #	-0.2711
-3.4780	B $	-0.2711
-2.2454	B &	-0.7104
-1.9419	B '	-0.8732
-1.8325	B (	-0.5944
-1.6647	B )	-1.3426
-2.9297	B *	-0.5721
-2.5485	B +	-0.4930
-1.6646	B ,	-1.0773
-1.6732	B -	-1.2918
-1.5761	B .	-1.6283
-2.5441	B /	-1.0626
-2.2434	B 0	-1.0295
-1.8975	B 1	-0.9503
-1.9264	B 2	-0.8963
-2.1849	B 3	-0.5721
-2.2756	B 4	-0.7482
-2.3098	B 5	-0.5441
-2.3106	B 6	-0.5308
-2.3102	B 7	-0.3437
-2.6935	B 8	-0.3291
-2.4873	B 9	-0.5400
-2.2139	B :	-0.4472
-2.6935	B ;	-0.2711
-3.1050	B <	-1.0493
-2.6921	B =	-0.3381
-3.4868	B >	-0.5721
-3.4554	B ?	-0.2711
-1.5761	B A	-1.7301
-1.6566	B B	-1.7125
-1.6330	B C	-2.1146
-1.7762	B D	-1.0996
-1.7263	B E	-1.4460
-1.9909	B F	-0.7900
-2.1339	B G	-0.8378
-2.0666	B H	-0.6769
-1.8448	B I	-1.2317
-2.1104	B J	-0.5824
-1.8979	B K	-0.7632
-1.7762	B L	-0.9724
-1.7359	B M	-1.2931
-1.9909	B N	-1.3365
-1.8329	B O	-1.1025
-1.8839	B P	-0.9701
-2.6930	B Q	-0.3961
-1.6901	B R	-1.1422
-1.6647	B S	-1.6119
-1.8448	B T	-1.0946
-1.9912	B U	-0.6661
-2.0090	B V	-0.8425
-2.0273	B W	-0.8781
-2.6138	B X	-0.4260
-2.0884	B Y	-0.6603
-2.1597	B Z	-0.7128
-3.4500	B [	-0.2711
-3.5304	B \	-0.2711
-3.4160	B ]	-0.2711
-2.9232	B _	-0.2711
-1.4699	B a	-3.1918
-1.9574	B b	-0.8354
-1.8447	B c	-1.3390
-2.0086	B d	-1.1832
-1.5025	B e	-3.0017
-1.8572	B f	-1.2585
-2.2750	B g	-0.9767
-1.7077	B h	-1.9804
-1.5316	B i	-2.7890
-1.8846	B j	-1.5992
-2.5437	B k	-0.4172
-1.5629	B l	-3.3386
-1.9574	B m	-1.6621
-2.2429	B n	-0.9243
-1.4970	B o	-2.9328
-2.2129	B p	-1.2005
-2.9160	B q	-0.5721
-1.5198	B r	-3.3247
-1.8205	B s	-1.4684
-1.8702	B t	-1.1214
-1.5141	B u	-2.9520
-2.2131	B v	-0.9243
-1.7659	B w	-1.2254
-2.4378	B x	-0.6813
-1.7361	B y	-2.0815
-2.7943	B z	-0.5721
-3.4527	B |	-0.2711
-2.1603	C </s>	0.0000
-1.8105	C <unk>	-3.4980
-1.9027	C "	-1.0237
-2.3740	C #	-0.5294
-2.5901	C $	-0.5721
-3.2222	C %	-0.2711
-2.0863	C &	-1.3247
-1.9388	C '	-1.5807
-1.8698	C (	-1.2046
-1.7667	C )	-1.7890
-3.5403	C *	-0.2711
-2.1835	C +	-1.0645
-1.7118	C ,	-1.5568
-1.7840	C -	-1.3904
-1.6567	C .	-2.0796
-2.0206	C /	-1.0465
-2.4421	C 0	-0.5308
-2.0055	C 1	-1.0680
-1.9386	C 2	-0.9329
-2.1027	C 3	-0.6861
-2.1030	C 4	-0.9485
-2.2788	C 5	-0.7482
-2.2046	C 6	-0.8179
-2.3371	C 7	-0.6593
-2.3080	C 8	-0.7012
-2.5812	C 9	-0.5264
-2.2049	C :	-0.6786
-2.3381	C ;	-0.7378
-3.0176	C <	-1.1162
-2.3076	C =	-0.6932
-3.5822	C >	-0.2711
-3.5511	C ?	-0.2711
-1.6766	C A	-1.6905
-1.7346	C B	-1.7461
-1.7423	C C	-1.5239
-1.6503	C D	-1.5885
-1.7346	C E	-1.5472
-1.7926	C F	-1.2772
-1.8701	C G	-0.9826
-1.7668	C H	-1.3306
-1.7838	C I	-1.4566
-2.0206	C J	-0.6748
-2.0206	C K	-0.8547
-1.8595	C L	-1.4695
-1.8108	C M	-1.3361
-1.8200	C N	-1.3503
-1.6976	C O	-1.6440
-1.7270	C P	-1.5066
-2.2285	C Q	-0.6762
-1.8808	C R	-1.3958
-1.7838	C S	-1.4427
-1.7751	C T	-1.3439
-1.9147	C U	-0.9678
-1.9032	C V	-0.9028
-1.9644	C W	-1.5614
-2.3080	C X	-0.8892
-2.2280	C Y	-0.6286
-2.1413	C Z	-0.7034
-3.2121	C [	-0.2711
-3.5119	C ]	-0.2711
-3.1997	C _	-0.2711
-1.5533	C a	-3.3855
-1.9912	C b	-1.4722
-1.9511	C c	-1.6457
-1.9775	C d	-1.2665
-1.6135	C e	-2.7635
-1.9262	C f	-1.7290
-2.0849	C g	-1.0244
-1.5637	C h	-3.6417
-1.5962	C i	-2.8181
-2.5824	C j	-0.5344
-2.7047	C k	-0.5721
-1.6135	C l	-2.8762
-1.9144	C m	-1.7782
-1.9915	C n	-1.4698
-1.5433	C o	-3.4459
-1.9777	C p	-1.5995
-3.1889	C q	-0.5721
-1.5963	C r	-3.0243
-1.7750	C s	-1.6335
-1.8294	C t	-1.8723
-1.6255	C u	-2.6989
-2.2277	C v	-1.3255
-1.8108	C w	-1.8571
-3.5119	C x	-0.2711
-1.7841	C y	-2.1567
-1.9274	C z	-2.5077
-3.0265	C |	-0.7482
-2.1489	D </s>	0.0000
-1.7231	D <unk>	-3.2424
-3.1230	D !	-0.8152
-1.8601	D "	-0.9823
-2.9494	D #	-0.2711
-2.8232	D $	-0.5473
-3.1432	D %	-0.5721
-2.3663	D &	-0.5956
-1.8483	D '	-1.3563
-1.9128	D (	-0.8193
-1.7142	D )	-1.5009
-3.4601	D *	-0.2711
-2.4538	D +	-0.4308
-1.7054	D ,	-1.3255
-1.7145	D -	-1.1822
-1.6563	D .	-1.8913
-2.2005	D /	-0.8002
-2.4051	D 0	-0.5229
-2.0063	D 1	-0.9388
-2.0618	D 2	-0.8152
-2.1035	D 3	-0.7817
-2.2008	D 4	-0.7034
-2.4502	D 5	-0.7684
-2.3261	D 6	-0.6117
-2.7062	D 7	-0.5721
-2.2297	D 8	-0.5915
-2.8050	D 9	-0.4472
-2.2013	D :	-0.6822
-2.7090	D ;	-0.6135
-3.1205	D <	-0.5721
-2.6281	D =	-0.5721
-3.5023	D >	-0.2711
-3.4709	D ?	-0.5721
-1.7232	D A	-1.2063
-1.8134	D B	-0.9966
-1.6640	D C	-1.4406
-1.7418	D D	-1.1271
-1.6642	D E	-1.2989
-1.7610	D F	-1.0899
-2.0067	D G	-0.8909
-1.9730	D H	-0.9790
-1.7812	D I	-1.2431
-1.8732	D J	-1.0968
-2.0068	D K	-0.7330
-1.8247	D L	-1.0970
-1.7419	D M	-1.0767
-1.7233	D N	-1.8718
-1.7712	D O	-1.1394
-1.8025	D P	-1.2545
-2.7085	D Q	-0.2711
-1.8025	D R	-1.0860
-1.6969	D S	-1.5612
-1.7916	D T	-1.0733
-2.0067	D U	-1.0695
-1.6887	D V	-1.7974
-1.9732	D W	-0.6313
-2.0251	D X	-0.5637
-2.4509	D Y	-0.4930
-2.3269	D Z	-0.5016
-3.4655	D [	-0.2711
-2.9363	D ]	-0.2711
-3.1205	D _	-0.5721
-1.5068	D a	-2.8832
-1.9729	D b	-1.1244
-1.9271	D c	-1.7441
-1.9729	D d	-1.3645
-1.4960	D e	-3.0344
-1.8360	D f	-1.4217
-2.2584	D g	-1.1488
-1.7324	D h	-2.0136
-1.5014	D i	-2.8504
-1.9139	D j	-1.9843
-2.6261	D k	-0.2711
-2.1486	D l	-1.5721
-1.7916	D m	-2.0115
-2.0066	D n	-1.1664
-1.5125	D o	-2.7199
-2.0428	D p	-1.4979
-3.1096	D q	-0.5721
-1.5533	D r	-2.5316
-1.7708	D s	-1.5779
-1.9728	D t	-1.5108
-1.5595	D u	-2.8026
-1.8995	D v	-1.5881
-1.7056	D w	-1.8707
-3.4315	D x	-0.2711
-1.8251	D y	-2.1321
-2.0256	D z	-1.0432
-3.5267	D ~	-0.2711
-2.2204	E </s>	0.0000
-2.0036	E <unk>	-2.0193
-2.3080	E !	-0.7391
-2.0035	E "	-1.1040
-2.8665	E #	-0.6691
-2.8588	E &	-0.7104
-2.0710	E '	-1.3884
-1.9068	E (	-1.1561
-1.8277	E )	-1.4493
-3.5124	E *	-0.7482
-3.1687	E +	-0.2711
-1.7881	E ,	-1.2152
-1.7980	E -	-1.0200
-1.6380	E .	-1.7225
-2.1961	E /	-0.5142
-2.6748	E 0	-0.6861
-2.1287	E 1	-0.7482
-2.1287	E 2	-0.6618
-2.0362	E 3	-0.7800
-2.1294	E 4	-0.4707
-2.4515	E 5	-0.4472
-2.4524	E 6	-0.4338
-2.2755	E 7	-0.6099
-2.3388	E 8	-0.8585
-2.6082	E 9	-0.6391
-2.3734	E :	-0.8509
-2.4993	E ;	-0.3223
-3.4919	E <	-0.5721
-2.3732	E =	-0.8884
-3.6579	E @	-0.2711
-1.8175	E A	-1.2739
-1.9070	E B	-0.9151
-1.6800	E C	-1.6169
-1.7883	E D	-1.2805
-1.7790	E E	-1.2573
-1.8490	E F	-1.4894
-2.0041	E G	-0.9432
-2.0708	E H	-1.0628
-1.9324	E I	-1.0129
-2.3054	E J	-0.4124
-2.2211	E K	-0.5499
-1.8278	E L	-1.1557
-1.7609	E M	-1.3424
-1.8278	E N	-1.2277
-2.0364	E O	-1.1287
-1.6876	E P	-1.4612
-2.5505	E Q	-0.4752
-1.7521	E R	-1.2513
-1.7520	E S	-1.6310
-1.7520	E T	-1.2623
-1.8830	E U	-1.0930
-1.9197	E V	-0.8775
-2.0198	E W	-1.1242
-1.9202	E X	-0.9153
-2.3057	E Y	-0.5970
-2.2765	E Z	-0.6813
-3.5177	E [	-0.2711
-3.4844	E ]	-0.2711
-3.1699	E _	-0.2711
-1.6058	E a	-3.1508
-1.8075	E b	-1.6971
-1.6728	E c	-2.3635
-1.6185	E d	-2.4258
-1.8598	E e	-1.2097
-1.7787	E f	-1.8509
-1.7435	E g	-2.4031
-1.8712	E h	-1.3602
-1.6515	E i	-2.1921
-2.1972	E j	-1.0635
-2.0198	E k	-1.0735
-1.5817	E l	-2.4535
-1.6184	E m	-2.6280
-1.5938	E n	-3.0434
-1.8382	E o	-1.5044
-1.7107	E p	-2.2381
-1.9464	E q	-2.3566
-1.6657	E r	-2.3247
-1.6248	E s	-2.3276
-1.7027	E t	-2.0222
-1.6382	E u	-2.9256
-1.6877	E v	-2.8420
-1.8077	E w	-1.7843
-1.6591	E x	-2.4936
-1.9463	E y	-1.8089
-2.0051	E z	-1.2657
-3.5204	E |	-0.2711
-2.6335	F </s>	0.0000
-1.7538	F <unk>	-3.0557
-1.9531	F "	-0.8285
-2.5667	F #	-0.4472
-3.4245	F $	-0.2711
-3.4188	F %	-0.2711
-3.3704	F &	-0.2711
-2.1578	F '	-1.1819
-1.8863	F (	-0.8321
-1.7316	F )	-1.5659
-2.8750	F *	-0.8732
-2.7401	F +	-0.2711
-1.7772	F ,	-0.8609
-1.7318	F -	-1.0308
-1.5555	F .	-1.8360
-2.1035	F /	-0.9701
-2.2204	F 0	-1.4087
-1.7209	F 1	-1.1834
-1.8423	F 2	-0.8152
-1.9536	F 3	-0.8220
-1.9539	F 4	-0.8337
-2.1034	F 5	-0.6861
-2.1303	F 6	-0.6021
-2.4894	F 7	-0.4472
-2.3817	F 8	-0.3680
-2.6372	F 9	-0.7104
-2.6377	F :	-0.4752
-2.6386	F ;	-1.5904
-3.3704	F <	-0.5721
-2.6372	F =	-1.4172
-3.4332	F >	-0.2711
-3.5391	F @	-0.2711
-1.5703	F A	-1.7122
-1.7655	F B	-1.3225
-1.5854	F C	-1.6068
-1.8566	F D	-1.0727
-1.7775	F E	-0.8622
-1.7896	F F	-1.1894
-1.9026	F G	-0.8574
-1.8713	F H	-0.7940
-1.5703	F I	-1.7436
-2.4311	F J	-0.5344
-1.9027	F K	-0.9189
-1.7210	F L	-1.5342
-1.6806	F M	-0.9438
-1.9534	F N	-0.7877
-1.7319	F O	-1.0849
-1.8153	F P	-0.9624
-2.5584	F Q	-0.3291
-1.7105	F R	-1.1211
-1.6805	F S	-1.0964
-1.8564	F T	-1.3840
-1.9360	F U	-0.8732
-2.1299	F V	-0.6543
-1.9914	F W	-0.9586
-1.9544	F X	-0.7285
-2.5569	F Y	-0.3381
-2.5588	F Z	-0.4752
-3.3966	F [	-0.2711
-3.0471	F ]	-0.4472
-3.3704	F _	-0.2711
-1.4586	F a	-2.8561
-2.0546	F b	-0.9401
-2.0111	F c	-0.9339
-2.1872	F d	-0.8152
-1.4886	F e	-2.8495
-1.9354	F f	-1.1403
-2.5557	F g	-0.6513
-1.9022	F h	-1.1420
-1.4252	F i	-2.8124
-2.0797	F j	-0.9823
-3.0328	F k	-0.4472
-1.5208	F l	-3.2316
-1.9185	F m	-1.1048
-2.5557	F n	-0.7482
-1.4362	F o	-3.1462
-2.1297	F p	-0.8304
-3.3481	F q	-0.2711
-1.4307	F r	-3.6408
-1.7772	F s	-1.0281
-1.8711	F t	-1.1462
-1.5415	F u	-2.2971
-2.5561	F v	-0.3503
-1.8867	F w	-1.4829
-3.3629	F x	-0.2711
-1.9028	F y	-1.1969
-3.0483	F z	-0.2711
-3.3993	F |	-0.5721
-2.2818	G </s>	0.0000
-1.6988	G <unk>	-3.2650
-3.3829	G !	-0.2711
-1.9242	G "	-0.8693
-2.7402	G #	-0.3680
-2.8626	G &	-0.2711
-2.1190	G '	-0.8509
-1.9072	G (	-0.5909
-1.7424	G )	-1.1482
-1.7092	G ,	-1.0145
-1.7203	G -	-1.2386
-1.6319	G .	-1.3421
-2.4801	G /	-0.2711
-2.6284	G 0	-0.4172
-2.0674	G 1	-0.5834
-2.0438	G 2	-0.5458
-2.0926	G 3	-0.9062
-2.0445	G 4	-0.9969
-2.3699	G 5	-0.4472
-2.4224	G 6	-0.6565
-2.3244	G 7	-0.7025
-2.1784	G 8	-0.8871
-2.5490	G 9	-0.5721
-2.8561	G :	-0.2711
-3.0402	G ;	-0.2711
-3.3781	G <	-0.8732
-2.5490	G =	-1.7434
-1.6887	G A	-1.2373
-1.7202	G B	-1.3378
-1.6499	G C	-1.2791
-1.7782	G D	-1.3056
-1.7202	G E	-0.8977
-1.7908	G F	-1.1450
-1.9804	G G	-0.5326
-1.8911	G H	-0.8403
-1.7311	G I	-1.0361
-2.3242	G J	-0.4260
-2.0221	G K	-0.4308
-1.8172	G L	-1.0023
-1.6320	G M	-1.2950
-1.7541	G N	-1.2991
-1.8313	G O	-0.8110
-1.6062	G P	-1.4307
-2.4819	G Q	-0.6391
-1.7541	G R	-1.0736
-1.6989	G S	-1.0097
-1.7093	G T	-0.8231
-1.9248	G U	-0.8465
-2.1473	G V	-0.6649
-1.7661	G W	-0.8089
-2.4235	G X	-0.4630
-2.7267	G Y	-0.3680
-2.4822	G Z	-0.4674
-1.4469	G a	-2.8857
-1.9421	G b	-0.8995
-2.1464	G c	-1.0840
-1.8452	G d	-1.1941
-1.4355	G e	-3.2322
-1.9605	G f	-0.9981
-2.4214	G g	-0.6861
-1.6409	G h	-2.2758
-1.4959	G i	-2.6558
-2.0937	G j	-0.9174
-2.7251	G k	-0.3680
-1.5661	G l	-2.8413
-1.7659	G m	-1.4172
-1.8912	G n	-1.6740
-1.4528	G o	-2.7812
-2.1772	G p	-0.6691
-1.4299	G r	-3.4895
-1.8169	G s	-1.0177
-2.3688	G t	-0.7717
-1.5228	G u	-2.7336
-2.3702	G v	-0.3803
-1.6410	G w	-1.8534
-3.3709	G x	-0.2711
-1.7663	G y	-1.8137
-2.7321	G z	-0.3961
-3.0604	G |	-0.2711
-2.3692	H </s>	0.0000
-1.6491	H <unk>	-3.1985
-2.9939	H !	-0.3680
-1.8742	H "	-0.9263
-2.1966	H &	-0.7877
-2.2316	H '	-0.8574
-1.9934	H (	-0.5626
-1.7161	H )	-1.2383
-3.3340	H *	-0.2711
-2.0443	H +	-0.6435
-1.7951	H ,	-0.7251
-1.7045	H -	-0.9054
-1.6003	H .	-1.5041
-2.3191	H /	-0.7763
-2.3196	H 0	-0.4472
-2.0171	H 1	-0.7852
-1.7410	H 2	-1.0158
-1.9717	H 3	-0.7156
-2.1595	H 4	-0.6932
-2.0424	H 5	-0.5915
-2.6740	H 6	-0.4930
-2.9762	H 7	-0.2711
-2.4307	H 8	-0.4752
-2.8008	H 9	-0.3961
-2.9808	H :	-0.2711
-2.9832	H ;	-0.2711
-2.8086	H <	-0.9243
-2.3715	H =	-0.2711
-3.3753	H >	-0.4472
-1.6097	H A	-1.1510
-1.7954	H B	-1.2097
-1.6812	H C	-1.2460
-1.6705	H D	-1.0098
-1.7163	H E	-0.8824
-1.8746	H F	-0.8202
-2.0425	H G	-0.6581
-2.0965	H H	-0.5944
-1.5823	H I	-1.2652
-2.3703	H J	-0.5400
-1.8105	H K	-0.7228
-1.8254	H L	-2.0095
-1.7286	H M	-1.2064
-2.0421	H N	-0.4969
-1.7287	H O	-0.8804
-1.6815	H P	-0.8983
-1.9725	H Q	-0.7534
-1.7813	H R	-0.8790
-1.7043	H S	-1.0874
-1.6290	H T	-1.3517
-2.0177	H U	-0.7166
-1.8926	H V	-0.7804
-2.1590	H W	-0.8839
-2.3723	H X	-0.7025
-2.4291	H Y	-0.6135
-2.5782	H Z	-0.4472
-3.3392	H [	-0.2711
-3.3059	H ]	-0.2711
-3.4308	H ^	-1.1742
-2.9915	H _	-0.2711
-1.3748	H a	-2.9693
-1.9713	H b	-0.9981
-2.1581	H c	-1.0193
-2.4271	H d	-0.7763
-1.3749	H e	-3.4933
-2.4262	H f	-0.7234
-2.0424	H g	-0.8682
-2.2310	H h	-0.9701
-1.3748	H i	-3.0969
-2.0436	H j	-1.3412
-2.7970	H k	-0.3503
-1.9298	H l	-1.1681
-1.8921	H m	-1.2442
-2.3188	H n	-0.6513
-1.3804	H o	-3.0843
-2.1938	H p	-0.7482
-3.2914	H q	-0.2711
-1.7811	H r	-1.2854
-1.7160	H s	-1.2179
-2.0960	H t	-1.0888
-1.4465	H u	-2.7586
-2.2732	H v	-0.8354
-1.7813	H w	-1.5499
-2.9879	H x	-0.2711
-1.6101	H y	-2.1142
-2.0706	H z	-1.0544
-3.0048	H |	-0.3961
-2.1115	I </s>	0.0000
-1.9222	I <unk>	-2.4141
-3.5040	I !	-0.4930
-1.8626	I "	-1.3528
-3.5324	I #	-0.2711
-2.9912	I &	-0.3961
-1.7550	I '	-2.0927
-1.8410	I (	-1.2635
-1.8305	I )	-1.8759
-2.9974	I *	-0.6391
-3.4965	I +	-0.2711
-1.7294	I ,	-1.7864
-1.8008	I -	-1.1876
-1.7134	I .	-2.0316
-2.1756	I /	-0.8095
-2.4541	I 1	-0.4172
-2.4541	I 2	-0.6301
-2.5519	I 3	-0.6233
-2.6783	I 4	-0.3381
-2.7567	I 5	-0.5052
-2.6787	I 6	-0.4287
-3.4820	I 8	-1.0493
-2.9836	I 9	-0.2711
-2.1998	I :	-0.8972
-2.4565	I ;	-0.4878
-3.1748	I <	-0.9701
-2.7590	I =	-0.7482
-3.1891	I ?	-0.2711
-1.7378	I A	-1.6146
-1.7911	I B	-1.2951
-1.6684	I C	-1.5537
-1.7463	I D	-1.5834
-1.8007	I E	-1.1423
-1.7818	I F	-1.6046
-1.8520	I G	-1.2227
-1.8518	I H	-1.1292
-1.6343	I I	-2.4554
-2.0741	I J	-1.0972
-1.8744	I K	-1.0426
-1.8204	I L	-1.1480
-1.7380	I M	-1.3976
-1.6980	I N	-1.3801
-1.8309	I O	-1.2131
-1.6905	I P	-1.5602
-1.9775	I Q	-0.8267
-1.7727	I R	-1.4333
-1.6830	I S	-1.6516
-1.7636	I T	-1.4078
-1.9918	I U	-1.2934
-1.7216	I V	-1.6896
-1.9627	I W	-1.4187
-1.8982	I X	-1.1176
-2.7581	I Y	-0.5374
-2.2249	I Z	-0.8199
-2.8683	I [	-0.3961
-2.9889	I ]	-0.5264
-2.9912	I _	-0.6691
-1.7377	I a	-2.0803
-1.6979	I b	-1.8736
-1.6903	I c	-2.4366
-1.7463	I d	-2.2049
-1.9486	I e	-1.1587
-1.7294	I f	-2.1242
-1.8105	I g	-1.7973
-1.7911	I h	-2.1029
-1.8005	I i	-1.8230
-2.1766	I j	-1.0291
-1.9627	I k	-1.4865
-1.6979	I l	-2.1224
-1.6476	I m	-2.3173
-1.5045	I n	-3.3410
-1.6757	I o	-2.2777
-1.8412	I p	-1.7470
-2.1762	I q	-1.6603
-1.6409	I r	-2.7287
-1.6025	I s	-2.6077
-1.5964	I t	-3.4785
-2.0228	I u	-1.4833
-1.7638	I v	-2.4085
-1.7136	I w	-2.4731
-2.3426	I x	-0.7482
-2.2244	I y	-1.1557
-1.9927	I z	-1.4599
-3.1879	I |	-0.2711
-2.4200	J </s>	0.0000
-1.4930	J <unk>	-3.1753
-2.0753	J "	-0.6833
-2.4277	J &	-1.1057
-2.0036	J '	-0.8220
-1.9406	J (	-0.4707
-1.7741	J )	-0.8274
-2.8512	J *	-0.2711
-1.6849	J ,	-0.6715
-1.6854	J -	-0.7416
-1.4350	J .	-1.7058
-2.0038	J /	-0.5985
-2.2163	J 0	-0.3291
-1.9128	J 1	-0.6944
-2.0032	J 2	-0.5874
-2.4213	J 3	-0.5142
-2.3424	J 4	-0.4172
-2.2155	J 5	-0.3803
-2.4230	J 6	-0.4472
-2.1645	J 7	-0.3803
-2.3442	J 8	-0.4472
-2.5219	J 9	-0.4930
-2.6503	J :	-0.5721
-3.1558	J ;	-0.2711
-2.3431	J =	-0.3381
-1.6113	J A	-0.8578
-1.6541	J B	-0.9995
-1.8612	J C	-0.6099
-1.8616	J D	-0.7202
-1.7551	J E	-0.9012
-1.7743	J F	-0.7867
-2.0387	J G	-0.7482
-1.8865	J H	-1.2131
-1.8615	J I	-0.7700
-1.9133	J J	-0.7048
-1.8162	J K	-0.6084
-1.8158	J L	-0.8419
-1.7947	J M	-1.2738
-2.0382	J N	-0.6036
-1.8621	J O	-0.5320
-1.6395	J P	-0.9425
-2.8333	J Q	-0.2711
-1.8866	J R	-0.8337
-1.6251	J S	-0.8661
-1.7185	J T	-1.0819
-2.1183	J U	-0.5344
-2.0038	J V	-0.6691
-1.9413	J W	-0.5519
-2.5235	J X	-0.3680
-1.8871	J Y	-1.1084
-2.6517	J Z	-0.2711
-3.1651	J ]	-0.2711
-3.1722	J _	-0.2711
-1.2587	J a	-3.2503
-2.2727	J b	-0.7940
-2.2724	J c	-0.4752
-2.2730	J d	-0.5721
-1.2773	J e	-2.7842
-2.2139	J f	-0.4930
-3.1378	J g	-0.5721
-1.6693	J h	-1.8116
-1.4171	J i	-2.1247
-2.4251	J j	-0.7482
-3.1378	J k	-0.2711
-2.2142	J l	-0.3961
-2.1631	J m	-0.5721
-2.0385	J n	-1.0493
-1.2837	J o	-2.8433
-2.2739	J p	-0.5400
-3.1512	J q	-0.2711
-1.5979	J r	-1.9290
-2.0753	J s	-0.9514
-2.2724	J t	-0.8732
-1.2529	J u	-3.2160
-3.1400	J v	-0.2711
-1.9413	J w	-0.9913
-2.6546	J x	-0.2711
-1.8872	J y	-1.1093
-3.1674	J z	-0.7482
-2.2498	K </s>	0.0000
-1.6883	K <unk>	-3.3211
-3.3469	K !	-0.2711
-1.8754	K "	-0.9659
-3.0294	K #	-0.7482
-3.3934	K $	-0.6468
-2.5203	K &	-0.5721
-1.8759	K '	-1.2412
-1.8281	K (	-0.4984
-1.7464	K )	-1.1268
-2.3930	K +	-0.4556
-1.7463	K ,	-1.1409
-1.7226	K -	-0.9677
-1.5744	K .	-1.5614
-2.2506	K /	-1.0595
-2.8209	K 0	-0.2711
-2.0120	K 1	-0.6875
-1.9897	K 2	-0.6291
-2.3379	K 3	-0.3503
-2.4485	K 4	-0.3583
-2.3892	K 5	-0.6468
-2.5163	K 6	-0.3680
-2.2508	K 7	-0.4359
-2.5981	K 8	-0.3503
-3.3185	K 9	-0.2711
-2.8231	K :	-0.6233
-2.6967	K ;	-0.5721
-3.3421	K <	-0.5721
-2.8223	K =	-0.3680
-1.6672	K A	-1.1369
-1.6885	K B	-1.0885
-1.7341	K C	-1.0287
-1.8435	K D	-0.8811
-1.8594	K E	-0.6714
-1.8283	K F	-0.8547
-1.7857	K G	-1.0518
-1.8435	K H	-0.8686
-1.7992	K I	-0.8958
-2.0873	K J	-0.6691
-1.9294	K K	-0.6805
-1.8758	K L	-1.0803
-1.8137	K M	-0.8018
-1.9106	K N	-0.8627
-1.8438	K O	-0.8436
-1.8284	K P	-0.7957
-2.2934	K Q	-0.4674
-1.8758	K R	-0.9130
-1.7342	K S	-1.1544
-1.7720	K T	-0.8732
-1.9689	K U	-0.6301
-1.9902	K V	-0.8851
-2.0872	K W	-0.5829
-2.5981	K X	-0.2711
-2.2130	K Y	-0.6099
-2.4500	K Z	-0.3223
-3.3348	K ]	-0.2711
-1.4095	K a	-2.8276
-2.1147	K b	-0.9199
-2.0602	K c	-1.1462
-2.0120	K d	-0.9540
-1.4842	K e	-2.6413
-1.9102	K f	-1.1284
-2.0608	K g	-0.9323
-1.5829	K h	-2.5283
-1.4038	K i	-2.8761
-2.0884	K j	-0.9401
-2.4475	K k	-0.3381
-1.5744	K l	-2.4395
-1.8756	K m	-1.0221
-1.6472	K n	-2.6048
-1.4579	K o	-2.5573
-2.0124	K p	-0.9871
-2.5972	K q	-0.6691
-1.5270	K r	-2.4215
-1.6993	K s	-1.2711
-2.0118	K t	-1.3680
-1.5746	K u	-2.2798
-1.8931	K v	-1.4172
-1.6374	K w	-1.8659
-1.6998	K y	-1.9730
-3.3372	K z	-0.2711
-2.1980	L </s>	0.0000
-1.7097	L <unk>	-3.1780
-3.3619	L !	-0.2711
-1.9692	L "	-0.9599
-2.2362	L &	-0.8152
-1.6785	L '	-1.5383
-1.8803	L (	-0.6391
-1.7097	L )	-1.7368
-3.3772	L *	-0.2711
-2.8484	L +	-0.3680
-1.7931	L ,	-1.1906
-1.7936	L -	-1.0228
-1.5714	L .	-1.6102
-2.0336	L /	-0.6233
-2.7138	L 0	-0.6233
-1.8969	L 1	-0.9503
-2.0566	L 2	-0.6156
-2.1082	L 3	-0.4794
-2.4107	L 4	-0.5915
-2.1985	L 5	-0.5847
-2.4110	L 6	-0.4930
-2.5359	L 7	-0.2711
-2.3145	L 8	-0.5052
-2.3138	L 9	-0.3089
-2.4699	L :	-0.4930
-2.7166	L ;	-0.3803
-3.0327	L <	-1.0493
-2.3138	L =	-1.2904
-3.3877	L ?	-0.2711
-1.6042	L A	-1.3620
-1.9140	L B	-1.0840
-1.6304	L C	-1.4239
-1.7678	L D	-1.3164
-1.6685	L E	-1.4712
-1.8970	L F	-0.7971
-1.7558	L G	-1.1904
-1.9140	L H	-0.8127
-1.6684	L I	-1.1956
-2.4101	L J	-0.4472
-2.2337	L K	-0.4568
-1.7678	L L	-1.1758
-1.7438	L M	-1.0065
-1.9502	L N	-0.9139
-1.8351	L O	-0.9434
-1.7679	L P	-1.1439
-2.4703	L Q	-0.6021
-1.7557	L R	-0.8880
-1.7678	L S	-1.1209
-1.6683	L T	-0.9409
-1.8350	L U	-0.8775
-1.8350	L V	-0.9701
-2.1363	L W	-0.6021
-2.1093	L X	-1.1484
-2.1367	L Y	-0.4820
-2.2729	L Z	-0.4472
-2.8469	L ]	-0.2711
-2.7206	L _	-0.2711
-3.5026	L `	-0.2711
-1.3926	L a	-2.9476
-2.1979	L b	-1.0058
-1.9500	L c	-1.5694
-2.0331	L d	-1.3164
-1.4197	L e	-2.9294
-2.0328	L f	-1.8234
-2.3127	L g	-1.7975
-1.8347	L h	-1.6615
-1.3979	L i	-2.9079
-2.0122	L j	-1.7183
-2.6147	L k	-0.5142
-1.6989	L l	-2.1449
-2.0813	L m	-1.1389
-2.3127	L n	-0.5721
-1.4253	L o	-3.0033
-2.1082	L p	-1.5400
-2.8423	L q	-1.2711
-2.1658	L r	-1.2514
-1.9314	L s	-1.5469
-1.6042	L t	-1.7212
-1.4990	L u	-2.4860
-1.8972	L v	-1.1239
-1.8349	L w	-1.7830
-1.6590	L y	-2.1160
-3.0304	L z	-0.2711
-3.3851	L |	-0.2711
-2.2412	M </s>	0.0000
-1.7184	M <unk>	-3.4678
-2.6466	M !	-0.8062
-1.9700	M "	-0.9767
-3.4922	M #	-0.2711
-3.5060	M %	-0.2711
-2.1893	M &	-0.8865
-1.8991	M '	-1.0138
-1.9701	M (	-0.8484
-1.8733	M )	-1.3199
-2.9599	M *	-1.5264
-3.4558	M +	-0.2711
-1.8731	M ,	-0.9646
-1.7944	M -	-1.0058
-1.6615	M .	-1.5865
-2.1874	M /	-0.7482
-2.9442	M 0	-0.2711
-1.8492	M 1	-1.1217
-2.1163	M 2	-0.8047
-2.0375	M 3	-0.6196
-2.1393	M 4	-0.6950
-2.3039	M 5	-0.7396
-2.1394	M 6	-0.7750
-2.4184	M 7	-0.4867
-2.2148	M 8	-0.6089
-2.3048	M 9	-0.3961
-2.6424	M :	-0.5052
-3.1281	M ;	-0.2711
-3.4583	M <	-0.9701
-2.7217	M =	-1.5117
-2.6548	M >	-1.3503
-1.6321	M A	-1.5129
-1.7099	M B	-1.2421
-1.6691	M C	-1.2586
-1.8154	M D	-1.0507
-1.7741	M E	-1.2345
-1.8734	M F	-0.9146
-1.7186	M G	-1.2762
-1.8493	M H	-0.9883
-1.7185	M I	-1.4290
-2.0754	M J	-1.0092
-1.9554	M K	-0.6990
-1.6851	M L	-1.3408
-1.8048	M M	-1.0511
-1.9123	M N	-0.7434
-1.7645	M O	-1.1377
-1.6693	M P	-1.4622
-2.4196	M Q	-0.5721
-1.7273	M R	-1.1730
-1.7014	M S	-1.4640
-1.6615	M T	-1.5010
-1.8992	M U	-1.0914
-1.8156	M V	-1.1829
-1.8991	M W	-1.1468
-2.0205	M X	-0.9887
-2.0756	M Y	-0.5487
-2.3402	M Z	-0.7426
-3.1328	M ]	-0.2711
-2.9535	M _	-0.2711
-1.4829	M a	-3.4865
-1.8492	M b	-1.4908
-1.6045	M c	-2.3604
-2.1869	M d	-0.8732
-1.5198	M e	-2.9142
-2.0022	M f	-1.2254
-2.1390	M g	-0.5970
-1.9550	M h	-1.2711
-1.4983	M i	-3.0722
-2.4660	M j	-1.2254
-2.0955	M k	-1.2005
-2.0370	M l	-1.1462
-1.9260	M m	-1.3888
-1.9705	M n	-0.8931
-1.4984	M o	-3.1288
-1.9263	M p	-1.0840
-2.9465	M q	-0.2711
-1.7362	M r	-1.9232
-1.7738	M s	-1.1453
-1.7546	M t	-1.1849
-1.5310	M u	-2.8779
-2.2718	M v	-0.7104
-1.7644	M w	-1.2373
-2.8235	M x	-0.3961
-1.7102	M y	-1.9732
-2.4209	M z	-0.8152
-3.5440	M ~	-0.2711
-2.1784	N </s>	0.0000
-1.6915	N <unk>	-3.1004
-2.8933	N !	-0.2711
-2.0117	N "	-0.7534
-3.4521	N $	-0.2711
-2.8917	N &	-0.2711
-1.8231	N '	-1.2923
-2.0320	N (	-0.5411
-1.7745	N )	-1.2064
-2.7677	N *	-0.4930
-3.3970	N +	-0.2711
-1.7310	N ,	-0.9957
-1.7983	N -	-0.7240
-1.6219	N .	-1.3442
-2.2413	N /	-0.6265
-2.6586	N 0	-1.0756
-1.9565	N 1	-0.9760
-1.9565	N 2	-0.8006
-2.1244	N 3	-0.6748
-2.4019	N 4	-0.4820
-2.3552	N 5	-0.5956
-2.3561	N 6	-0.8393
-2.2414	N 7	-1.1802
-2.4546	N 8	-0.5052
-2.5122	N 9	-1.0981
-2.4541	N :	-0.5308
-2.7591	N ;	-0.3961
-3.3995	N <	-0.7482
-2.2768	N =	-0.7270
-1.5620	N A	-2.0052
-1.6062	N B	-1.9146
-1.6382	N C	-1.4195
-1.7981	N D	-1.0571
-1.6824	N E	-1.5886
-1.6917	N F	-1.8050
-1.7013	N G	-1.1077
-1.6917	N H	-2.0714
-1.7109	N I	-1.2442
-1.9931	N J	-0.8663
-1.9932	N K	-0.8265
-1.8230	N L	-1.0658
-1.7525	N M	-1.2069
-2.0535	N N	-0.9918
-1.6470	N O	-1.2265
-1.7417	N P	-1.0847
-3.0660	N Q	-0.2711
-1.7747	N R	-1.0967
-1.6731	N S	-1.3073
-1.7415	N T	-1.1651
-1.9746	N U	-1.0278
-1.9076	N V	-0.8845
-1.7864	N W	-1.1226
-1.8500	N X	-1.4530
-1.8635	N Y	-0.9993
-1.8500	N Z	-0.8890
-3.3921	N ]	-0.2711
-2.8917	N _	-0.2711
-1.4404	N a	-2.9301
-1.9926	N b	-0.6813
-1.8357	N c	-1.1121
-1.9072	N d	-0.9815
-1.4352	N e	-3.1090
-2.0117	N f	-1.0818
-1.7635	N g	-1.4000
-1.9072	N h	-1.2090
-1.4734	N i	-2.6973
-2.1007	N j	-1.0792
-2.1788	N k	-0.8944
-2.3541	N l	-0.8732
-1.9926	N m	-1.0888
-2.3552	N n	-0.7830
-1.4567	N o	-2.9922
-2.1244	N p	-0.9243
-3.0649	N q	-0.2711
-2.0757	N r	-1.2307
-1.9070	N s	-1.0635
-1.9229	N t	-1.0493
-1.6221	N u	-2.1869
-2.4014	N v	-0.6135
-1.9397	N w	-1.0193
-2.7614	N x	-0.6691
-1.8497	N y	-1.5855
-2.8902	N z	-0.4930
-3.4276	N |	-0.2711
-2.3514	O </s>	0.0000
-1.8868	O <unk>	-2.2840
-2.6228	O !	-0.7763
-1.9939	O "	-0.8104
-3.4966	O $	-0.2711
-2.6220	O &	-0.4752
-1.7018	O '	-1.8967
-1.9005	O (	-0.6179
-1.8479	O )	-1.2507
-2.8019	O +	-0.3223
-1.8007	O ,	-0.9701
-1.8240	O -	-0.6958
-1.6758	O .	-1.4236
-2.4912	O /	-0.4582
-3.4177	O 0	-0.2711
-2.2464	O 1	-0.5229
-1.9149	O 2	-1.0308
-2.1374	O 3	-1.2289
-2.2796	O 4	-1.1884
-2.7943	O 5	-0.5142
-2.6181	O 6	-0.7482
-2.5499	O 7	-0.5721
-2.9267	O 8	-0.6233
-3.1056	O 9	-0.3961
-2.6188	O :	-0.9942
-2.9267	O ;	-0.2711
-3.4457	O <	-0.7482
-2.9245	O =	-1.1162
-1.8605	O A	-0.9511
-1.7388	O B	-1.3376
-1.7386	O C	-1.4947
-1.7899	O D	-1.0217
-1.8607	O E	-1.0449
-1.8736	O F	-0.8119
-1.9152	O G	-0.6936
-1.7792	O H	-1.1526
-1.9449	O I	-0.8732
-2.3142	O J	-0.4930
-1.9453	O K	-0.7674
-1.8122	O L	-1.0604
-1.7388	O M	-1.2502
-1.7687	O N	-1.1330
-1.9300	O O	-0.8855
-1.8010	O P	-1.0833
-2.7981	O Q	-0.4094
-1.7199	O R	-1.2337
-1.6676	O S	-1.4884
-1.7791	O T	-0.9684
-1.8608	O U	-0.7363
-1.9452	O V	-0.9478
-2.1139	O W	-1.3363
-2.3535	O X	-0.8033
-2.3526	O Y	-0.5721
-2.9267	O Z	-0.4472
-1.6283	O a	-1.9071
-1.6284	O b	-2.1394
-1.6136	O c	-3.1177
-1.6759	O d	-2.0564
-1.8868	O e	-1.0919
-1.6594	O f	-2.0681
-1.7486	O g	-1.4078
-1.7198	O h	-1.7453
-1.6928	O i	-1.7142
-2.1385	O j	-1.1534
-1.8607	O k	-2.0909
-1.6064	O l	-2.7005
-1.7198	O m	-1.6513
-1.5594	O n	-2.7380
-1.8480	O o	-1.4665
-1.5996	O p	-2.4252
-3.1067	O q	-0.2711
-1.5530	O r	-2.5492
-1.5856	O s	-2.1429
-1.5994	O t	-3.3781
-1.7018	O u	-2.2319
-1.7901	O v	-2.6426
-1.6930	O w	-2.0345
-1.8488	O x	-1.9676
-2.0126	O y	-1.3727
-1.9461	O z	-1.3527
-2.2751	P </s>	0.0000
-1.7263	P <unk>	-3.0998
-2.7981	P !	-0.3961
-1.9575	P "	-0.9022
-3.4639	P #	-0.2711
-3.4833	P $	-0.2711
-3.4777	P %	-0.2711
-2.4393	P &	-0.4820
-2.0092	P '	-1.0158
-1.8838	P (	-0.7830
-1.8450	P )	-1.5321
-2.7964	P +	-0.4752
-1.8574	P ,	-1.1258
-1.7361	P -	-1.0163
-1.6409	P .	-1.4482
-2.0673	P /	-0.9401
-2.6130	P 0	-0.6861
-2.0089	P 1	-0.7378
-1.9911	P 2	-0.9049
-2.2134	P 3	-0.8985
-2.2761	P 4	-0.4837
-2.4867	P 5	-0.5915
-2.3906	P 6	-0.3125
-2.5454	P 7	-0.4630
-2.6948	P 8	-0.4172
-2.6934	P 9	-0.5721
-2.3495	P :	-0.4338
-2.5474	P ;	-0.2711
-3.4300	P <	-0.8732
-2.3492	P =	-1.5470
-3.4612	P ?	-0.2711
-1.6816	P A	-1.4967
-1.7764	P B	-1.0894
-1.6988	P C	-1.4925
-1.6732	P D	-1.3450
-1.7764	P E	-1.2125
-1.8707	P F	-0.7788
-1.7661	P G	-1.2025
-1.8210	P H	-0.9558
-1.6902	P I	-1.1659
-2.0471	P J	-0.6913
-1.9124	P K	-0.7830
-1.7659	P L	-1.1297
-1.6733	P M	-1.1535
-1.8577	P N	-1.1057
-1.7766	P O	-1.0560
-1.6990	P P	-1.2158
-2.3117	P Q	-0.3381
-1.6649	P R	-1.2142
-1.6567	P S	-1.4801
-1.8093	P T	-0.9701
-1.8709	P U	-1.2913
-1.8453	P V	-1.0605
-1.9422	P W	-0.9018
-2.4375	P X	-0.4996
-2.3903	P Y	-0.5996
-2.9198	P Z	-0.5721
-3.1045	P ]	-0.4472
-3.4300	P _	-0.2711
-3.5781	P `	-0.2711
-1.4596	P a	-3.2395
-1.9266	P b	-0.9608
-2.0087	P c	-1.5814
-2.1103	P d	-0.8152
-1.5026	P e	-3.0963
-1.7762	P f	-1.5989
-2.3482	P g	-0.6021
-1.5503	P h	-2.9453
-1.4970	P i	-2.6710
-2.4893	P j	-0.4472
-2.6118	P k	-0.4172
-1.5317	P l	-3.2174
-2.1102	P m	-1.2564
-2.1107	P n	-1.0981
-1.4807	P o	-2.9606
-1.9580	P p	-1.5298
-3.0975	P q	-0.2711
-1.4701	P r	-3.7255
-1.6988	P s	-1.7512
-1.7078	P t	-1.8376
-1.5567	P u	-2.5210
-2.2135	P v	-1.3036
-1.8980	P w	-1.4325
-2.9229	P x	-0.2711
-1.8581	P y	-2.1087
-2.6971	P z	-0.3680
-2.6114	Q </s>	0.0000
-1.6222	Q <unk>	-1.8509
-1.7873	Q "	-0.6179
-2.4525	Q #	-0.4472
-2.1319	Q &	-0.6971
-1.8612	Q '	-0.8026
-1.7552	Q (	-0.3892
-1.7253	Q )	-0.7012
-2.6389	Q *	-0.5721
-1.5026	Q ,	-0.5885
-1.5395	Q -	-0.8293
-1.4235	Q .	-0.8518
-2.9339	Q /	-0.2711
-2.6175	Q 0	-0.2711
-1.8227	Q 1	-0.4996
-1.9483	Q 2	-0.4260
-2.1268	Q 3	-0.5142
-2.1278	Q 4	-0.2711
-2.6144	Q 5	-0.5721
-1.9037	Q 6	-1.5264
-2.9360	Q 7	-0.2711
-2.2103	Q 8	-0.3680
-2.4365	Q 9	-0.2711
-2.3086	Q :	-0.6691
-2.9651	Q <	-0.2711
-2.6196	Q =	-0.4472
-1.7555	Q A	-0.6343
-1.6974	Q B	-0.4359
-1.4856	Q C	-0.7396
-2.2062	Q D	-0.4472
-1.8610	Q E	-0.9079
-2.2062	Q F	-0.2711
-2.0008	Q G	-0.4260
-2.0586	Q H	-0.6861
-1.8227	Q I	-0.5721
-2.3060	Q J	-0.3680
-2.2079	Q K	-0.3680
-2.0001	Q L	-0.6691
-1.5791	Q M	-0.9386
-2.0001	Q N	-0.4930
-2.9360	Q O	-0.2711
-1.9488	Q P	-0.3503
-2.0612	Q Q	-0.4260
-1.6002	Q R	-0.8432
-1.5392	Q S	-0.6328
-1.7553	Q T	-0.4707
-1.8234	Q U	-0.6021
-2.0594	Q V	-0.5721
-1.9490	Q W	-0.9554
-2.9492	Q X	-0.2711
-2.6175	Q Y	-0.2711
-2.4385	Q Z	-0.2711
-1.2982	Q a	-1.6468
-1.9021	Q b	-0.5052
-1.7251	Q c	-0.6468
-1.9998	Q d	-0.4674
-1.6707	Q e	-0.5721
-1.9477	Q f	-0.6861
-2.0006	Q g	-0.5400
-1.9483	Q h	-0.6301
-1.3321	Q i	-1.4507
-2.4331	Q k	-0.2711
-2.2050	Q l	-0.4472
-1.9996	Q m	-0.8354
-1.5586	Q o	-0.8474
-2.4331	Q p	-0.4472
-2.9448	Q q	-0.2711
-2.4310	Q r	-0.2711
-1.9477	Q s	-0.6611
-1.8603	Q t	-0.7940
-1.1010	Q u	-2.7901
-2.0594	Q v	-0.5721
-1.6976	Q w	-1.0345
-2.3116	Q x	-0.5441
-2.9404	Q y	-0.2711
-2.1053	R </s>	0.0000
-1.7127	R <unk>	-3.1525
-3.0546	R !	-0.2711
-1.8586	R "	-0.9558
-3.0684	R #	-0.2711
-3.0774	R $	-0.2711
-1.8058	R &	-2.2991
-1.9560	R '	-1.0180
-1.9378	R (	-0.6583
-1.8174	R )	-1.2807
-3.0620	R *	-0.3961
-2.7420	R +	-0.4472
-1.7560	R ,	-0.9950
-1.7342	R -	-0.8732
-1.6036	R .	-1.5827
-2.1901	R /	-0.4094
-2.4918	R 0	-0.3961
-1.8735	R 1	-0.6910
-1.8735	R 2	-0.7170
-2.0574	R 3	-0.5599
-2.3367	R 4	-0.4374
-2.4329	R 5	-0.4472
-2.6387	R 6	-0.2711
-2.4335	R 7	-0.4260
-2.5609	R 8	-0.3381
-2.7366	R 9	-0.3223
-2.2581	R :	-0.4472
-2.8647	R ;	-0.2711
-3.3707	R <	-0.5721
-2.2957	R =	-0.4602
-2.8893	R >	-0.6971
-1.5727	R A	-1.6135
-1.6926	R B	-0.9105
-1.6370	R C	-1.4271
-1.8309	R D	-1.0177
-1.6460	R E	-1.1325
-1.7679	R F	-1.0455
-1.8311	R G	-0.7763
-1.8888	R H	-0.8958
-1.6733	R I	-1.4256
-2.2223	R J	-0.5499
-1.8592	R K	-0.8569
-2.0349	R L	-0.9761
-1.7027	R M	-1.0204
-1.7128	R N	-1.5636
-1.7028	R O	-1.1969
-1.6927	R P	-1.1045
-2.6401	R Q	-0.3381
-1.8176	R R	-0.7131
-1.6926	R S	-1.3027
-1.6925	R T	-1.2165
-1.8591	R U	-0.8314
-2.0810	R V	-0.7025
-1.9382	R W	-0.6618
-2.3379	R X	-0.3125
-2.0355	R Y	-0.6723
-2.3839	R Z	-0.6233
-3.4775	R \	-0.7482
-2.8679	R ]	-0.2711
-3.3707	R _	-0.2711
-1.4222	R a	-2.9160
-2.0569	R b	-0.8585
-1.9378	R c	-1.2807
-2.0136	R d	-1.0420
-1.4170	R e	-3.3186
-2.0133	R f	-0.9613
-2.1320	R g	-0.9401
-1.5957	R h	-2.5800
-1.4496	R i	-2.9342
-2.7390	R j	-0.3961
-2.7336	R k	-0.2711
-2.2936	R l	-0.7763
-2.0346	R m	-1.2090
-2.1600	R n	-0.9432
-1.4331	R o	-3.2862
-1.9937	R p	-0.7906
-3.3483	R q	-0.2711
-2.0348	R r	-1.2585
-1.8733	R s	-1.2498
-1.9555	R t	-1.1413
-1.5167	R u	-2.7578
-2.5581	R v	-0.4752
-1.7341	R w	-1.9211
-2.7408	R x	-0.3961
-1.7567	R y	-1.9424
-2.3391	R z	-0.8152
-3.3998	R |	-1.3851
-3.0974	R }	-0.4472
-3.4583	R ~	-0.2711
-2.2767	S </s>	0.0000
-1.8542	S <unk>	-3.4440
-3.2260	S !	-0.5721
-1.9510	S "	-1.3079
-2.9219	S #	-0.6691
-2.6743	S $	-1.5163
-3.5908	S %	-0.2711
-2.3963	S &	-0.5933
-2.1854	S '	-0.8152
-2.0159	S (	-0.9538
-1.9054	S )	-1.5557
-3.5631	S *	-1.7896
-2.8149	S +	-0.3680
-1.8739	S ,	-1.3396
-1.8643	S -	-1.2497
-1.6946	S .	-2.2504
-2.0764	S /	-1.2049
-2.9069	S 0	-0.5142
-2.0161	S 1	-1.0339
-2.0161	S 2	-0.7435
-2.0605	S 3	-0.8130
-2.0929	S 4	-0.7601
-2.2523	S 5	-0.7640
-2.4670	S 6	-0.7327
-2.3940	S 7	-0.6944
-2.3951	S 8	-0.8561
-2.6058	S 9	-0.7612
-2.3624	S :	-0.5584
-2.3046	S ;	-0.3831
-3.5422	S <	-0.8732
-2.6058	S =	-0.8304
-3.2386	S ?	-0.5721
-1.7672	S A	-1.9307
-1.8355	S B	-1.4641
-1.7293	S C	-1.7245
-1.7752	S D	-1.4495
-1.7594	S E	-1.4138
-1.8641	S F	-1.1017
-1.9279	S G	-0.9483
-1.8843	S H	-1.1325
-1.8263	S I	-1.4620
-2.1098	S J	-0.6875
-1.8450	S K	-1.1635
-1.8000	S L	-1.1774
-1.8175	S M	-1.2558
-1.8741	S N	-1.3276
-1.7596	S O	-1.3888
-1.7834	S P	-1.5028
-2.0611	S Q	-0.9418
-1.7916	S R	-1.3788
-1.7594	S S	-1.6715
-1.7516	S T	-1.3321
-1.8265	S U	-1.2244
-1.8175	S V	-1.1207
-1.9166	S W	-0.9369
-2.1863	S X	-1.0534
-2.3319	S Y	-0.6069
-2.5553	S Z	-0.5933
-3.5685	S [	-0.2711
-3.6489	S \	-0.2711
-3.2199	S ]	-0.3961
-3.2236	S _	-0.2711
-1.5937	S a	-3.2121
-1.9888	S b	-1.0628
-1.6154	S c	-3.2268
-2.0303	S d	-1.5191
-1.5885	S e	-3.1638
-2.0158	S f	-1.5406
-1.9514	S g	-1.5622
-1.5938	S h	-3.4577
-1.5832	S i	-2.8887
-2.2300	S j	-1.1832
-1.7595	S k	-2.3091
-1.7082	S l	-2.9717
-1.6946	S m	-2.7781
-1.8264	S n	-2.1113
-1.6045	S o	-3.0745
-1.6046	S p	-3.1874
-1.9060	S q	-2.6956
-1.8000	S r	-1.9025
-1.9887	S s	-1.5890
-1.5781	S t	-3.4100
-1.5992	S u	-2.9783
-1.9167	S v	-1.8575
-1.6816	S w	-3.3974
-3.0394	S x	-0.2711
-1.7225	S y	-2.4874
-1.9771	S z	-1.4355
-3.2373	S |	-0.8152
-2.3163	T </s>	0.0000
-1.7723	T <unk>	-3.1468
-2.8046	T !	-0.5210
-1.8902	T "	-0.9272
-3.1304	T #	-0.2711
-3.4899	T $	-0.2711
-3.4842	T %	-0.2711
-2.6241	T &	-1.1742
-1.9334	T '	-0.9981
-1.9975	T (	-0.7590
-1.8045	T )	-1.3455
-3.1243	T *	-0.2711
-3.1134	T +	-0.3961
-1.8044	T ,	-0.9838
-1.6968	T -	-1.0847
-1.6247	T .	-1.4338
-2.3549	T /	-0.7104
-2.6195	T 0	-0.2711
-1.9042	T 1	-1.1954
-1.9977	T 2	-0.5721
-1.9979	T 3	-0.8249
-1.9489	T 4	-0.7902
-2.2499	T 5	-0.7738
-2.6198	T 6	-0.6135
-2.9217	T 7	-0.2711
-3.1063	T 8	-1.0493
-2.7977	T 9	-0.6135
-2.6206	T :	-0.5142
-2.9263	T ;	-0.2711
-3.4365	T <	-0.8732
-2.6202	T =	-1.4698
-1.7424	T A	-1.5610
-1.7724	T B	-0.9599
-1.7327	T C	-1.3027
-1.7724	T D	-0.9945
-1.7623	T E	-1.0813
-1.8046	T F	-1.0531
-1.9335	T G	-0.7959
-1.7622	T H	-1.0587
-1.8046	T I	-1.0604
-2.1408	T J	-0.5178
-2.1174	T K	-0.6358
-1.7724	T L	-1.1846
-1.7523	T M	-1.2575
-1.8159	T N	-1.4297
-1.7057	T O	-1.3298
-1.8517	T P	-1.1364
-2.7009	T Q	-0.2711
-1.8047	T R	-1.0884
-1.7144	T S	-1.1679
-1.8045	T T	-1.0900
-1.8644	T U	-0.9204
-1.5384	T V	-1.9397
-1.8773	T W	-1.1333
-2.2512	T X	-0.4237
-2.0538	T Y	-0.7158
-2.3184	T Z	-0.3381
-3.4291	T ]	-0.6391
-2.8035	T _	-0.5721
-1.4871	T a	-2.8483
-1.8515	T b	-1.2564
-1.7143	T c	-1.7172
-2.0734	T d	-1.0212
-1.5206	T e	-2.9246
-2.0151	T f	-1.1876
-2.6183	T g	-0.6069
-1.4818	T h	-4.6303
-1.5035	T i	-2.6133
-2.0350	T j	-1.8899
-2.5513	T k	-0.6233
-1.9330	T l	-1.0493
-2.2193	T m	-1.2373
-2.3169	T n	-0.7763
-1.4872	T o	-2.8466
-2.0737	T p	-1.1832
-3.4145	T q	-0.5721
-1.4872	T r	-3.2121
-1.6174	T s	-1.8869
-1.8903	T t	-1.2294
-1.5762	T u	-2.5054
-2.0950	T v	-0.6757
-1.6104	T w	-2.9474
-2.5552	T x	-0.6391
-1.6970	T y	-2.1491
-2.1673	T z	-1.2900
-3.1280	T |	-0.5721
-2.3966	U </s>	0.0000
-2.1524	U <unk>	-1.9524
-1.8666	U "	-0.9362
-3.4062	U $	-0.8622
-3.0248	U &	-0.2711
-2.0949	U '	-1.0981
-1.9972	U (	-0.4582
-1.8509	U )	-1.2461
-3.3754	U *	-0.2711
-2.2610	U +	-0.7148
-1.8830	U ,	-0.7748
-1.6547	U -	-1.0434
-1.5054	U .	-2.4571
-2.3977	U /	-1.0803
-2.8305	U 0	-0.2711
-2.0432	U 1	-0.8193
-1.8668	U 2	-1.0670
-2.3974	U 3	-0.4472
-2.7030	U 4	-0.3291
-2.3974	U 5	-0.4674
-2.4570	U 6	-0.3851
-2.8298	U 7	-0.2711
-2.8340	U 8	-0.2711
-2.8319	U 9	-0.2711
-2.8326	U :	-0.4930
-2.7057	U ;	-0.2711
-1.8067	U A	-0.8559
-1.9560	U B	-0.6606
-1.5818	U C	-1.2660
-1.8211	U D	-0.9070
-1.6546	U E	-1.6490
-1.7418	U F	-1.0676
-1.8070	U G	-0.9773
-1.9763	U H	-0.9058
-1.9181	U I	-0.7640
-2.7020	U J	-0.2711
-1.5905	U K	-1.8154
-1.8511	U L	-0.7581
-1.6749	U M	-0.9025
-1.5736	U N	-1.5980
-2.3979	U O	-0.5721
-1.7070	U P	-1.0426
-2.3476	U Q	-0.3381
-1.6960	U R	-0.9591
-1.4589	U S	-2.1290
-1.5654	U T	-1.2840
-2.3462	U U	-0.3851
-1.8213	U V	-1.1354
-2.0949	U W	-0.9701
-2.5261	U X	-0.4172
-2.3982	U Y	-0.3583
-2.8340	U Z	-0.2711
-1.7927	U a	-1.1713
-1.7417	U b	-1.5518
-1.7068	U c	-1.5363
-1.7796	U d	-1.3014
-1.8832	U e	-1.0981
-1.9178	U f	-1.2034
-1.8212	U g	-1.7496
-1.8210	U h	-1.0682
-1.7068	U i	-1.3766
-2.0210	U j	-0.8622
-1.7931	U k	-2.1082
-1.6076	U l	-2.0217
-1.6258	U m	-1.6297
-1.4228	U n	-3.2855
-1.9004	U o	-1.1231
-1.5656	U p	-1.8587
-3.3352	U q	-0.2711
-1.6258	U r	-2.1016
-1.5574	U s	-2.1123
-1.6351	U t	-1.9005
-1.8835	U u	-1.0727
-2.1232	U v	-1.0612
-1.8360	U w	-1.2759
-2.1873	U x	-0.9913
-2.0205	U y	-0.9701
-1.9194	U z	-1.4074
-2.1722	V </s>	0.0000
-1.6383	V <unk>	-3.2737
-3.3013	V !	-0.2711
-1.8531	V "	-0.9901
-3.3298	V #	-0.2711
-3.3434	V %	-0.3680
-2.6600	V &	-0.4472
-1.9964	V '	-1.6102
-1.7326	V (	-0.8440
-1.6830	V )	-1.4954
-2.9710	V +	-0.2711
-1.6600	V ,	-1.2254
-1.6494	V -	-1.0373
-1.5610	V .	-1.5054
-1.9507	V /	-0.7848
-2.9583	V 0	-0.4472
-1.8533	V 1	-1.0919
-1.8895	V 2	-0.6990
-2.0757	V 3	-0.5626
-2.2112	V 4	-0.6456
-2.1728	V 5	-0.5956
-1.8902	V 6	-0.8288
-2.6526	V 7	-0.6513
-1.8050	V 8	-0.9319
-2.7810	V 9	-0.4472
-2.2118	V :	-0.6427
-2.4776	V ;	-0.3089
-2.9721	V <	-0.3961
-2.5563	V =	-0.4260
-1.6714	V A	-1.0106
-1.8364	V B	-0.7731
-1.6713	V C	-1.0002
-1.7742	V D	-1.5594
-1.7462	V E	-0.9199
-1.9504	V F	-0.7305
-1.8366	V G	-0.8768
-1.6831	V H	-1.3870
-1.5188	V I	-1.7541
-2.4077	V J	-0.4820
-2.2110	V K	-0.5933
-1.8711	V L	-0.9554
-1.8365	V M	-0.9537
-1.9962	V N	-0.8834
-1.7331	V O	-0.9731
-1.7890	V P	-1.0582
-2.7825	V Q	-0.3680
-1.7199	V R	-0.7857
-1.7327	V S	-0.9677
-1.8532	V T	-0.7957
-2.4750	V U	-0.7298
-1.8899	V V	-1.0914
-2.1057	V W	-0.7355
-2.4100	V X	-0.8909
-2.4757	V Y	-0.8732
-2.6560	V Z	-0.2711
-3.3992	V \	-0.2711
-3.2890	V ]	-0.2711
-3.2964	V _	-0.2711
-1.3938	V a	-2.7354
-2.1051	V b	-1.2893
-1.9500	V c	-1.6233
-1.8895	V d	-1.3085
-1.4123	V e	-2.6280
-1.7597	V f	-1.4414
-2.2106	V g	-0.8622
-2.0472	V h	-1.3181
-1.3590	V i	-2.9964
-2.4103	V j	-1.1162
-2.9549	V k	-0.4472
-1.6713	V l	-2.1511
-2.0751	V m	-1.4649
-2.4746	V n	-1.0888
-1.4659	V o	-2.3425
-2.0757	V p	-1.6160
-2.6548	V q	-0.5721
-1.7327	V r	-1.4848
-1.7070	V s	-1.8190
-1.9087	V t	-1.5721
-1.6079	V u	-1.4314
-2.2523	V v	-1.1632
-1.7891	V w	-1.7785
-2.6582	V x	-0.5721
-1.9096	V y	-1.3680
-2.9698	V z	-0.2711
-2.9251	W </s>	0.0000
-1.7016	W <unk>	-2.8334
-3.2787	W !	-0.2711
-1.8979	W "	-1.0166
-2.9450	W &	-0.2711
-2.1802	W '	-1.2797
-1.9650	W (	-0.4657
-1.6519	W )	-1.3331
-2.9541	W *	-0.2711
-2.6301	W +	-0.3961
-1.6885	W ,	-0.8288
-1.7434	W -	-0.6748
-1.4718	W .	-1.6333
-2.3194	W /	-1.2131
-2.0446	W 1	-0.6021
-2.2670	W 2	-0.4720
-2.0751	W 3	-0.9796
-2.4459	W 4	-0.5721
-2.9284	W 5	-0.2711
-2.5264	W 6	-0.3381
-2.9306	W 7	-0.2711
-3.2573	W 8	-0.2711
-2.9338	W 9	-0.2711
-2.9349	W :	-0.2711
-3.2739	W <	-0.8732
-2.3790	W =	-1.7183
-3.3330	W >	-0.8732
-1.5480	W A	-1.2670
-1.7732	W B	-0.9256
-1.6072	W C	-1.4292
-1.8225	W D	-0.8062
-1.7433	W E	-1.8266
-1.8781	W F	-1.4398
-1.8227	W G	-0.8786
-1.6640	W H	-1.3733
-1.6887	W I	-1.0881
-2.1075	W J	-0.3961
-2.1077	W K	-0.4850
-1.9196	W L	-0.7585
-1.7581	W M	-0.7743
-1.8781	W N	-0.8053
-1.7582	W O	-0.8783
-1.7891	W P	-0.8339
-2.2694	W Q	-0.5142
-1.8226	W R	-0.5948
-1.7017	W S	-0.8845
-1.6290	W T	-1.1093
-2.0170	W U	-0.7025
-2.0452	W V	-0.5282
-1.5671	W W	-2.2457
-2.1087	W X	-0.4930
-1.9201	W Y	-0.9960
-2.4477	W Z	-0.2711
-3.2667	W ]	-0.7482
-3.3857	W ^	-0.2711
-2.9450	W _	-0.2711
-1.3391	W a	-3.1189
-1.8586	W b	-1.2172
-2.1414	W c	-1.0840
-2.0446	W d	-0.7298
-1.3627	W e	-2.7702
-2.0742	W f	-0.9401
-2.7491	W g	-0.5721
-1.3812	W h	-3.3926
-1.3278	W i	-3.8474
-2.7491	W k	-0.2711
-1.9650	W l	-1.1004
-2.1067	W m	-0.7660
-2.4449	W n	-0.7482
-1.3279	W o	-3.0148
-2.3775	W p	-0.7896
-2.9349	W q	-0.2711
-1.4719	W r	-2.8546
-2.1412	W s	-0.8484
-1.9192	W t	-1.1284
-1.6183	W u	-1.3172
-2.9295	W v	-0.6691
-1.9656	W w	-1.3503
-1.7584	W y	-1.8527
-3.3674	W }	-0.4472
-2.1145	X </s>	0.0000
-2.0001	X <unk>	-1.5933
-1.6088	X "	-1.0087
-3.2135	X $	-0.2711
-2.4240	X &	-1.1876
-2.0009	X '	-0.9339
-1.7338	X (	-0.6043
-1.6991	X )	-1.1557
-3.1815	X *	-0.2711
-2.8348	X +	-0.5721
-1.5228	X ,	-0.9723
-1.4910	X -	-1.4129
-1.4805	X .	-1.1331
-2.6415	X /	-0.4930
-3.1328	X 0	-0.2711
-1.7920	X 1	-1.3190
-1.8355	X 2	-0.5551
-2.2123	X 3	-0.4820
-2.3389	X 4	-0.7717
-2.5149	X 5	-0.3503
-2.5171	X 6	-0.3503
-2.2129	X 7	-0.3851
-2.2731	X 8	-0.7482
-2.5176	X 9	-0.4472
-2.3400	X :	-0.5052
-2.6468	X ;	-0.2711
-2.5176	X =	-0.3680
-1.8355	X A	-0.5721
-1.9103	X B	-0.4930
-1.6515	X C	-0.7988
-2.0354	X D	-0.7782
-1.9385	X E	-0.4073
-1.7525	X F	-1.0071
-2.0011	X G	-0.5899
-1.9383	X H	-0.7994
-1.5013	X I	-1.6172
-2.0011	X J	-0.8995
-2.5160	X K	-0.3680
-1.6371	X L	-1.1231
-1.6230	X M	-1.0079
-2.3370	X N	-0.6391
-1.7529	X O	-0.9981
-1.6829	X P	-0.8632
-2.2728	X Q	-0.5721
-2.2121	X R	-0.4260
-1.6828	X S	-0.7482
-1.8131	X T	-1.1214
-2.6415	X U	-0.2711
-1.6673	X V	-1.4530
-2.1151	X W	-0.9079
-1.4812	X X	-1.5451
-1.8597	X Y	-0.6581
-2.4209	X Z	-0.2711
-3.1866	X [	-0.2711
-3.1540	X ]	-0.2711
-3.2760	X ^	-0.2711
-1.4512	X a	-1.5003
-1.6516	X b	-2.0281
-1.6516	X c	-1.3715
-2.0730	X d	-0.8509
-1.5826	X e	-1.6082
-1.8351	X f	-0.9432
-2.4173	X g	-0.4472
-1.7524	X h	-1.3783
-1.4063	X i	-1.4359
-3.1468	X j	-0.2711
-2.8189	X k	-0.2711
-2.2690	X l	-0.4752
-1.9100	X m	-0.9981
-2.3378	X n	-0.9079
-1.6671	X o	-1.1572
-1.9106	X p	-1.1036
-3.1398	X q	-0.2711
-1.9382	X r	-1.2854
-1.7337	X s	-0.9243
-1.6990	X t	-1.3898
-1.7342	X u	-1.0035
-2.2126	X v	-1.0493
-1.7342	X w	-1.3291
-3.1540	X x	-0.2711
-2.0744	X y	-1.1036
-2.5221	X z	-0.8732
-3.2572	X }	-0.2711
-2.0120	Y </s>	0.0000
-1.5196	Y <unk>	-2.5871
-2.7381	Y !	-0.2711
-1.7323	Y "	-0.8468
-2.7359	Y &	-0.2711
-1.9331	Y '	-0.5721
-2.1668	Y (	-0.4094
-1.7560	Y )	-0.7601
-3.0623	Y +	-0.2711
-1.8650	Y ,	-0.5612
-1.6693	Y -	-0.6391
-1.5639	Y .	-0.9005
-2.7204	Y /	-0.2711
-3.0368	Y 0	-0.2711
-2.0120	Y 1	-0.4996
-1.8355	Y 2	-0.4602
-2.2357	Y 3	-0.3381
-3.0368	Y 4	-0.2711
-2.5400	Y 5	-0.2711
-2.7214	Y 7	-0.2711
-2.7247	Y 9	-0.2711
-2.7258	Y :	-0.4472
-2.4177	Y ;	-0.3961
-2.5436	Y =	-0.4472
-3.0946	Y ?	-0.5721
-1.5798	Y A	-0.7424
-1.8356	Y B	-0.4752
-1.6493	Y C	-0.7979
-1.8979	Y D	-0.4374
-1.8358	Y E	-0.5052
-2.1095	Y F	-0.3125
-1.9333	Y G	-0.6205
-1.8075	Y H	-0.7104
-2.1674	Y I	-0.2711
-2.1686	Y J	-0.5847
-2.0130	Y K	-0.4472
-1.9707	Y L	-0.4674
-1.5965	Y M	-0.8484
-2.1677	Y N	-0.4752
-1.6137	Y O	-0.7558
-1.9329	Y P	-0.9215
-2.7269	Y Q	-0.2711
-2.0584	Y R	-0.4472
-1.7103	Y S	-0.9222
-1.7325	Y T	-0.6164
-1.9333	Y U	-0.5915
-2.0588	Y V	-0.4674
-1.8359	Y W	-0.7482
-2.3190	Y X	-0.3680
-2.5421	Y Y	-0.4472
-2.5457	Y Z	-0.2711
-3.0576	Y ]	-0.2711
-2.5509	Y _	-0.4930
-1.2705	Y a	-2.1808
-1.9324	Y b	-0.5142
-1.8071	Y c	-1.3025
-2.0579	Y d	-0.4820
-1.3120	Y e	-2.2579
-2.1084	Y f	-0.6135
-1.8359	Y g	-0.8304
-1.9705	Y h	-0.7830
-1.3576	Y i	-1.2611
-2.4183	Y j	-0.3961
-2.7193	Y k	-1.1462
-2.0116	Y l	-1.0635
-1.9703	Y m	-0.9243
-1.9711	Y n	-0.9339
-1.2475	Y o	-3.6535
-1.9331	Y p	-1.1462
