[n]
1

[smoother]
kylm.model.ngram.smoother.KNSmoother

[max_length]
1109

[vocab_cutoff]
0

[start_symbol]
<s>

[terminal_symbol]
</s>

[unknown_symbol]
<unk>

\data\
ngram 1=28218

\1-grams: 
-99.0000	<s>
-1.4612	</s>
-0.4521	<unk>
-3.6891	you
-4.9773	i
-1.2893	the
-1.6867	to
-1.7027	a
-2.5148	it
-1.6487	and
-2.2821	that
-1.5403	of
-1.6367	in
-3.4316	what
-1.7500	is
-4.6525	me
-3.7571	we
-2.5290	he
-2.8596	this
-2.1944	for
-4.3290	my
-2.2536	on
-4.1992	your
-2.6445	have
-3.2867	do
-3.3162	no
-6.3461	don
-2.2633	are
-2.1217	be
-2.6273	not
-1.9193	was
-1.9459	can
-3.9387	know
-2.3375	with
-3.0108	all
-2.7907	but
-4.3423	here
-3.0590	there
-2.6927	they
-3.2177	so
-3.4253	get
-3.5680	just
-3.6042	go
-3.1017	like
-3.1100	up
-3.7443	come
-3.7937	right
-3.0860	she
-3.2868	him
-3.2185	out
-3.4008	if
-2.4536	at
-3.4258	now
-2.7442	one
-2.2156	about
-3.4870	how
-7.2491	oh
-3.9275	want
-3.6082	got
-2.9302	her
-3.1759	will
-3.3946	well
-3.5160	see
-3.5545	good
-4.2309	let
-5.7578	yes
-3.8691	think
-2.2662	as
-2.8135	who
-4.1508	why
-6.9481	yeah
-3.2781	did
-2.3532	from
-2.4952	his
-2.9385	when
-3.9171	going
-3.8318	man
-3.6404	take
-3.1224	where
-3.1733	time
-3.2287	them
-3.4638	back
-2.4507	an
-4.4512	us
-3.9014	look
-2.4806	or
-3.1347	would
-3.8379	say
-2.5562	were
-2.8025	been
-3.2003	then
-2.7226	had
-4.1214	tell
-3.0262	some
-4.1312	our
-5.7440	okay
-2.0014	by
-3.8626	too
-5.4857	gonna
-3.6608	down
-3.3227	could
-6.9481	hey
-3.8903	something
-3.7703	never
-3.4841	way
-3.0111	very
-2.9448	more
-4.1660	really
-2.4888	has
-3.1982	make
-3.1451	over
-5.2669	please
-3.0408	only
-4.0557	love
-3.8117	give
-3.8279	little
-3.8794	need
-2.6608	people
-3.7026	off
-2.8994	two
-3.3412	said
-5.2998	sorry
-5.5589	thank
-4.6570	am
-6.7720	sir
-3.7301	should
-4.0126	mean
-3.4002	any
-3.0444	because
-3.4163	much
-4.3643	sure
-3.5268	even
-4.1881	doing
-4.5450	nothing
-3.7158	must
-3.2814	these
-4.2925	thing
-2.3027	help
-4.3116	god
-3.7245	day
-2.7142	first
-3.2816	won
-3.6209	life
-4.4160	anything
-3.7908	again
-3.8303	away
-3.9683	stop
-4.9727	wait
-4.2177	night
-3.7952	find
-2.9546	into
-3.3777	work
-3.4435	still
-3.6536	put
-3.5917	home
-4.0580	call
-3.3189	before
-3.8332	better
-2.7591	their
-2.8076	other
-4.2226	talk
-2.9566	after
-5.1319	maybe
-3.7345	great
-3.0367	than
-3.6502	those
-3.8251	always
-3.5882	thought
-3.4704	long
-3.7741	money
-3.6170	old
-4.4761	everything
-4.1243	leave
-3.9286	keep
-3.2068	new
-3.9567	told
-3.6164	things
-3.0975	name
-3.5039	last
-3.7175	father
-3.3188	around
-3.2040	years
-3.5141	does
-6.6471	hello
-3.9879	ever
-3.4798	place
-3.7597	big
-5.0370	nice
-7.2491	isn
-4.2802	feel
-4.3228	girl
-4.2189	stay
-3.9587	believe
-4.9727	thanks
-2.2138	made
-3.8600	mother
-4.9087	listen
-3.2136	three
-3.1709	may
-5.4166	guy
-4.5998	hear
-4.3428	understand
-6.7720	shit
-4.3285	coming
-3.6385	world
-3.9342	enough
-3.5285	left
-4.6671	fine
-3.6529	every
-6.7720	ok
-4.7319	remember
-3.9425	house
-4.4554	course
-3.7739	done
-4.3576	boy
-4.6581	wrong
-3.9985	bad
-2.6251	which
-4.0359	woman
-3.5370	another
-3.6290	lot
-3.8605	kind
-3.7574	wanted
-3.3147	through
-6.4040	fuck
-5.6694	guys
-3.5200	came
-4.6228	ask
-4.1015	kill
-3.7414	son
-4.1621	today
-4.1787	dead
-3.4784	show
-3.5455	own
-4.1276	happened
-4.2714	care
-4.6177	mind
-4.0202	someone
-4.0710	try
-6.1352	hi
-3.2863	being
-3.2645	same
-3.9853	car
-5.6157	yourself
-3.8337	might
-5.7720	dad
-5.4710	miss
-4.5249	morning
-4.6187	else
-5.5679	hell
-2.8546	many
-3.8139	men
-4.2418	friend
-4.4603	baby
-3.6315	next
-4.5365	talking
-3.8543	move
-6.0187	fucking
-3.4309	live
-4.2788	looking
-4.1477	hold
-3.9867	real
-4.1447	getting
-3.6804	without
-4.0144	saw
-3.4695	went
-3.7183	seen
-7.2491	wouldn
-4.3582	room
-3.4253	best
-6.4710	wanna
-3.7189	together
-3.0695	found
-6.2949	tomorrow
-3.9105	wife
-4.0731	job
-3.9008	once
-6.4710	gotta
-3.1146	such
-7.2491	wasn
-4.3729	matter
-3.8135	head
-2.9362	most
-4.3493	heard
-4.6385	alone
-4.5998	ready
-6.0731	haven
-4.5930	happy
-4.1039	already
-3.9226	days
-4.0356	brother
-3.8678	run
-3.5464	play
-6.7720	tonight
-4.7333	door
-4.3488	bring
-5.6057	mom
-5.6809	myself
-3.9688	open
-4.3615	yet
-4.1926	trying
-4.3858	knew
-4.0494	whole
-4.3243	meet
-5.6694	excuse
-3.4273	family
-2.8171	used
-3.4437	while
-4.5048	die
-3.2302	use
-3.8543	start
-3.5055	took
-5.0999	pretty
-4.6525	gone
-2.7909	called
-3.8884	idea
-3.4203	since
-4.5441	watch
-4.1873	turn
-4.8600	hope
-3.4198	year
-5.1592	guess
-3.5301	end
-4.8292	sit
-4.3870	beautiful
-3.9187	hard
-3.8945	says
-4.2751	hand
-4.4409	bit
-3.6744	school
-3.3687	both
-5.3407	worry
-5.1773	s
-4.9167	minute
-4.1714	true
-4.1614	friends
-4.3037	face
-3.9876	soon
-3.8147	lost
-5.3197	forget
-6.1700	bye
-3.7706	young
-4.1495	business
-3.6348	five
-3.7535	killed
-3.9715	heart
-3.5939	few
-4.1519	problem
-4.2751	wants
-3.3342	later
-3.9975	eat
-4.4369	everyone
-4.4660	drink
-6.2949	damn
-4.5072	ago
-4.8762	shut
-4.1968	pay
-3.9965	police
-5.0532	everybody
-3.3484	each
-3.5429	water
-4.5208	anyone
-6.2491	dear
-2.5667	also
-4.8114	shall
-4.2093	looks
-4.3116	saying
-3.2440	until
-5.4296	crazy
-3.7500	late
-4.6880	phone
-4.4582	eyes
-5.6157	kid
-4.3101	easy
-6.6471	ah
-4.6581	sleep
-4.9987	mine
-4.8950	afraid
-4.5306	doctor
-3.6614	death
-5.0370	nobody
-3.4163	four
-3.4338	under
-3.3047	second
-3.3099	music
-4.9915	somebody
-5.7440	t
-3.7723	change
-3.9711	far
-4.5127	hands
-5.1884	kids
-4.6228	knows
-4.1339	actually
-3.8746	hit
-3.7650	children
-4.1096	case
-4.5743	thinking
-4.9459	waiting
-2.9174	its
-3.6791	gave
-4.1911	read
-3.7414	times
-4.3985	minutes
-4.1762	speak
-5.9481	anyway
-4.4561	stand
-3.0370	part
-4.9087	wish
-3.5266	word
-3.8196	having
-4.1869	cut
-5.4103	stuff
-3.7003	comes
-3.8082	war
-3.4674	married
-3.2896	number
-4.3012	happen
-6.1700	hurry
-4.0682	fire
-4.1068	quite
-4.0464	fight
-4.0098	rest
-3.8628	close
-6.5502	l
-4.8818	check
-3.9143	inside
-4.5112	hurt
-3.9300	half
-3.9708	probably
-4.7467	moment
-3.4148	against
-4.5048	girls
-3.6488	makes
-3.8476	working
-4.4979	exactly
-5.1319	lady
-3.9133	women
-4.0477	asked
-3.5678	set
-4.5808	boys
-4.1243	taking
-4.3066	husband
-3.7726	story
-3.4053	town
-4.4610	chance
-4.0467	child
-6.7720	ass
-6.6471	yours
-3.3634	important
-5.0086	whatever
-3.1523	different
-4.7386	trouble
-5.2198	lord
-3.8450	point
-4.3417	deal
-4.1995	sister
-3.9159	goes
-5.3799	o
-3.9879	party
-4.3741	week
-4.6157	walk
-3.9518	daughter
-3.4061	means
-5.1999	honey
-4.5033	dog
-4.1603	shot
-3.5947	high
-4.9167	bed
-4.4827	gun
-3.4753	game
-3.4564	person
-3.7020	body
-4.2765	break
-3.9346	free
-4.6428	captain
-3.6475	making
-3.8233	side
-5.5416	anymore
-3.6461	country
-4.7508	fun
-3.7633	almost
-4.3532	buy
-3.9038	least
-4.9416	truth
-3.7637	six
-3.6449	along
-4.0272	met
-3.0446	city
-4.1419	behind
-4.4166	send
-3.8159	though
-4.2849	hours
-3.1218	between
-3.9834	blood
-3.7885	light
-4.4850	supposed
-5.7720	stupid
-3.9820	brought
-3.2002	died
-4.0136	gets
-5.1352	funny
-4.7706	ahead
-4.6137	answer
-3.9683	full
-5.4103	welcome
-3.2630	started
-3.8700	black
-4.5836	question
-3.8370	line
-4.0656	front
-7.2491	bitch
-5.1061	hate
-6.4040	um
-4.7215	shoot
-3.8526	white
-4.2376	poor
-4.2230	hot
-3.7533	order
-5.4498	anybody
-5.4783	ha
-3.5218	sometimes
-4.2206	reason
-3.9638	king
-3.9505	tried
-4.5064	seems
-3.8218	either
-3.9387	outside
-4.1667	m
-4.3741	couple
-5.7578	ma
-4.9481	trust
-4.0771	months
-4.8067	alive
-4.6300	hour
-4.4289	pick
-3.7614	able
-4.6821	sick
-4.4872	perhaps
-4.4322	save
-4.3627	clear
-4.0923	office
-5.9481	gentlemen
-3.5067	become
-3.5966	book
-3.5628	living
-3.7493	playing
-3.8144	food
-4.6626	telling
-4.8564	cool
-4.2496	dance
-4.0429	red
-4.3537	news
-4.2930	leaving
-4.5323	lose
-4.3076	cold
-4.9681	promise
-4.7764	evening
-4.6845	touch
-3.7082	power
-5.2198	scared
-5.1352	boss
-4.2901	fact
-5.2405	dinner
-5.6928	jack
-4.7088	master
-4.8460	uncle
-4.0086	himself
-3.3302	small
-7.2491	darling
-5.0290	quiet
-4.0367	write
-3.7963	taken
-4.0022	ten
-5.3858	luck
-3.8114	sent
-4.6671	feeling
-3.8908	cannot
-3.8695	air
-4.5643	earth
-5.7440	glad
-3.8908	law
-4.7634	till
-4.3823	serious
-5.2077	wonderful
-4.2267	needs
-4.9773	dream
-4.4812	street
-4.4192	drive
-4.3906	hair
-4.7241	sort
-3.9534	others
-4.2109	running
-5.4231	bet
-3.9175	lives
-3.7671	company
-4.3380	follow
-3.7209	special
-4.2765	fast
-4.7958	sweet
-4.0453	sound
-4.5643	catch
-3.8943	words
-5.0187	careful
-3.7441	human
-5.7720	d
-5.6157	goodbye
-4.6117	safe
-4.7454	perfect
-5.2579	hang
-4.4122	beat
-3.5287	million
-4.0351	rather
-4.2633	happens
-3.7166	top
-4.0611	parents
-6.4710	alright
-4.3091	plan
-4.5476	seem
-6.0731	ya
-3.9455	general
-2.9052	known
-4.8325	coffee
-5.4498	ladies
-7.2491	wow
-5.5502	lucky
-3.9843	win
-3.9888	possible
-4.2304	past
-5.2157	calm
-4.8477	pull
-4.8744	lie
-4.5864	y
-4.2746	sign
-3.8318	control
-4.1582	return
-4.4244	straight
-4.2271	fall
-3.4214	team
-3.9410	longer
-5.9481	laughing
-5.3858	kiss
-4.8259	asking
-5.1419	tired
-4.1682	feet
-4.2284	learn
-4.7038	drop
-5.0370	e
-5.2998	mad
-5.6471	suppose
-4.8618	quick
-5.2491	wake
-4.6977	strange
-4.5433	marry
-4.2325	train
-4.7943	throw
-4.6147	loved
-4.1585	road
-4.4329	sounds
-3.6949	land
-4.3870	felt
-4.9681	somewhere
-4.3559	picture
-4.6460	step
-3.9829	president
-4.5232	eye
-4.4798	hospital
-4.1224	piece
-4.3259	weeks
-4.4547	secret
-4.4122	sense
-5.5167	forgive
-3.9214	takes
-4.3306	pass
-4.0577	voice
-4.7076	clean
-4.3638	looked
-4.6989	calling
-5.6471	wonder
-3.4537	song
-5.2077	fault
-3.7037	changed
-3.4140	state
-3.9167	seven
-3.0977	born
-3.7071	less
-4.0467	film
-4.7319	ride
-4.5537	explain
-7.2491	joe
-4.4072	meeting
-4.1881	class
-4.1436	act
-4.8130	none
-3.4979	given
-4.2696	finally
-5.7440	fool
-6.6471	yesterday
-4.0002	la
-3.4378	early
-4.6300	worth
-4.4147	ones
-6.1030	tv
-4.2998	future
-4.3012	sex
-3.8753	strong
-3.9917	army
-4.4910	mouth
-4.1345	moving
-6.6471	frank
-4.5315	sing
-6.4040	bastard
-4.5930	sun
-4.9939	certainly
-6.6471	american
-4.3461	chief
-3.6347	worked
-4.6493	clothes
-4.4603	horse
-4.5273	report
-6.7720	christmas
-4.3548	sell
-6.7720	mama
-4.0833	turned
-4.6290	questions
-4.2500	dark
-5.5589	absolutely
-4.4667	peace
-4.4211	month
-3.1984	movie
-5.4933	lovely
-4.6269	boat
-4.2401	blue
-4.7508	seeing
-4.9028	mm
-4.6880	hotel
-4.6197	speaking
-4.0124	eight
-7.2491	eh
-4.2259	ship
-3.7369	rock
-4.5064	continues
-7.2491	sam
-3.6501	age
-4.5873	murder
-4.4887	finish
-4.1980	letter
-4.2038	court
-3.7578	works
-5.5088	swear
-5.1319	expect
-3.9997	finished
-4.8114	bill
-4.2325	giving
-4.4835	officer
-4.0857	present
-3.4726	near
-4.9249	worse
-4.9939	busy
-4.6928	pain
-4.0285	kept
-4.3306	ball
-5.0370	terrible
-4.7867	fear
-4.6087	floor
-5.9704	laughs
-4.3695	wear
-3.9107	sea
-4.4065	fly
-5.4166	imagine
-5.3979	forever
-4.6892	count
-4.0950	gold
-5.5959	forgot
-4.0144	radio
-4.4610	attention
-3.9034	decided
-6.5502	idiot
-6.0187	french
-6.9481	goddamn
-5.0702	mistake
-4.4820	caught
-4.9269	birthday
-3.7477	short
-4.9374	happening
-5.0036	afternoon
-4.7677	soul
-4.3423	figure
-4.2835	paid
-3.9604	station
-4.1491	simple
-5.2117	bag
-6.6471	tom
-4.1382	fish
-4.2911	date
-4.2448	rich
-5.0136	blow
-4.2440	broke
-4.0848	miles
-3.1619	during
-4.2218	ring
-4.6332	choice
-4.4084	bank
-7.2491	david
-5.7720	relax
-4.1282	except
-3.9271	attack
-4.2388	join
-4.9187	wedding
-4.9208	worried
-4.4122	table
-4.2793	completely
-3.8742	across
-6.7720	mary
-4.3002	paper
-4.1033	star
-4.5854	message
-5.1999	pleasure
-6.6471	dude
-3.7946	building
-4.7808	watching
-6.9481	chuckles
-4.7306	stick
-4.4477	dangerous
-6.9481	america
-4.0990	meant
-4.1791	round
-4.5441	honor
-4.9147	fair
-7.2491	ls
-5.4933	hungry
-4.0736	middle
-3.3816	de
-4.5598	thinks
-6.4040	buddy
-4.8989	lying
-4.6928	unless
-5.0938	drunk
-3.9584	instead
-3.5429	government
-6.1030	re
-4.5537	spend
-3.8476	certain
-3.6211	major
-4.2526	charge
-4.0878	needed
-4.3466	deep
-4.8020	hide
-4.4141	hundred
-6.2949	english
-4.8512	handle
-4.1926	bought
-4.1995	key
-5.5770	cry
-3.8277	history
-4.3348	interested
-4.6167	trip
-3.9016	lead
-4.8308	window
-5.0673	lieutenant
-4.7440	enjoy
-3.5791	system
-5.4933	sake
-4.3823	fell
-4.8744	anywhere
-4.1080	quickly
-4.2185	cover
-4.7898	sitting
-4.1386	ran
-3.9349	church
-5.1061	surprise
-5.5959	colonel
-4.2669	carry
-4.6087	situation
-4.8067	tea
-6.7720	yo
-5.1557	smart
-4.0061	force
-4.6008	teach
-4.7306	interesting
-3.9125	information
-4.0039	problems
-4.3948	professor
-4.3985	box
-4.7677	holy
-3.2031	often
-4.3254	plane
-4.8275	dress
-5.5010	lunch
-4.4979	thousand
-5.0111	smell
-4.7495	missing
-3.6304	third
-4.1443	ground
-5.8020	crying
-4.6280	talked
-4.0319	service
-4.7564	respect
-3.8801	ice
-4.6147	accident
-4.1175	stopped
-5.0938	tough
-5.2624	heaven
-5.1286	proud
-5.5589	laugh
-4.5493	security
-4.8893	sad
-3.4953	lived
-3.9708	art
-4.1282	difficult
-7.2491	harry
-4.6525	mark
-3.6093	single
-6.0450	dare
-5.4296	c
-3.0679	group
-3.7949	record
-4.3111	wind
-6.2949	cops
-4.8818	fix
-3.7730	club
-4.2588	upon
-4.3106	marriage
-7.2491	mike
-5.7720	mess
-5.1386	besides
-4.1930	fighting
-4.7634	impossible
-4.5950	forward
-4.8970	quit
-4.2129	entire
-4.7426	wine
-4.1005	normal
-4.3858	visit
-4.5979	offer
-3.7321	public
-4.9939	missed
-5.7578	screaming
-4.3504	prison
-4.9773	smoke
-4.3888	killing
-4.5041	agree
-4.7333	saved
-3.7923	river
-4.5017	broken
-4.8529	neither
-4.1828	whether
-7.2491	madam
-5.7867	weird
-4.2346	green
-5.4933	bloody
-4.4329	arms
-4.5826	evil
-7.2491	asshole
-3.6879	south
-6.3461	bob
-4.4783	wall
-4.7536	bar
-4.7989	fat
-5.8512	il
-4.6717	judge
-4.6728	orders
-3.9179	seat
-4.7426	bear
-3.4857	wrote
-4.7014	queen
-4.5088	slow
-3.8777	cause
-5.1286	dreams
-4.8874	loves
-4.4283	teacher
-6.0731	cop
-4.5554	standing
-4.2887	liked
-3.5201	north
-4.5072	glass
-4.2275	protect
-4.5969	accept
-5.2714	dirty
-4.0303	beginning
-4.3548	difference
-4.4491	cross
-4.5950	angry
-4.2535	machine
-4.5554	scene
-5.3515	amazing
-4.3504	double
-4.3615	share
-5.0760	totally
-5.5502	honest
-4.4179	moon
-4.2453	personal
-4.1413	private
-5.2714	joke
-5.0560	realize
-5.0111	beer
-4.0812	space
-4.0480	position
-4.7913	jump
-4.1282	whose
-4.9591	jail
-3.3420	area
-4.7943	promised
-4.1854	tree
-4.5240	foot
-4.3565	continue
-4.2765	test
-4.6177	cat
-4.9087	dying
-3.8028	within
-4.3412	singing
-5.5959	ought
-4.3348	brain
-5.8874	sergeant
-4.1862	nine
-3.8114	village
-7.2491	peter
-4.6269	wearing
-4.7177	walking
-4.0322	field
-4.9087	dollars
-5.7867	bother
-5.0616	girlfriend
-4.5770	bus
-4.4160	crime
-6.9481	congratulations
-4.1798	lots
-5.1884	doubt
-4.7852	camera
-3.0187	became
-6.9481	german
-3.8634	books
-4.0464	gives
-5.0111	shoes
-4.9843	truck
-6.0187	ben
-5.0702	kick
-4.6417	card
-5.0673	cash
-5.0616	sleeping
-4.8818	push
-3.5404	moved
-4.8004	likes
-4.4732	calls
-5.9067	cute
-6.5502	max
-4.1945	park
-4.9332	apartment
-6.7720	bullshit
-4.2664	evidence
-4.4047	store
-4.0616	grow
-5.7720	owe
-3.8634	especially
-5.2760	aunt
-4.2189	reach
-4.7706	guard
-4.0442	spent
-4.2169	summer
-4.3954	enemy
-4.1610	rules
-6.6471	ho
-4.9147	duty
-3.7547	island
-4.7764	seconds
-5.2535	n
-7.2491	johnny
-4.5216	eating
-5.6364	smile
-5.1700	staying
-5.5770	silly
-6.7720	san
-6.4710	folks
-4.7974	suddenly
-5.3570	knock
-5.9481	pardon
-5.0999	everywhere
-4.8837	crowd
-6.9481	henry
-6.0187	beg
-4.9353	stuck
-4.2105	action
-4.9727	upset
-4.6648	driving
-5.0343	seriously
-4.4382	begin
-4.0602	starting
-4.7454	prove
-4.8477	feels
-4.8409	grand
-3.5621	using
-4.6559	guns
-4.5048	legs
-4.9167	nose
-4.4316	pictures
-4.7536	rid
-4.5056	brothers
-7.2491	mum
-3.7693	list
-4.7749	sky
-4.5864	immediately
-5.3461	definitely
-4.0902	college
-4.8460	shop
-4.7306	arm
-4.5265	escape
-5.0532	listening
-4.1817	gas
-4.0004	low
-7.2491	jimmy
-5.0036	self
-5.1884	hat
-4.6157	hole
-5.3515	ray
-5.0588	bell
-4.6008	price
-4.1554	cell
-4.4237	rain
-4.4141	arrived
-4.4812	warm
-3.7435	west
-4.1477	passed
-4.4192	board
-5.2280	boyfriend
-4.7508	nervous
-5.8512	ourselves
-6.9481	london
-4.4902	contact
-4.7346	nor
-4.7126	lawyer
-6.0187	upstairs
-4.5554	lay
-4.2944	closed
-4.9891	gift
-5.2949	devil
-4.9987	favor
-7.2491	tony
-4.8358	empty
-4.8529	prince
-6.9481	papa
-4.9843	suit
-4.6311	press
-4.1299	themselves
-3.9667	writing
-5.5167	asleep
-3.6402	type
-5.5010	grab
-4.7215	spirit
-4.8226	burn
-4.8325	arrest
-4.9395	papers
-3.4646	band
-5.1847	indeed
-6.7720	majesty
-4.2405	pop
-3.1436	played
-4.1402	involved
-4.6228	dogs
-4.6977	agent
-3.9600	above
-4.4554	wild
-4.2117	further
-7.2491	nick
-4.0195	race
-4.6751	spot
-4.6525	fellow
-4.7735	blind
-4.3096	whom
-4.8178	leg
-6.1700	awful
-5.0111	killer
-4.5025	flowers
-5.6694	appreciate
-4.5519	fit
-6.9481	aye
-4.8392	beauty
-3.4838	written
-4.5930	partner
-4.5845	twenty
-4.3678	bird
-7.2491	dick
-3.2994	named
-5.0645	lock
-5.5167	blame
-4.7495	otherwise
-4.1055	heavy
-4.6928	drinking
-4.4471	choose
-4.1467	allow
-4.4289	twice
-5.7177	shouting
-4.7779	magic
-4.7306	waste
-4.6953	address
-5.2579	plenty
-4.6614	raise
-4.5072	flying
-5.0343	notice
-4.2978	learned
-7.2491	gasps
-4.6137	mission
-4.4805	decide
-4.8275	taste
-7.2491	aah
-4.4034	flight
-4.6525	picked
-6.5502	billy
-4.6809	gay
-5.2669	kitchen
-4.4805	experience
-4.6548	fresh
-5.0423	chicken
-4.3111	cost
-4.3359	nature
-7.2491	fucked
-4.7536	hero
-4.6385	shooting
-5.2669	breakfast
-3.8979	places
-4.5510	holding
-4.4276	planet
-3.9251	allowed
-4.4491	search
-4.4835	however
-4.1033	battle
-4.6460	putting
-6.7720	crap
-5.0673	steal
-3.2883	usually
-4.9087	lights
-4.7764	neck
-4.8325	mate
-5.1810	hardly
-3.7955	sold
-4.5365	decision
-4.5441	destroy
-6.2949	sweetheart
-3.8374	study
-3.3985	famous
-3.8925	animals
-4.1309	simply
-5.1156	princess
-4.9591	keys
-3.6853	language
-4.4477	memory
-3.9708	names
-4.7113	worst
-4.9525	throat
-4.6385	herself
-4.3197	interest
-4.8970	faith
-4.7346	guilty
-5.4362	b
-4.0987	ways
-5.8512	shame
-4.1319	director
-4.3548	stone
-5.1773	innocent
-5.1592	bottle
-3.9922	states
-7.2491	mister
-5.1773	pray
-5.4362	bunch
-4.5616	camp
-4.2026	starts
-4.8004	seemed
-4.6395	necessary
-3.5521	form
-3.4185	department
-3.9453	stars
-4.7592	bomb
-3.9872	stage
-4.0953	animal
-4.8855	roll
-3.8179	east
-4.7677	dancing
-4.6311	reading
-4.4703	faster
-5.1188	locked
-4.5282	van
-4.7550	soldier
-3.7967	military
-3.9584	final
-4.5634	apart
-3.9242	match
-3.8543	computer
-5.2077	detective
-4.1273	soldiers
-5.3515	admit
-5.1700	tight
-4.2920	engine
-6.9481	outta
-4.1649	build
-4.5679	treat
-5.0396	sight
-4.5734	closer
-4.2588	huge
-4.2173	complete
-4.7928	excellent
-4.7536	beach
-5.0616	surprised
-4.9503	dressed
-5.9939	ridiculous
-4.3385	bigger
-4.6705	keeps
-5.1488	stole
-4.8460	united
-3.8563	among
-4.6904	hall
-4.8375	danger
-4.1806	itself
-4.8098	cup
-5.2280	knife
-3.9492	support
-4.5998	milk
-4.9127	mention
-4.5323	fired
-5.4857	pants
-3.4914	built
-4.4250	lies
-4.7606	cousin
-4.7720	feelings
-3.3750	main
-5.1592	cook
-3.6861	following
-4.5950	meat
-7.2491	grandma
-5.5416	obviously
-4.7823	ill
-5.1093	angel
-5.8512	screams
-4.4880	risk
-4.4382	plans
-5.7578	bathroom
-4.2410	relationship
-4.8837	tape
-4.2085	taught
-4.8460	sword
-5.3407	forgotten
-5.9704	nonsense
-4.5661	freedom
-4.4224	extra
-4.8342	pregnant
-4.7620	corner
-4.6218	beyond
-5.0161	hiding
-4.5290	belong
-6.9481	sarah
-5.2714	wash
-4.4880	drugs
-4.3061	cars
-6.7720	chinese
-4.2882	skin
-5.2535	breathe
-3.3708	large
-5.9269	gentleman
-4.2085	leaves
-4.5080	driver
-4.2165	health
-4.5940	command
-5.5088	ugly
-4.9107	patient
-3.8605	helped
-4.4526	note
-5.8874	u
-5.7177	f
-5.6157	figured
-4.2101	bridge
-4.5459	strength
-4.1787	greatest
-4.6280	rose
-5.9067	wondering
-5.2949	pig
-4.2121	acting
-6.2077	dumb
-4.7578	horses
-4.0605	level
-5.3047	nuts
-5.9939	w
-4.2202	track
-4.7164	commander
-3.5089	plays
-4.7808	heads
-4.9459	walked
-4.8308	strike
-4.8146	understood
-7.2491	france
-4.1512	rule
-4.4270	turns
-4.4211	weapons
-5.7867	h
-3.5394	common
-6.9481	madame
-4.6018	consider
-6.4040	grunts
-4.1729	according
-4.0950	stories
-4.5598	losing
-4.1758	speed
-4.7823	favorite
-4.0262	tells
-3.8207	due
-5.5416	sheriff
-4.4040	serve
-4.6603	keeping
-4.4963	teeth
-7.2491	japanese
-3.4083	began
-4.5273	da
-6.6471	lee
-5.2760	shirt
-4.8004	rings
-4.5761	spoke
-4.0218	size
-4.4589	feed
-3.6117	held
-6.7720	bobby
-4.3587	coach
-4.2470	dry
-5.1664	pack
-4.0893	ideas
-3.8120	natural
-5.5770	grace
-4.8689	prefer
-4.4034	bottom
-4.8744	balls
-4.0555	mountain
-3.4338	national
-3.8112	movies
-5.2807	witness
-4.3906	view
-5.4783	breath
-4.9503	ticket
-3.8857	energy
-4.6904	emergency
-4.3037	code
-5.4857	hurts
-6.2491	cheers
-4.6671	correct
-4.3012	responsible
-4.2202	earlier
-4.4948	remain
-6.7720	tommy
-5.1628	trick
-5.1592	weekend
-5.9067	inspector
-7.2491	pal
-4.6228	account
-5.7720	ex
-4.6514	usual
-5.0161	hanging
-5.6928	deserve
-5.9481	ringing
-6.9481	groans
-4.0990	showed
-3.7913	example
-4.3840	practice
-4.7088	weapon
-6.7720	grandpa
-4.4430	brown
-3.3557	several
-5.3858	happiness
-6.0731	apologize
-5.0396	monster
-4.2401	pressure
-3.8397	center
-4.6717	coat
-5.3741	silence
-4.8912	prepare
-5.0477	justice
-6.2077	ours
-4.2821	letters
-4.6157	copy
-4.3537	market
-4.5892	operation
-6.9481	jerry
-5.1253	noise
-4.9503	knowing
-4.1732	birds
-4.8781	fill
-4.9249	advice
-4.4122	society
-7.2491	rome
-7.2491	russian
-5.9939	er
-4.8799	cream
-5.0848	ghost
-4.4812	exist
-4.1656	oil
-5.5589	horrible
-5.2491	willing
-5.1488	tie
-3.9481	leader
-4.7495	draw
-4.9796	loud
-5.0423	lift
-4.3799	student
-4.1230	nearly
-4.5151	post
-5.3301	jealous
-5.2321	al
-4.1907	travel
-5.9269	surely
-4.7852	bread
-4.8477	recognize
-5.2038	perfectly
-4.6774	cards
-4.7882	restaurant
-4.1008	older
-4.3167	heat
-4.3712	weather
-4.9028	opinion
-3.7493	games
-6.6471	ve
-4.6097	crew
-4.9987	cake
-3.8519	character
-4.6057	suicide
-4.7306	telephone
-7.2491	bucks
-4.3407	drug
-5.9939	pity
-4.4484	minister
-3.9165	although
-5.1253	introduce
-5.3301	brave
-4.9843	chair
-5.0423	gotten
-5.6471	fantastic
-3.9867	biggest
-5.9704	bless
-4.8082	noticed
-4.7606	wet
-4.5902	helping
-4.8098	priest
-3.8168	shows
-5.5679	thy
-5.7440	nowhere
-4.3353	agreed
-3.8887	meaning
-5.4430	somehow
-5.9939	cheering
-5.0878	truly
-5.0136	gate
-5.2491	nurse
-4.1302	towards
-4.7578	streets
-6.0731	r
-4.9591	paying
-4.9915	horn
-4.4403	slowly
-4.9727	naked
-5.6694	thou
-3.7907	local
-4.0269	style
-4.4257	manager
-4.5348	soft
-5.3515	suspect
-4.5192	spring
-4.3510	grown
-4.5240	dropped
-4.1817	pieces
-5.0731	dig
-5.6694	shake
-4.9939	settle
-6.7720	maria
-5.2491	excited
-5.7578	incredible
-4.5232	possibly
-5.5864	whoever
-5.7306	handsome
-4.3846	ends
-5.4857	lonely
-4.6821	garden
-4.2760	stayed
-4.4710	enter
-4.7280	prepared
-7.2491	saturday
-4.0622	science
-4.5200	weak
-4.4575	arrested
-5.0477	discuss
-4.1246	powerful
-5.5770	screw
-7.2491	dr
-5.2363	fate
-4.2296	split
-4.4128	flat
-4.9704	opportunity
-4.8004	proof
-4.5616	medicine
-4.6774	breaking
-5.1093	loose
-4.8051	gang
-4.6269	trial
-4.8392	speaks
-6.4040	spanish
-5.1253	bite
-4.1071	medical
-5.4498	pleased
-4.7508	murdered
-5.1030	afford
-5.2491	comfortable
-4.6238	snow
-4.8178	bringing
-4.5625	bright
-4.2906	trees
-4.5424	guest
-4.6321	invited
-5.1093	ears
-6.9481	santa
-4.4783	purpose
-3.8081	career
-4.6027	survive
-4.3066	ordered
-3.9311	believed
-4.8818	threw
-4.1710	destroyed
-4.8671	hearing
-4.1204	color
-6.1700	laughter
-4.4660	condition
-4.4436	bodies
-4.4710	mayor
-4.2863	training
-4.9269	manage
-5.0086	victim
-4.9658	finger
-3.9053	opened
-5.5010	pretend
-4.8460	roof
-4.6321	file
-4.0034	numbers
-4.6880	suggest
-5.5331	expecting
-4.2296	lake
-5.7867	ashamed
-4.7138	turning
-4.6311	plus
-4.5969	sees
-5.0908	whenever
-6.7720	chattering
-4.7508	falling
-5.3197	spare
-5.7177	p
-4.5072	farm
-5.4568	rent
-5.2669	repeat
-4.0999	release
-4.5643	sugar
-5.3096	fortune
-5.5416	alarm
-4.0431	students
-4.3924	winter
-4.3264	thousands
-5.6694	insane
-4.1839	base
-3.8243	total
-4.9704	fingers
-4.6671	stops
-5.5959	thief
-4.7346	hill
-5.5167	fancy
-5.0213	stolen
-6.9481	chris
-3.9273	female
-5.0213	tongue
-5.9939	sooner
-6.2077	liar
-4.7359	target
-6.1352	downstairs
-5.1253	matters
-5.5679	joy
-4.3311	subject
-5.0878	mail
-4.7026	criminal
-5.0789	client
-4.4270	easier
-3.7347	received
-5.0264	cheap
-4.8855	brings
-4.6740	pulled
-4.2173	distance
-4.9503	doors
-4.8114	credit
-4.8931	concerned
-5.7177	g
-4.2177	lines
-4.4423	selling
-4.9459	responsibility
-4.9290	harm
-4.4603	castle
-4.9208	grandfather
-4.0893	male
-4.0628	followed
-4.8194	stomach
-4.1824	birth
-4.1607	spread
-3.9686	storm
-5.1773	brilliant
-6.5502	british
-4.3101	opening
-4.6460	paint
-5.4568	slept
-6.7720	piss
-3.9505	returned
-5.1773	lover
-4.6097	universe
-5.2949	hoping
-4.6536	reality
-4.7578	funeral
-5.5010	bath
-4.2624	contract
-5.6809	cares
-5.3858	taxi
-4.2592	trade
-6.4040	lately
-3.7537	video
-6.0187	ed
-4.3776	weight
-5.0588	disappeared
-5.6259	lied
-4.1508	square
-5.6259	tears
-5.0760	march
-4.4554	expected
-4.2728	airport
-4.5323	block
-5.9704	thee
-5.6157	cigarette
-4.3238	eggs
-4.3218	onto
-4.0189	program
-4.7648	defense
-4.4237	forest
-6.1352	unfortunately
-4.8618	pool
-4.6067	tiny
-6.9481	jean
-4.9939	apparently
-5.4362	conversation
-5.2448	super
-5.2998	nights
-4.5988	signal
-4.8818	permission
-5.0702	thoughts
-5.5167	murderer
-4.3455	project
-3.9242	signed
-5.3741	rat
-5.7720	mercy
-4.3598	yellow
-6.4710	dan
-5.3301	checked
-5.6928	desk
-4.1108	covered
-5.6157	shower
-4.8308	clearly
-5.4362	scare
-5.8512	regret
-6.7720	grunting
-4.1505	buried
-3.5365	created
-4.4423	property
-5.6157	remind
-4.7241	planning
-4.9067	swim
-6.2949	merry
-5.2491	pocket
-5.1961	tickets
-4.9796	secretary
-4.6027	path
-3.9121	ended
-7.2491	lt
-4.4724	speech
-4.9569	aware
-4.7735	burning
-4.9704	drinks
-4.5135	pair
-5.5959	glasses
-4.5450	ocean
-4.2664	foreign
-6.5502	yourselves
-5.9269	goodness
-5.3799	waited
-4.2877	page
-4.6077	audience
-4.1220	runs
-4.5010	rise
-4.0972	research
-5.0505	fake
-5.3979	courage
-4.9167	ate
-4.5743	expensive
-4.7293	pure
-4.9773	bullet
-5.1093	photo
-5.9269	yelling
-4.5476	depends
-3.9855	social
-4.7867	warning
-4.4638	belongs
-5.5959	genius
-4.6536	desert
-4.1423	forced
-4.8744	realized
-3.6895	player
-4.9187	grave
-4.6648	map
-4.5616	staff
-4.4645	vote
-4.7838	headed
-4.2304	success
-4.2696	easily
-4.5282	reasons
-5.3461	monkey
-6.4040	italian
-4.9353	rough
-4.7764	journey
-4.0516	create
-5.2998	personally
-5.2535	wise
-4.7793	harder
-3.9625	discovered
-5.0560	guests
-5.0136	sudden
-3.4497	television
-4.4329	silver
-4.0434	higher
-5.0999	breathing
-4.0920	fought
-4.9228	pounds
-4.5959	fixed
-3.7631	political
-4.4547	add
-4.3126	painting
-4.3741	mountains
-5.6364	suck
-4.0453	lower
-3.7251	century
-5.0111	desire
-4.4798	failed
-3.2817	football
-7.2491	monday
-4.7177	badly
-3.9026	ancient
-4.2050	below
-6.2077	jerk
-4.7373	factory
-4.8443	sending
-4.3052	records
-4.9395	clock
-6.7720	william
-3.9249	changes
-3.5657	member
-4.2642	piano
-5.6928	lesson
-5.2280	heading
-4.9796	carefully
-4.5433	gods
-5.1810	rush
-5.4710	lips
-4.2440	unit
-4.5216	tall
-4.6067	safety
-5.1592	letting
-5.6057	bedroom
-7.2491	americans
-6.2491	disgusting
-6.9481	adam
-4.5643	finding
-4.4205	therefore
-3.7136	season
-4.1430	points
-5.9481	china
-4.8409	thirty
-5.0317	odd
-5.0731	revenge
-4.4940	wood
-5.2535	clever
-4.3066	royal
-3.6198	parts
-4.9750	divorce
-4.2165	artist
-6.5502	christian
-6.2077	someday
-4.9008	suffer
-5.3683	wherever
-5.4296	dawn
-4.0854	rights
-4.0116	grew
-4.6197	union
-4.4940	nation
-4.0777	theory
-4.6311	laid
-6.1030	champagne
-5.1736	mood
-5.5416	useless
-6.2949	awesome
-4.4776	filled
-5.2157	soup
-4.5854	officers
-5.7051	miracle
-3.9766	university
-4.1810	model
-5.2854	hung
-3.8315	period
-4.9591	opens
-5.1156	smoking
-5.3515	toilet
-5.1188	ear
-5.1253	deliver
-6.7720	babe
-4.7333	golden
-5.5770	hearts
-4.8689	cheese
-4.5502	victory
-4.0225	plant
-4.6928	proper
-4.3504	planned
-4.2701	shape
-4.4109	showing
-5.5959	ruin
-4.2811	growing
-5.4231	vacation
-3.8805	reached
-4.6269	doctors
-4.7793	honour
-4.2461	legal
-4.8653	faces
-5.2117	ruined
-4.4141	governor
-3.7578	original
-5.9067	butt
-5.0317	request
-4.5450	issue
-5.4933	refuse
-3.9393	per
-4.6614	carrying
-4.6774	crash
-6.4040	honestly
-5.5331	bride
-5.1961	exciting
-5.6581	awake
-5.3515	cow
-5.0848	load
-6.6471	pa
-4.0351	forces
-6.0450	smith
-3.5024	based
-5.1156	grant
-5.3353	woods
-4.7495	suffering
-5.8874	scream
-4.4986	knowledge
-6.4710	freak
-4.6067	temple
-4.5598	romantic
-5.7578	decent
-4.7454	hidden
-6.4710	joking
-5.3301	midnight
-4.6428	passing
-4.2935	younger
-4.9773	arrive
-5.3979	sin
-4.1093	becomes
-5.5679	jacket
-4.9353	insurance
-6.2949	kinda
-5.0036	investigation
-3.6892	professional
-4.6300	millions
-5.5502	invite
-5.7177	boring
-6.1700	bang
-5.2280	wolf
-5.1286	mirror
-7.2491	lucy
-4.7536	fan
-4.9249	dies
-4.5502	walls
-5.8512	charming
-5.0012	saint
-3.6462	members
-5.0111	obvious
-4.4610	avoid
-5.5167	bike
-5.1286	sat
-4.7101	assistant
-4.4296	workers
-4.7426	talent
-4.8308	fifty
-5.2807	touched
-5.9067	stranger
-4.9569	chest
-4.1667	regular
-4.9915	buying
-5.3096	tear
-4.4857	jobs
-4.2531	particular
-5.0290	guards
-4.4065	recently
-4.4416	image
-6.4040	indian
-4.3930	finds
-6.9481	brian
-5.1847	trap
-4.6821	interview
-4.9547	familiar
-4.6228	burned
-5.8874	eve
-4.7426	celebrate
-5.1188	memories
-5.0086	shock
-4.6809	details
-4.4450	iron
-4.2222	wide
-6.9481	marie
-4.7481	hunt
-4.4336	emperor
-4.9311	poison
-4.7113	flower
-5.8689	destiny
-4.8989	prisoner
-4.6107	bones
-5.0264	dollar
-4.8744	rooms
-4.5192	owner
-5.2998	crack
-5.3197	brains
-5.3249	appointment
-5.5679	glory
-4.6965	violence
-5.6694	cab
-4.8818	riding
-4.7228	enemies
-4.7958	chocolate
-4.7974	sisters
-5.1999	meal
-5.4857	hook
-5.5010	freeze
-6.3461	damned
-5.2491	candy
-5.0673	sometime
-4.7151	x
-5.1700	shots
-4.0330	raised
-4.6525	tower
-5.1253	grandmother
-5.9067	ng
-4.7426	stood
-7.2491	bravo
-4.9107	dust
-6.4040	alan
-5.2448	precious
-5.2901	warn
-5.8689	toast
-5.5589	virgin
-5.4296	bags
-4.1992	appear
-3.7258	caused
-5.3979	pride
-4.9773	switch
-4.1464	community
-5.6809	thunder
-4.6798	pilot
-4.1847	damage
-4.7943	watched
-3.7401	led
-5.4638	loving
-4.4396	changing
-4.4902	confused
-4.7867	rice
-5.5679	knees
-4.0527	coast
-6.0187	beast
-3.7919	songs
-4.8653	babies
-5.1736	duke
-4.4761	mentioned
-4.8564	silent
-4.3894	tour
-6.0731	grateful
-4.5323	sons
-3.8910	central
-4.5845	traffic
-4.0220	fourth
-4.0538	actor
-3.8455	official
-6.5502	victor
-5.8874	applause
-4.5265	armed
-4.3672	moves
-4.6536	palace
-4.3450	families
-4.2610	troops
-4.3504	rate
-4.1671	writer
-4.6117	hired
-4.7495	junior
-4.0467	process
-4.2584	carried
-4.5826	committed
-4.8970	beating
-3.9416	amount
-4.4754	percent
-4.8375	false
-5.0136	affair
-5.5502	rob
-5.6471	frightened
-4.9773	license
-4.4910	falls
-4.7413	tied
-4.4382	offered
-5.3799	bull
-4.4667	direction
-4.9228	fallen
-5.0136	saving
-5.7440	knocking
-4.9067	snake
-7.2491	pussy
-6.9481	cos
-4.6786	holiday
-7.2491	indistinct
-4.8547	theater
-4.4356	loss
-6.2949	k
-5.7440	mighty
-7.2491	germans
-5.9269	whistle
-4.7038	youth
-5.5770	smells
-5.5010	lab
-5.4783	boom
-4.1512	border
-4.6717	ordinary
-5.2321	kicked
-7.2491	mexico
-4.4198	cast
-4.8308	drove
-5.0238	answers
-4.7215	statement
-4.7720	rescue
-4.7440	sharp
-5.0396	creature
-4.8512	zero
-5.9939	sexy
-4.4681	receive
-5.6259	borrow
-5.0645	uniform
-6.4710	unbelievable
-4.8477	naturally
-4.1866	humans
-5.3627	treasure
-5.2624	flesh
-4.7663	row
-4.8358	friendly
-3.6841	modern
-4.4540	score
-6.2949	screwed
-4.7974	neighborhood
-5.5416	pills
-6.9481	highness
-3.9567	studio
-5.3249	fail
-4.2544	positive
-4.7333	escaped
-4.7779	tip
-4.6374	defend
-4.8051	complicated
-4.4512	eaten
-4.6342	hunting
-5.4638	darkness
-4.7838	steps
-4.1674	disease
-5.3858	el
-7.2491	groaning
-4.3218	cases
-4.9127	climb
-3.7253	role
-6.5502	terrific
-3.9699	event
-4.6728	egg
-6.5502	joey
-4.2579	effect
-4.9636	seek
-4.8292	revolution
-5.4498	disappear
-3.4003	including
-5.2157	chase
-4.8837	shopping
-4.4443	wave
-4.3444	houses
-4.9636	fed
-5.1773	mystery
-5.3249	blows
-4.4835	rocks
-6.7720	nah
-5.1884	attorney
-5.6259	stairs
-4.3660	newspaper
-4.6197	presence
-5.4568	beloved
-4.9987	rope
-5.9269	delicious
-6.2077	comrade
-4.9867	dragon
-5.0111	bow
-7.2491	roy
-4.3348	section
-5.2535	pot
-6.9481	pissed
-4.4205	winner
-5.2280	barely
-4.5598	fishing
-5.0086	senator
-5.1664	aboard
-5.0818	hated
-4.8098	healthy
-5.6157	curious
-4.1204	mass
-4.9867	grade
-6.6471	leo
-5.2198	aside
-4.7228	bone
-7.2491	gettin
-4.8744	wire
-5.8689	terribly
-5.3407	bleeding
-4.2338	attacked
-5.8178	nasty
-6.0187	staring
-5.2669	yard
-5.1810	button
-4.7189	prisoners
-4.5184	kingdom
-4.8426	quarter
-5.5416	secrets
-4.7333	plate
-5.8512	dump
-4.5502	tail
-5.1999	sacrifice
-5.6157	bored
-4.5959	stronger
-4.5232	salt
-3.9690	metal
-4.6525	talks
-4.6798	sand
-4.1582	cancer
-4.6493	films
-6.2949	subtitles
-4.4116	fruit
-4.5208	claim
-6.5502	barking
-4.3477	goal
-5.8689	penny
-5.0343	concern
-6.4710	clears
-5.1773	shadow
-7.2491	beeping
-4.8426	firm
-5.0086	friendship
-4.5151	powers
-4.1256	becoming
-4.4596	prime
-4.7126	advantage
-5.3683	picking
-5.5331	punch
-5.1124	stealing
-5.1884	wishes
-5.3301	non
-5.2198	steady
-4.3882	extremely
-4.6097	protection
-5.0938	tiger
-4.4761	giant
-4.5167	edge
-4.4667	hundreds
-5.6809	woke
-7.2491	chuck
-5.9269	loser
-5.2535	assume
-5.2117	behave
-4.3306	direct
-4.9525	windows
-5.4296	blew
-4.3954	managed
-5.0789	pen
-4.4078	chose
-4.7764	wheel
-5.2714	drag
-4.1780	sexual
-5.3683	passion
-5.4498	maid
-3.7581	county
-5.8689	chick
-4.3056	magazine
-4.5598	remove
-6.9481	jenny
-7.2491	panting
-5.5864	checking
-4.0783	available
-5.3249	spell
-4.1949	terms
-4.8098	engaged
-4.5306	focus
-4.7076	stock
-4.5290	valley
-5.3627	duck
-4.7749	wounded
-4.4409	treated
-4.2673	chosen
-4.2317	likely
-5.1700	wound
-4.2579	object
-4.8409	sale
-4.1653	spoken
-6.3461	j
-6.7720	buck
-5.8020	mummy
-4.9107	tank
-5.2998	pie
-4.4739	notes
-5.8342	shout
-6.4040	guts
-6.0450	dreaming
-5.0111	bound
-5.6928	scary
-4.9867	reporter
-4.1667	physical
-4.9569	basically
-4.7413	hop
-4.3012	value
-4.0544	surface
-4.1915	remains
-5.0061	closing
-5.3741	moments
-5.7306	ou
-5.6364	slip
-4.0566	result
-4.6428	politics
-3.4997	popular
-4.8325	slave
-4.6037	reports
-5.2198	chances
-5.6694	desperate
-5.3047	los
-5.0999	photos
-5.7578	shine
-4.7735	joint
-3.6871	mostly
-4.4316	rare
-4.9613	dealing
-6.9481	hitler
-4.9939	throwing
-5.2854	witch
-3.7122	served
-5.1736	pulling
-5.0818	jury
-5.8689	intend
-4.6364	connection
-4.6228	wings
-4.0184	kinds
-6.4710	com
-6.5502	gorgeous
-4.7838	pink
-5.1884	cruel
-5.5679	bury
-5.2949	doll
-4.5127	unusual
-5.0012	facts
-4.2891	education
-4.9008	challenge
-4.0335	range
-4.4933	brand
-6.9481	pee
-5.2714	elevator
-4.5969	equipment
-5.4231	shy
-4.6626	screen
-4.7386	sentence
-5.3741	rabbit
-4.9915	apple
-4.1253	production
-5.1522	swing
-5.4166	circumstances
-6.9481	india
-4.5670	prize
-4.6892	marks
-5.1700	deeply
-5.2901	attitude
-4.1949	laws
-5.3096	blowing
-4.6406	authority
-6.6471	jewish
-4.7202	wing
-4.8931	mile
-5.0086	shoulder
-6.2491	coward
-4.0664	site
-5.5770	cigarettes
-4.8114	committee
-3.8037	considered
-4.7735	charges
-4.4589	thus
-4.8818	advance
-4.2077	material
-5.5249	closes
-6.7720	june
-4.2097	mixed
-5.4040	ambulance
-4.7215	earn
-5.0532	cleaning
-5.0532	convinced
-4.5563	exchange
-4.1423	eventually
-6.7720	hong
-4.0959	separate
-6.4040	co
-5.5416	rude
-4.3723	begins
-4.8342	cooking
-6.7720	kitty
-5.0396	progress
-4.7677	collect
-5.2949	curse
-4.2453	winning
-6.1700	wasting
-4.5679	chain
-4.6880	understanding
-5.0238	cure
-4.9939	properly
-4.2284	performance
-3.9004	international
-5.1700	spy
-4.8275	capable
-4.8799	noble
-4.7793	swimming
-5.2280	juice
-6.1030	confess
-4.5265	champion
-4.3906	settled
-4.1299	source
-4.6845	circle
-4.3450	results
-4.8292	plain
-5.5770	sue
-4.4674	twelve
-4.3096	directly
-4.5323	illegal
-5.8512	rotten
-6.4710	lad
-4.7164	thrown
-4.7720	intelligence
-4.1430	leading
-5.3683	minds
-4.0569	movement
-4.8051	grass
-5.9481	kissed
-4.2588	appears
-5.0999	squad
-5.3407	jungle
-4.8051	bond
-6.2491	miserable
-4.8146	effort
-3.4592	series
-5.0588	knocked
-4.9228	expert
-6.9481	filthy
-4.8547	belt
-4.9891	customers
-5.3047	na
-5.1773	counting
-4.6428	lets
-4.5240	thin
-5.0818	commit
-4.6977	solution
-5.2854	mistakes
-5.4857	boots
-4.6603	remembered
-4.5257	punk
-4.3782	competition
-4.4160	treatment
-5.4166	guarantee
-4.8035	victims
-4.4362	stands
-7.2491	sara
-5.8689	cheer
-4.8689	sheep
-5.4933	pleasant
-4.3805	guitar
-5.4430	garbage
-4.3782	access
-4.2760	ships
-5.8178	bust
-3.7614	district
-4.2825	federal
-4.4028	flag
-5.5416	panic
-4.5143	council
-5.5959	pizza
-5.0908	extraordinary
-5.5249	deny
-4.8130	reputation
-4.7306	patients
-7.2491	spain
-6.9481	ali
-6.2491	nightmare
-5.1557	bush
-4.6460	asks
-5.1488	deck
-4.8392	express
-5.7720	blessed
-5.1453	bullets
-3.6520	term
-5.3979	hunter
-3.4559	former
-5.8874	fu
-6.0187	insist
-4.8600	estate
-7.2491	italy
-5.9067	th
-5.2491	schedule
-6.1352	assure
-5.4568	hates
-4.9704	navy
-5.1884	debt
-5.0396	fever
-5.0532	surrender
-3.8012	joined
-5.1253	reward
-4.3894	negative
-7.2491	julia
-5.3979	ease
-5.7867	fetch
-5.6809	imagination
-4.5216	studying
-5.2854	garage
-5.2280	jumped
-4.5537	signs
-4.3554	billion
-4.9704	punishment
-5.3741	shoe
-4.7386	threat
-5.1319	afterwards
-5.0560	wanting
-4.5789	degrees
-4.7228	zone
-4.7228	solve
-3.8412	title
-4.4948	parties
-4.5331	policy
-4.8130	ages
-6.6471	cock
-4.6880	conference
-4.3805	accepted
-4.6249	entirely
-4.5088	trained
-5.3570	robbery
-6.7720	someplace
-4.8392	crown
-4.5715	leads
-4.3466	religion
-5.1188	lion
-5.2448	hire
-4.8744	guide
-5.0588	bay
-5.0396	servant
-4.7838	demand
-5.9481	mac
-5.5249	trash
-4.9796	tone
-6.1700	foolish
-4.8618	vision
-6.2949	supper
-5.9704	bible
-3.2258	released
-4.5715	unknown
-4.8460	voices
-4.6504	hip
-3.9713	successful
-4.4761	route
-4.4681	lack
-4.9249	trapped
-4.3799	port
-4.7808	cats
-5.7440	spit
-5.0238	unhappy
-5.1061	dozen
-5.2157	dirt
-4.7280	crossed
-4.2089	helps
-4.3570	media
-4.3997	location
-5.8689	paradise
-4.7267	puts
-4.6077	exact
-4.5232	learning
-4.9636	secure
-6.7720	whispering
-4.2601	culture
-4.8799	stays
-6.9481	april
-6.9481	lousy
-5.1922	confidence
-5.1736	deaf
-5.6928	rip
-5.3461	fox
-7.2491	bum
-5.8342	urgent
-4.4940	failure
-5.0532	le
-4.9228	hitting
-4.9416	sensitive
-5.3570	tricks
-4.5643	library
-5.1124	mask
-4.9820	gather
-4.9167	stopping
-5.1319	warned
-4.3285	highly
-4.7989	searching
-4.3906	useful
-5.3461	tires
-4.9208	forty
-5.2624	narrator
-5.2405	gentle
-5.3096	convince
-5.0938	favour
-6.6471	sobbing
-4.8051	background
-5.5416	suits
-4.5056	solid
-4.4250	greater
-4.8375	cutting
-4.5135	quality
-4.6953	alcohol
-6.1352	wipe
-4.7495	launch
-4.7202	approach
-5.3979	sweat
-4.5450	steel
-4.6786	tests
-4.9636	explosion
-5.5331	disappointed
-4.4022	headquarters
-5.4638	alert
-4.2218	fifth
-5.2363	rolling
-4.8912	script
-5.8178	lend
-4.5290	agreement
-4.7749	costs
-4.1460	nuclear
-5.1884	attractive
-4.5625	toward
-4.8855	aim
-4.7943	latest
-4.7943	tune
-4.8547	agency
-5.6809	proceed
-4.8653	spending
-4.4603	teaching
-4.7267	sacred
-4.6177	vehicle
-4.7426	childhood
-4.6581	empire
-4.0941	events
-4.5959	arranged
-4.8989	vice
-6.5502	st
-5.4638	satisfied
-4.5240	fashion
-6.2491	coincidence
-5.7867	farewell
-4.9867	argue
-4.7177	setting
-7.2491	rick
-5.4103	arrange
-4.3096	opposite
-4.8529	fairy
-5.7440	gunshot
-4.6763	violent
-4.4484	mental
-5.2491	loaded
-5.3146	approaching
-4.8653	disaster
-5.3918	witnesses
-5.2321	anger
-5.4362	quietly
-4.7254	breaks
-4.5041	refused
-4.8098	fifteen
-5.3799	hurting
-5.3301	mistress
-4.3610	museum
-4.7051	tax
-6.1030	miller
-4.9820	flash
-4.6869	pushed
-5.8020	conscience
-4.0569	data
-5.9067	embarrassing
-3.5952	capital
-4.4917	channel
-5.7051	dean
-6.0187	lily
-4.9987	gray
-4.8799	struggle
-4.0953	sports
-5.0423	parking
-4.5224	senior
-5.9481	roman
-5.4783	chasing
-6.7720	reckon
-3.9061	singer
-6.2077	anytime
-5.2998	cap
-4.8275	stones
-5.0450	firing
-5.1419	handed
-5.0645	beside
-5.1319	walks
-4.5467	daily
-4.4349	fully
-5.7306	clue
-5.2448	souls
-5.4040	diamond
-4.7101	kills
-4.8600	abandoned
-4.6659	banks
-5.1999	circus
-7.2491	gimme
-5.3249	torture
-4.9963	shift
-4.9374	clouds
-4.1195	actress
-6.0450	closet
-4.5002	hits
-5.0450	presents
-4.8762	creatures
-5.1319	forth
-5.4103	comfort
-4.2844	article
-4.9187	prayer
-6.5502	li
-4.9481	explanation
-4.9891	loan
-4.7026	entrance
-4.4710	attempt
-4.4484	mi
-5.7051	kissing
-6.5502	fools
-4.5323	fields
-5.9067	sucks
-5.2198	trace
-3.9869	civil
-4.7440	orange
-4.6008	despite
-4.3136	particularly
-5.6928	scratch
-5.8178	carol
-5.0036	nerve
-5.6057	outfit
-4.4028	conditions
-5.2077	customer
-4.1884	degree
-4.4257	campaign
-4.8226	flies
-6.1352	patience
-4.2751	entered
-5.6157	id
-4.3455	concert
-5.3146	bills
-4.6406	ceremony
-5.2535	concentrate
-5.9704	cheat
-5.3741	chat
-5.5770	practically
-5.7867	starving
-4.6249	citizens
-5.0645	spirits
-4.5798	ending
-5.6157	noon
-4.3504	baseball
-5.3858	cabin
-5.1522	detail
-4.9613	incident
-6.4710	hug
-4.7113	planes
-4.7898	surgery
-4.4128	suffered
-5.4710	ghosts
-4.2363	services
-4.7764	hills
-6.7720	indians
-5.0616	pushing
-5.8020	generous
-5.1124	pipe
-6.1700	whiskey
-7.2491	goodnight
-5.7306	selfish
-5.1061	alien
-5.5589	neighbor
-3.6751	similar
-5.2998	pigs
-4.7691	drawing
-5.1592	delivery
-4.9547	lifetime
-4.6197	mix
-5.8178	hail
-4.5357	supply
-4.6786	struck
-5.1319	bat
-4.8744	files
-5.6928	cents
-4.7177	transfer
-4.4173	sides
-6.6471	jin
-4.0483	opera
-5.4430	bug
-5.3301	jokes
-4.2655	provide
-5.4638	angels
-4.1108	design
-4.6694	behavior
-5.0343	affairs
-7.2491	ken
-5.2280	pour
-6.0450	heavens
-5.1286	mysterious
-3.8012	current
-5.1453	instance
-4.8600	cave
-4.2518	connected
-5.4638	gear
-5.7177	passport
-5.1488	announcer
-4.6238	dating
-5.0036	beaten
-4.7974	legend
-4.7399	enjoyed
-4.9704	nephew
-5.2405	belly
-4.0571	religious
-4.8781	dancer
-4.3369	producer
-4.9547	exercise
-4.6097	thick
-5.5167	ignore
-4.4491	fuel
-5.8512	traitor
-4.4457	technology
-6.6471	frankly
-6.7720	pat
-6.9481	cd
-5.5959	cried
-5.5502	lane
-4.6809	believes
-5.1592	touching
-5.3627	bowl
-5.1961	butter
-4.9681	bombs
-6.0731	francs
-4.5306	theatre
-7.2491	doo
-4.9773	intelligent
-4.9727	net
-5.4710	betrayed
-5.4362	basement
-5.8178	wasted
-5.9939	footsteps
-4.9311	downtown
-4.4289	defeat
-5.0317	bars
-4.9269	distant
-4.4342	surrounded
-5.6157	bells
-5.4166	impression
-4.9987	toy
-4.4154	sport
-6.4710	wallet
-5.1961	trunk
-4.6626	homes
-4.9438	partners
-4.6705	wore
-5.9939	coke
-5.8874	turkey
-4.6626	accused
-5.5416	diamonds
-4.6581	plastic
-4.8375	landing
-5.9067	dreamed
-4.2954	territory
-5.2198	obey
-6.0450	marshal
-4.9374	fort
-5.1700	trail
-4.1934	league
-5.0560	kidnapped
-4.8392	shore
-4.8547	task
-5.4296	trusted
-3.9459	western
-4.5864	wins
-5.1628	impressed
-5.9481	strangers
-5.9067	confession
-5.0818	rape
-5.1319	rats
-5.8020	embarrassed
-5.6471	begging
-4.5679	motion
-5.1847	blast
-5.1453	mouse
-6.7720	growling
-5.1736	merely
-6.9481	lads
-5.0673	package
-6.7720	busted
-6.1030	anti
-5.2038	monk
-5.2491	wives
-4.9681	agents
-4.5864	seats
-4.1847	division
-4.8689	balance
-5.5864	inform
-4.8342	citizen
-4.5433	waves
-7.2491	moscow
-5.3146	accent
-6.4710	jo
-5.7578	un
-5.4710	sandwich
-5.1030	cameras
-5.0477	beings
-4.7974	attend
-3.8925	shown
-5.4710	policeman
-5.4430	reasonable
-5.6694	robin
-4.9750	tunnel
-5.4430	routine
-5.4568	neighbors
-4.3817	perform
-4.8477	drew
-5.7578	recall
-5.3301	eternal
-5.3741	drank
-6.9481	awfully
-4.2242	influence
-4.5298	figures
-6.7720	greek
-4.7051	poetry
-5.6809	liberty
-5.8512	swell
-5.2280	painful
-6.0731	ye
-5.9067	smiling
-5.5010	suspicious
-5.1847	knight
-5.9704	earl
-4.1646	reported
-4.2054	units
-6.2949	chill
-6.2491	tits
-5.7578	admiral
-6.3461	coughing
-4.7038	holes
-5.5679	adjusted
-6.9481	moron
-6.4040	jay
-7.2491	prick
-4.8130	everyday
-4.9939	rifle
-4.8547	bishop
-7.2491	beth
-5.2998	clients
-5.2854	robbed
-4.8818	hoped
-5.7720	warrant
-5.5249	fond
-5.0731	rocky
-4.4667	unique
-5.3799	marrying
-4.6238	goods
-5.1773	pound
-4.3162	ability
-7.2491	slut
-5.3461	crush
-5.7306	thieves
-4.9939	golf
-5.5416	stake
-5.5010	fence
-3.9307	players
-6.4040	woo
-5.4040	cleaned
-5.3741	patrol
-6.5502	sire
-5.2321	resist
-7.2491	stan
-7.2491	hee
-4.7989	cloud
-4.6417	chairman
-4.9187	traveling
-5.4362	habit
-6.2949	thirsty
-5.2198	pays
-5.2321	blown
-4.2968	von
-6.3461	bothering
-4.7974	messages
-4.9525	possibility
-5.4430	lovers
-4.1780	novel
-4.1911	normally
-7.2491	august
-5.3858	mistaken
-6.5502	reverend
-5.6057	enjoying
-5.5331	wagon
-4.8912	emotional
-5.2405	packed
-4.9481	widow
-6.7720	dope
-6.3461	boo
-5.6157	cheating
-4.6493	machines
-4.7373	atmosphere
-5.4498	v
-4.4568	generation
-6.2949	siren
-5.8874	delighted
-5.2579	exit
-5.1628	beef
-4.7306	exists
-7.2491	gus
-4.6482	tracks
-4.2535	collection
-5.4498	precisely
-6.0450	bud
-4.6417	principal
-3.9872	actors
-5.4568	nail
-5.7440	disturb
-5.7440	skip
-6.9481	july
-5.1847	trigger
-4.5616	passes
-4.9773	crisis
-4.6809	identity
-4.2042	describe
-5.4498	sins
-5.5864	reminds
-5.0999	washed
-5.3741	sink
-5.1286	stretch
-4.7779	instructions
-5.1188	sail
-4.0249	average
-5.3146	demon
-5.3741	dough
-5.8874	worries
-5.8512	baron
-6.0731	worrying
-4.9228	charity
-5.5167	magnificent
-4.9481	pet
-4.6928	existence
-5.6581	wondered
-7.2491	francis
-5.2157	photograph
-5.8020	complain
-5.3096	answered
-5.7306	wicked
-4.4010	flow
-4.2877	invented
-4.8495	visiting
-7.2491	nigger
-5.7867	halt
-4.7823	aid
-3.9466	designed
-4.6592	underground
-5.6581	charm
-4.7306	cattle
-4.7293	owns
-5.3407	occasion
-4.9891	worker
-4.5323	survived
-3.5306	species
-5.8874	hood
-5.2363	nerves
-6.7720	moaning
-4.1529	electric
-5.4430	jam
-4.0580	throughout
-3.6688	countries
-6.1700	purse
-5.4568	pretending
-4.9438	smooth
-5.1628	divine
-4.9569	seal
-4.8653	lessons
-5.1628	hopes
-5.9269	comrades
-4.1550	temperature
-6.5502	september
-4.7373	experiment
-5.7578	chop
-6.0187	ta
-4.5688	tradition
-7.2491	jonathan
-6.9481	dont
-5.2117	heroes
-4.2954	equal
-4.6728	virus
-6.9481	bo
-5.3301	tragedy
-5.1061	gates
-4.3359	organization
-4.9228	powder
-4.7241	martial
-5.9704	splendid
-4.9525	mud
-5.6057	wrap
-4.4270	sang
-4.2105	standard
-7.2491	beeps
-4.8194	begun
-4.8707	valuable
-5.8512	couch
-4.7677	delivered
-4.8582	contest
-4.6892	flew
-5.7578	realise
-4.7550	skills
-4.5780	arts
-5.3407	ad
-4.7793	highway
-6.1700	homework
-5.3627	informed
-5.8178	interrupt
-4.7620	threatened
-4.3380	tries
-4.3846	industry
-4.8477	print
-4.8243	pole
-5.3918	ward
-5.0560	offering
-4.4186	theme
-5.1847	criminals
-4.4309	fans
-4.7454	soap
-4.4660	string
-4.2313	scientific
-5.2669	impressive
-5.2198	farmer
-5.1628	punished
-6.4710	fabulous
-6.0187	kung
-4.5950	gain
-4.9503	adventure
-5.6157	commissioner
-4.5502	poem
-4.9459	discover
-4.4902	financial
-4.5836	issues
-6.1352	whistling
-5.1352	inch
-4.5041	colour
-5.6928	teddy
-5.5416	escort
-5.0789	burns
-5.9481	polish
-5.2038	vampire
-5.1061	beats
-5.3627	chef
-5.1557	frozen
-5.1810	pro
-5.8178	headache
-4.9187	dramatic
-4.2376	network
-4.2038	centre
-6.7720	ba
-6.4040	yell
-4.2651	scientists
-4.4498	electricity
-5.4296	invitation
-4.5836	waters
-5.1488	furniture
-4.3280	reaction
-6.2077	suitcase
-4.3924	device
-6.9481	chatter
-5.3197	bend
-4.1843	basic
-5.0161	instrumental
-6.1030	slap
-4.2701	earned
-4.1578	systems
-5.5679	cowboy
-3.8975	highest
-3.4492	related
-4.6008	classes
-6.1352	stubborn
-4.2872	divorced
-3.7844	studied
-7.2491	wee
-3.8053	developed
-4.7989	destruction
-5.1557	praise
-5.3918	bottles
-4.7177	cable
-5.7578	manners
-5.8689	laundry
-5.0136	interests
-4.9681	beneath
-4.8689	moral
-4.1888	schools
-5.0673	lightning
-4.7838	authorities
-4.7808	engineer
-5.2624	permit
-5.1922	behalf
-4.7823	fighter
-3.9376	smaller
-5.3799	swallow
-6.2491	messed
-6.3461	whispers
-3.9556	plants
-6.0450	deserves
-5.1557	knee
-4.3071	holds
-5.6471	clown
-5.9939	shouts
-5.8178	latin
-4.1207	placed
-6.5502	doorbell
-5.6471	worthy
-5.3249	cinema
-5.4231	cage
-5.6694	es
-5.1847	finest
-4.9820	favourite
-5.9481	waiter
-6.1352	junk
-3.8138	appeared
-4.7749	strip
-5.6364	guilt
-4.3311	removed
-4.5407	passengers
-6.4710	buzz
-5.4231	kit
-4.9290	deputy
-6.7720	granny
-5.0370	underneath
-6.2491	hers
-4.5176	shark
-4.4147	construction
-4.7943	newspapers
-5.0999	eagle
-4.5290	poet
-5.3858	cliff
-4.3510	painted
-5.1124	sounded
-4.8426	absolute
-4.3213	captured
-4.8726	boats
-5.0343	counts
-5.0213	peaceful
-6.1030	madness
-6.2949	softly
-5.7720	slipped
-5.2998	considering
-4.3515	effects
-4.3632	prevent
-5.8342	snap
-4.5143	sets
-5.0213	ambassador
-4.7691	decisions
-5.3146	listened
-5.9704	honeymoon
-5.9269	bail
-5.5770	beard
-5.1488	superior
-5.6364	hut
-5.9067	yen
-5.5864	underwear
-4.9311	tale
-7.2491	heck
-5.1592	warrior
-5.3858	chip
-4.8259	crimes
-5.2157	bitter
-4.6740	injured
-4.7495	returning
-5.7440	contrary
-4.9067	terrorist
-3.7501	uses
-5.1352	shelter
-5.3096	hid
-4.6536	eleven
-7.2491	scoffs
-5.5959	mount
-5.5331	dealer
-5.1557	forbidden
-4.6717	limit
-5.6928	liquor
-5.5331	imagined
-4.7467	chamber
-5.0111	sauce
-4.0993	produce
-5.7177	odds
-4.8375	combat
-6.0187	baker
-5.1922	corn
-5.1922	costume
-4.5950	potential
-4.6047	images
-5.7578	cries
-4.9681	yards
-5.1453	succeed
-4.6751	argument
-5.5249	propose
-5.3461	shed
-5.6928	insult
-4.8392	relatives
-4.9963	pitch
-5.0878	beans
-5.5088	salad
-4.2682	complex
-5.7306	corpse
-5.1773	commission
-5.9704	meanwhile
-5.1847	murders
-6.0450	raining
-5.9269	gym
-5.7867	lazy
-4.3066	nearby
-4.7076	landed
-4.6603	granted
-5.6057	roses
-5.5502	goat
-7.2491	scum
-5.4103	foul
-6.9481	beep
-5.0848	operator
-4.4283	meters
-6.4040	yells
-5.0999	helicopter
-4.3493	acts
-4.7001	internet
-5.0702	frame
-5.4430	cancel
-4.7578	link
-5.7306	exhausted
-5.2198	pin
-6.4040	daisy
-6.1030	absurd
-4.7306	slaves
-5.3461	hammer
-5.9269	admire
-5.2949	tastes
-4.7426	identify
-4.9332	benefit
-5.5864	corrected
-4.6717	motor
-5.3570	quarters
-5.2038	boxes
-5.0673	gifts
-6.5502	greetings
-5.7440	ace
-4.2384	election
-4.4688	replace
-5.0560	therapy
-4.9867	loyal
-3.8827	cities
-4.2719	specific
-5.6809	blonde
-5.8020	catholic
-5.4166	troubles
-4.6147	et
-4.7481	fantasy
-4.4732	confirmed
-5.3047	punish
-4.7928	daughters
-5.4857	dressing
-4.5780	charged
-4.4179	represent
-5.1453	cleared
-5.5249	custody
-5.2280	mothers
-5.0450	clan
-3.7821	version
-5.1810	dive
-4.9208	elephant
-6.5502	si
-4.1603	native
-5.2760	counter
-4.9167	jumping
-4.1188	cells
-5.2491	prayers
-5.7051	dumped
-4.7293	skull
-4.8671	stroke
-4.6928	determined
-4.8194	fights
-5.6809	pearl
-6.0450	rubbish
-5.1592	romance
-5.2854	freezing
-5.9067	anxious
-4.8653	teachers
-5.8689	avenue
-6.0450	naughty
-4.3967	product
-4.2579	individual
-4.7928	communist
-5.1961	tooth
-5.4710	gambling
-5.4933	shoulders
-5.4362	timing
-4.7522	rocket
-5.9067	grief
-5.4638	brush
-6.9481	sucker
-5.4568	chicks
-5.0789	enormous
-4.4994	actions
-4.8130	testing
-5.9939	alley
-5.2901	humanity
-5.3096	lawyers
-4.8460	brief
-4.6751	personality
-4.8162	documents
-5.0616	assault
-5.5167	judgment
-4.8051	literally
-5.4430	potatoes
-5.2579	robot
-4.7606	angle
-4.5519	mobile
-5.4296	invisible
-4.8194	drives
-4.8799	sends
-4.8004	pope
-4.4016	status
-5.2901	profit
-5.3799	wounds
-4.4211	actual
-5.7440	nut
-5.4498	tent
-4.1922	host
-5.7177	barn
-4.8392	stress
-4.8146	broad
-5.2363	gross
-4.2304	companies
-5.3249	chips
-5.8020	sack
-5.7306	kicking
-7.2491	cooper
-6.1030	stink
-4.2317	recording
-4.8275	anniversary
-4.8443	expression
-4.4179	oxygen
-4.3582	paintings
-5.1557	raped
-5.6928	squeeze
-4.9963	en
-5.4857	ranch
-3.9457	directed
-5.0878	crystal
-3.7876	southern
-4.5441	di
-5.7177	whip
-6.3461	coughs
-4.9332	labor
-5.1061	relief
-6.2949	soviet
-4.3811	adult
-4.7319	scientist
-5.4166	hostage
-4.6977	wars
-6.3461	marvelous
-6.2077	fascinating
-5.1961	blade
-4.2788	upper
-4.7735	sings
-4.4631	scale
-5.6581	alike
-4.5581	response
-5.8342	drown
-6.1352	spoil
-4.4986	festival
-6.1700	fellows
-5.8512	sunshine
-5.2949	salary
-4.5249	jazz
-5.0290	palm
-4.6311	extreme
-7.2491	october
-4.0524	characters
-4.8114	fleet
-5.2157	pump
-4.5625	unable
-5.9067	luggage
-5.5679	clinic
-4.7228	visitors
-5.5249	shaking
-5.3683	sailor
-5.8020	cheated
-5.7051	pockets
-5.2669	promises
-4.6774	horror
-4.8146	eats
-4.8582	clay
-7.2491	canada
-4.0426	forms
-6.9481	stinks
-5.4040	nowadays
-6.2077	dame
-5.5502	answering
-5.4857	abandon
-4.8912	jet
-6.0731	corporal
-5.2157	washing
-5.6694	offense
-5.7440	polite
-5.0505	deeper
-5.1522	dishes
-4.3047	drama
-4.2983	minor
-4.6570	editor
-4.9796	wheels
-4.6428	roads
-6.9481	mo
-4.3967	slightly
-6.0731	ford
-5.1253	sandy
-5.8512	humble
-4.6570	throne
-5.3858	confirm
-6.9481	screeching
-5.1922	backup
-5.3096	digging
-5.9269	shave
-5.6364	sore
-5.0818	remarkable
-4.8618	driven
-5.1319	pit
-5.6928	socks
-5.3858	engagement
-6.9481	bunny
-5.2854	delay
-4.4917	colors
-5.6809	sneak
-4.5151	sung
-4.4986	typical
-4.6300	resistance
-5.6809	rub
-4.5743	environment
-5.5770	shining
-4.8130	returns
-4.5290	occurred
-4.0899	buildings
-6.2077	meantime
-5.4430	tap
-6.1030	walker
-5.4783	depressed
-7.2491	african
-5.8689	vodka
-4.7677	diet
-4.6559	heavily
-5.4103	wisdom
-5.3197	faithful
-5.7578	ripped
-6.4710	holly
-4.6249	statue
-5.5167	louder
-5.5959	defendant
-4.5176	grows
-5.5502	gently
-5.1156	manner
-4.7867	crossing
-4.1736	recent
-3.8516	groups
-4.7913	spin
-6.2949	su
-5.7720	praying
-5.7051	con
-5.6057	recommend
-5.7177	lamb
-5.4296	humor
-4.8146	pages
-7.2491	anyhow
-4.9963	pale
-5.4710	pile
-4.8243	grey
-5.2669	dropping
-6.9481	jan
-6.3461	khan
-5.5679	chaos
-5.3858	soda
-5.3461	fits
-4.5652	claims
-5.0532	jersey
-4.8210	apply
-5.6259	kisses
-5.9704	skinny
-5.2491	torn
-5.2901	academy
-4.9681	cotton
-4.5959	kings
-5.2998	intention
-6.6471	champ
-4.6916	explained
-5.0317	burnt
-4.7928	maintain
-4.9658	spider
-7.2491	brazil
-5.0238	twins
-6.2949	humming
-6.9481	honking
-4.3604	attacks
-5.3570	gloves
-4.3764	stations
-4.9547	bears
-6.9481	kay
-6.9481	dutch
-6.1700	misery
-4.8243	facing
-4.5817	sales
-4.3428	commercial
-5.5331	pan
-4.6892	drawn
-4.9107	remote
-5.3741	exam
-5.1847	phones
-4.5306	capture
-4.4681	transport
-5.0264	battery
-5.2535	cows
-4.3521	separated
-6.2077	brandy
-6.2491	buzzing
-5.9939	unfortunate
-4.7620	penis
-5.5088	profession
-6.7720	messing
-5.6057	cherry
-4.6603	classic
-5.0505	protecting
-4.9395	cemetery
-5.2117	servants
-5.0789	bid
-3.9995	musical
-6.9481	donna
-5.0789	toys
-5.3570	bee
-4.8210	plot
-4.7386	supplies
-5.2669	cared
-5.4362	parade
-5.4166	crane
-5.6364	advise
-5.2760	patch
-6.2491	envy
-5.1522	option
-4.8762	signature
-6.5502	hush
-5.7867	casino
-4.3096	increase
-4.7508	shell
-6.3461	nicely
-5.5416	drill
-4.4857	protected
-5.5770	twist
-4.4471	matches
-5.8874	temper
-6.2077	min
-5.3096	consequences
-6.0187	steak
-5.7578	dignity
-5.9269	ham
-4.8512	blocks
-4.6570	massive
-6.1352	sorrow
-4.9048	rear
-5.1156	coin
-4.6047	centuries
-6.2949	hopeless
-4.2906	recognized
-5.9269	z
-6.9481	rumbling
-5.3047	backwards
-5.3197	ashes
-6.0450	clicks
-4.7867	format
-5.3146	shocked
-5.6364	chin
-5.0136	drops
-5.1847	safely
-4.9987	wealth
-5.6364	delicate
-3.5420	population
-4.3187	medal
-5.1847	respond
-5.5416	coffin
-4.0935	introduced
-6.7720	almighty
-4.3233	compared
-5.7440	que
-5.6928	goose
-6.7720	gloria
-5.3197	comment
-4.7063	transferred
-4.2461	studies
-4.7749	entertainment
-5.7578	laughed
-5.0136	appeal
-5.7440	pill
-5.7578	sub
-4.4547	activity
-6.0187	towel
-4.9503	slide
-6.2077	ups
-5.4568	tragic
-4.3466	leaders
-4.8460	fires
-4.8726	feeding
-4.7373	faced
-4.6592	core
-4.6845	satellite
-7.2491	mick
-6.0731	motel
-6.2491	ja
-4.5104	worn
-4.5921	shortly
-5.5959	happily
-6.2491	objection
-4.9704	chapter
-5.6471	mankind
-4.5340	executive
-5.4103	breasts
-4.5598	global
-4.3515	basketball
-4.4141	serving
-4.8325	entering
-4.8035	rhythm
-5.6809	grabbed
-4.8146	nest
-4.5873	soccer
-5.1664	fried
-5.9269	betray
-5.5331	terror
-4.6928	stable
-7.2491	wh
-4.7898	experienced
-4.7592	liver
-5.2669	procedure
-5.4568	reception
-4.4179	solar
-5.7306	wreck
-6.0731	bothered
-4.3712	measure
-4.6493	illness
-4.9008	wears
-4.9727	accounts
-5.1884	talented
-5.7051	dull
-5.2760	arguing
-3.9867	retired
-5.5589	checks
-4.9939	gathered
-4.3876	appearance
-5.1773	demands
-4.2363	artists
-4.8950	dish
-4.9773	rap
-6.6471	han
-4.5399	basis
-5.9269	blanket
-5.3858	loyalty
-4.6740	unlike
-6.1030	kindly
-5.7177	fog
-6.4710	fooling
-5.0238	sticks
-5.3096	bugs
-4.9820	zoo
-5.6157	blessing
-7.2491	giggling
-5.5679	pulse
-5.2198	lamp
-5.2491	samurai
-5.0187	photographs
-5.7578	perfume
-4.9167	taxes
-5.4103	threatening
-6.4040	banging
-6.4710	december
-5.2714	abroad
-4.4519	dates
-4.1957	officially
-5.6471	burden
-5.1220	oath
-4.0830	development
-4.2355	award
-4.5373	marine
-6.7720	felix
-6.1030	bargain
-4.5706	tools
-5.1522	catching
-6.3461	rusty
-7.2491	hans
-4.9332	cooked
-4.8292	rising
-4.9127	rubber
-5.8178	kindness
-5.5010	hunger
-4.6259	positions
-5.2579	payment
-5.4296	dragged
-4.6904	scenes
-5.2321	drowned
-5.5679	faint
-5.4498	interfere
-5.9067	cellar
-7.2491	vince
-6.7720	soo
-5.6581	excitement
-6.0187	troy
-5.0161	constantly
-5.2760	dismissed
-4.6077	pattern
-4.9249	item
-5.2998	niece
-6.6471	pacific
-6.4040	ji
-5.4430	badge
-4.7974	conduct
-4.5072	goddess
-5.0477	differently
-4.9008	frog
-6.4040	gunshots
-4.5249	engines
-5.6471	smash
-6.9481	shove
-5.5010	sunny
-5.2854	toes
-4.4016	sixth
-5.3096	stepped
-5.2157	reveal
-4.5752	tennis
-5.0317	discussion
-5.1961	monsters
-4.2504	previous
-4.3870	visited
-5.6259	mob
-5.8689	assignment
-4.4173	organized
-7.2491	superman
-4.6353	gene
-4.5911	proved
-5.4166	poker
-5.5167	nails
-5.6928	ram
-4.2141	symbol
-4.8912	lighter
-5.3979	pork
-7.2491	satan
-5.6581	forgiveness
-4.6940	inner
-4.9867	republic
-5.1628	emotions
-5.2669	makeup
-5.3146	terrorists
-6.0731	homicide
-4.8358	bits
-5.8512	apology
-4.5940	soil
-4.9820	session
-6.1030	vain
-5.2624	supreme
-5.2579	masters
-5.8689	forgetting
-4.9228	sum
-4.9658	survival
-5.4362	hatred
-5.4362	scout
-5.7177	shadows
-5.3047	fathers
-5.6259	colleague
-5.3515	boot
-4.5025	discovery
-3.3699	album
-7.2491	buddha
-5.2807	senses
-5.5416	tender
-4.8726	plates
-5.1156	lap
-5.0673	arrives
-4.9008	arrival
-5.0290	deadly
-4.9228	celebration
-5.5864	understands
-4.9891	tanks
-4.8308	entry
-5.1156	boarding
-7.2491	motherfuckers
-6.2077	puppy
-4.8970	airplane
-6.2077	warren
-4.4289	shared
-5.2998	discipline
-5.0908	possession
-5.1188	tin
-6.5502	wailing
-5.6809	incredibly
-5.7440	necklace
-6.6471	warden
-5.9269	butcher
-4.7319	inches
-7.2491	rosa
-6.9481	fuss
-5.9269	happier
-5.3799	stiff
-4.7014	joining
-4.7038	belonged
-6.2949	countess
-4.6694	management
-4.4812	folk
-6.9481	european
-4.7882	temporary
-4.8082	practical
-5.3407	cent
-6.9481	asses
-5.6157	cart
-5.6928	rehearsal
-4.8409	protest
-5.1286	retreat
-5.7440	surveillance
-7.2491	scotch
-4.6536	tend
-5.3146	pistol
-3.7422	produced
-4.4296	del
-5.7051	cookie
-5.6157	flip
-5.2038	reporting
-4.8035	operate
-5.7177	bucket
-3.9016	various
-6.0450	lo
-7.2491	booze
-5.7306	inn
-5.1319	math
-6.0450	glorious
-4.9353	tons
-5.6694	disturbing
-5.4103	searched
-4.2811	acted
-4.4160	required
-5.8874	bets
-5.2669	bare
-4.9167	vast
-5.7440	crawl
-5.8874	ruby
-6.2077	chanting
-7.2491	israel
-5.8342	forbid
-4.8689	gravity
-5.2038	preparing
-4.9727	leather
-4.0993	owned
-5.5010	basket
-4.6438	nations
-4.5424	rank
-5.5249	embassy
-4.3192	branch
-4.1021	active
-4.9067	depend
-5.0588	instant
-6.7720	eyed
-6.3461	chi
-5.1922	lit
-4.9773	penalty
-5.7440	packing
-5.1736	borrowed
-5.4638	weakness
-5.2405	gum
-4.5382	attached
-4.8582	ancestors
-5.1773	personnel
-5.1922	barrel
-4.9750	drum
-5.2579	sheets
-6.2077	stare
-5.2448	potato
-4.5510	philosophy
-4.0984	causes
-5.9481	deserved
-5.2448	needle
-7.2491	allah
-5.8342	fashioned
-5.3047	heal
-5.3096	wished
-4.7522	muscle
-5.0012	cuts
-5.7578	rage
-5.2579	raid
-5.3461	daylight
-5.0423	honored
-5.8178	leak
-5.4362	blank
-5.5679	uncomfortable
-6.7720	jung
-4.8671	breast
-5.2760	flame
-3.8829	recorded
-5.1700	halfway
-5.1522	feast
-4.4103	closely
-5.1220	sorts
-5.4710	unfair
-5.7177	testimony
-5.9269	testify
-5.5249	sticking
-5.7440	complaining
-3.8762	areas
-5.6364	suspects
-6.4710	nazi
-6.3461	porter
-6.1700	ne
-6.4040	worthless
-4.5950	operations
-5.5249	tense
-5.4103	tire
-4.9416	meetings
-4.5104	marked
-6.1030	fooled
-6.3461	neat
-4.8098	amongst
-6.1352	em
-5.3979	announce
-4.8130	achieve
-4.9658	duties
-4.6694	impact
-5.0264	ideal
-6.1700	se
-4.9750	grandson
-5.3407	celebrating
-5.2077	diary
-4.6107	importance
-4.7280	steam
-5.2198	register
-5.2405	investigate
-4.3391	text
-5.6157	buffalo
-5.3461	rumors
-5.4362	approve
-4.8989	limits
-5.6364	congress
-4.1372	islands
-5.3799	deposit
-5.6694	bait
-5.5959	fist
-5.5502	carpet
-5.0999	suspected
-4.6157	intended
-5.5331	dining
-5.3461	safer
-4.6892	effective
-5.4296	toe
-5.7440	chickens
-5.2448	strikes
-3.9649	teams
-5.3047	carriage
-5.2624	burst
-5.2714	bore
-5.4857	visitor
-5.4638	dessert
-4.8051	fame
-5.8020	lean
-5.7720	awkward
-4.7958	review
-5.3096	arriving
-5.0588	rounds
-5.9939	bureau
-5.2280	proposal
-5.4103	foster
-5.1961	photographer
-6.2949	dreadful
-5.7867	jewels
-4.9147	railroad
-5.1736	treating
-5.2491	horns
-4.3912	trains
-6.2077	dime
-4.9987	immediate
-6.5502	pre
-4.8004	foundation
-5.2280	scandal
-4.9311	raw
-5.0086	grounds
-5.6809	cursed
-6.2949	lick
-4.5864	internal
-3.8431	northern
-5.4362	disturbed
-5.7867	donkey
-4.4519	causing
-5.7440	confident
-6.2491	disgrace
-6.2491	eternity
-4.5265	combination
-4.2544	method
-4.9008	sits
-6.4040	ii
-5.9269	bump
-5.2901	worm
-4.9987	silk
-4.4369	suggested
-5.6928	hooked
-5.2491	rod
-5.4231	upside
-4.4224	concept
-5.1810	conspiracy
-4.6197	critical
-5.3301	sealed
-5.1736	alpha
-4.7413	spiritual
-4.1592	comedy
-5.2077	wrapped
-5.7578	telegram
-6.3461	dong
-5.2491	prints
-4.6471	constant
-5.1628	retire
-5.5331	explode
-4.5088	lands
-4.2329	structure
-5.2901	recognise
-5.5770	tattoo
-5.6928	cookies
-5.7578	weed
-5.2949	worlds
-4.7606	sample
-6.2077	gin
-4.9107	column
-5.3515	suite
-7.2491	marshall
-5.6364	skirt
-5.8178	killers
-6.7720	raj
-5.3515	surgeon
-6.4710	bingo
-4.9353	raising
-5.7177	privacy
-5.5502	fraud
-3.8538	chemical
-4.6892	relations
-5.2491	hears
-6.0187	skies
-4.6928	communication
-4.9727	sharing
-5.0878	sheet
-5.0370	denied
-5.3096	apples
-5.2491	ladder
-6.0187	booth
-6.5502	ding
-4.3979	economy
-5.1664	plague
-4.5625	existed
-4.8477	phase
-5.8178	sunset
-3.5167	largest
-6.6471	mason
-5.1557	trucks
-4.5459	du
-4.8726	snakes
-5.2807	holidays
-5.0731	floating
-6.0450	toss
-6.3461	yu
-4.1365	defeated
-6.5502	dearest
-6.5502	fridge
-4.3723	provided
-5.9269	unto
-6.2949	pops
-5.4783	stabbed
-5.6364	obsessed
-4.9987	danced
-4.4250	racing
-5.3627	poisoned
-6.9481	faggot
-5.0789	brick
-3.3487	region
-4.0549	independent
-4.5969	content
-6.3461	growls
-7.2491	lola
-6.5502	whistles
-4.6648	require
-5.0213	democracy
-5.4103	profile
-6.7720	gal
-5.0588	reverse
-5.3146	colleagues
-5.3918	declare
-5.8874	porn
-4.8035	defence
-4.7177	planets
-5.7177	picnic
-5.0370	appropriate
-4.6869	connect
-5.2998	options
-4.0044	eastern
-5.0161	necessarily
-5.5249	clerk
-5.3047	mall
-4.5476	permanent
-6.0731	sleepy
-4.7413	somewhat
-4.5808	advanced
-5.5088	mere
-6.4710	yang
-5.8178	scar
-6.0450	embrace
-5.3047	tracking
-5.2807	elsewhere
-6.4040	sober
-4.9048	passage
-5.7051	sweep
-6.5502	handy
-4.7522	root
-4.9008	budget
-5.5249	shirts
-4.9636	promotion
-6.2077	cigar
-5.1061	whale
-4.2007	aircraft
-4.4582	height
-5.9481	annoying
-6.9481	buddies
-5.3515	log
-5.4166	wolves
-4.3799	orchestra
-6.3461	drawer
-6.4710	creep
-4.3643	develop
-5.1664	spite
-6.1700	rot
-4.4436	creating
-6.7720	graham
-4.9269	intense
-5.3858	lecture
-5.0086	drums
-5.0290	boxing
-5.3799	harbor
-6.2491	hopefully
-5.7720	complaint
-5.7051	las
-5.8342	counsel
-4.3285	limited
-4.8970	tomb
-4.7254	painter
-5.0673	repair
-5.3249	fund
-7.2491	victoria
-4.7215	executed
-4.5761	writes
-5.1061	recover
-5.7051	collar
-5.4231	lemon
-5.2157	observe
-5.7306	villa
-4.5988	affect
-5.4498	examine
-5.6928	brakes
-6.5502	muffled
-6.9481	freaking
-4.9939	strategy
-4.3052	completed
-4.6514	persons
-4.9353	creative
-6.7720	tae
-5.0343	purple
-5.5416	tapes
-5.5679	candles
-4.6385	tube
-5.4568	audition
-5.1093	solved
-4.7177	journalist
-5.1557	radar
-4.8726	reserve
-5.1557	monkeys
-6.4710	roaring
-4.7677	relationships
-4.8931	error
-5.3096	messenger
-5.8512	offended
-5.5679	wandering
-4.6928	technique
-4.5232	relative
-5.9269	terrified
-4.9636	civilization
-4.7138	coal
-5.7051	cease
-5.2077	assistance
-5.3047	strictly
-5.3741	dialogue
-5.8874	appetite
-5.5010	mortal
-4.1447	episode
-5.1961	ministry
-5.2714	cannon
-4.8707	tag
-5.2807	demons
-4.4078	winds
-4.9681	shield
-6.1700	wu
-5.4933	fears
-4.2642	function
-5.6928	motive
-5.3301	ultimate
-4.7215	worship
-5.7720	sleeps
-6.0731	locker
-7.2491	wha
-7.2491	seor
-5.3515	medication
-5.3918	laying
-4.7550	fairly
-6.6471	
-5.0187	concerns
-3.9895	oldest
-4.5864	deaths
-5.2077	rode
-5.9939	gunfire
-4.8582	abuse
-5.9269	breeze
-6.7720	korean
-5.4040	seated
-5.5416	click
-5.8512	heels
-5.2038	announcement
-4.7202	covering
-4.6037	adults
-5.0532	subway
-5.6928	pigeon
-5.0036	execution
-5.7578	swore
-5.3858	dresses
-5.1592	fee
-5.9939	dynamite
-5.1736	homeless
-4.8098	description
-5.3683	minus
-5.1847	investment
-6.0187	deed
-4.4624	creation
-5.7177	affection
-5.3979	thumb
-6.4040	dizzy
-4.6857	blues
-5.2280	choices
-4.7779	graduate
-5.4362	suggestion
-4.3332	championship
-6.1352	massage
-5.4783	les
-5.6057	kidnapping
-5.3249	arrangements
-5.4710	twisted
-5.1188	unconscious
-5.4857	grip
-4.4034	computers
-5.4498	curtain
-5.8874	privilege
-5.1488	helpful
-6.1352	prom
-5.2854	pepper
-5.0111	skill
-4.4596	ballet
-5.1628	beds
-5.1700	fighters
-7.2491	moore
-5.5959	candle
-5.2949	slight
-5.1061	vital
-5.5770	plug
-4.9658	elder
-5.1488	spotted
-4.4776	damaged
-5.6259	flames
-3.8053	types
-7.2491	homer
-5.9481	groom
-6.2077	heather
-5.7720	spoiled
-5.3515	insisted
-5.5679	reply
-4.8020	principle
-5.2321	employee
-4.8114	document
-4.7764	fur
-5.1961	believing
-6.4710	cha
-5.4568	publicity
-4.9727	discussed
-4.9820	employees
-4.5817	sequence
-5.9269	helpless
-4.7076	resources
-5.2624	sixty
-6.4710	phoenix
-4.4994	follows
-5.1700	melody
-6.0450	pillow
-3.9349	continued
-7.2491	dunno
-5.5167	emotion
-4.7346	exposed
-4.5033	outer
-4.7014	stream
-4.5817	clubs
-5.3407	bald
-4.9374	loses
-6.7720	beware
-5.3461	quote
-5.2949	bearing
-5.9067	hath
-4.8689	spots
-6.1352	sirens
-5.0999	facility
-6.3461	misunderstanding
-6.2491	dreamt
-5.5959	overnight
-4.3700	era
-4.2769	copies
-5.9067	fry
-5.9481	tub
-3.9368	established
-5.1522	sector
-6.3461	straighten
-5.3627	pm
-4.5216	chess
-5.7578	dentist
-4.7467	attracted
-4.5265	seventh
-6.6471	screwing
-6.0187	nanny
-5.7578	envelope
-5.9269	miracles
-5.9939	dummy
-4.5902	belief
-3.9727	added
-5.4857	wizard
-6.0450	lance
-5.9939	rang
-4.3086	elements
-6.1030	surprises
-4.3311	controlled
-5.1557	tables
-7.2491	january
-5.5331	psychiatrist
-5.4166	aliens
-5.2624	warriors
-5.9067	booked
-4.6717	requires
-5.5864	bench
-6.4710	excuses
-5.3515	ceiling
-6.9481	whores
-5.7867	owes
-5.0061	climbing
-5.8178	stab
-5.7867	warehouse
-5.5416	dial
-5.3741	practicing
-3.6736	published
-4.5184	improve
-4.9915	magical
-5.2714	monitor
-5.0673	mill
-4.5752	identified
-6.6471	creepy
-7.2491	napoleon
-5.4638	unexpected
-5.6471	doubts
-6.5502	cal
-4.3735	acid
-5.0938	lungs
-6.3461	lunatic
-4.5752	conflict
-5.4103	genuine
-5.7051	desires
-5.5331	jewelry
-4.8512	crashed
-5.6928	cooperate
-5.1847	conclusion
-6.7720	vera
-4.4979	instrument
-5.1156	chorus
-4.3167	author
-4.6728	visual
-5.9067	euros
-7.2491	adore
-4.8114	farmers
-5.3407	arrow
-7.2491	skipper
-6.6471	barks
-5.3918	helmet
-5.4857	reporters
-4.8912	random
-5.9269	expenses
-4.7113	administration
-4.9569	deer
-5.8020	clicking
-4.4994	dedicated
-5.6928	trousers
-3.9801	larger
-4.8292	entitled
-4.9915	regarding
-6.5502	ling
-4.6417	tribe
-4.8392	deals
-6.2949	fortunate
-5.5249	stuffed
-5.0187	respected
-6.0450	blond
-4.8226	parent
-4.4090	broadcast
-5.3301	tide
-5.1999	butterfly
-5.0505	recovered
-6.0731	gig
-4.7202	assigned
-5.3096	bold
-6.0187	obliged
-7.2491	chang
-5.5864	hostages
-4.8762	seed
-4.5883	severe
-6.2077	nap
-5.2579	hatch
-4.7426	twin
-5.5010	fixing
-6.9481	moans
-4.4257	alternative
-5.5864	lip
-5.7306	prosecutor
-6.2077	panties
-4.9127	prices
-3.5078	include
-5.4933	investigating
-5.9067	amusing
-5.1453	sailing
-6.0187	gossip
-6.0731	te
-5.4296	cruise
-4.4887	activities
-5.0908	triple
-5.9269	hawk
-3.9242	elected
-4.0210	hockey
-5.5167	shepherd
-5.9269	vanished
-4.6928	technical
-4.6037	clothing
-5.0969	chains
-7.2491	stella
-5.0673	poverty
-5.7720	parked
-4.8547	registered
-5.7867	sympathy
-5.7578	debts
-4.8618	muscles
-5.2669	overcome
-5.2363	institute
-4.5390	meets
-6.5502	lame
-5.3918	guardian
-6.9481	maniac
-4.3151	objects
-6.7720	brat
-6.5502	shan
-5.7720	greedy
-5.8689	bacon
-5.8178	bleed
-5.1386	dug
-5.2198	requested
-4.8292	galaxy
-5.2535	chased
-4.8259	depth
-5.9481	rumor
-4.4798	tournament
-6.1700	sensible
-5.6471	regards
-5.0938	bicycle
-4.7536	mid
-6.1700	despair
-6.9481	apologies
-5.4231	trailer
-5.3741	tortured
-5.8874	ape
-6.5502	fortunately
-4.6637	educated
-5.4498	pencil
-5.2669	lions
-4.9843	magazines
-4.2109	remained
-5.6928	impress
-4.9269	residence
-5.9067	murderers
-4.7793	strings
-6.0187	fingerprints
-4.8146	flood
-6.2077	jolly
-4.8912	cargo
-5.5864	hats
-5.0187	beam
-5.8512	forgiven
-4.9569	priests
-5.3918	banana
-5.5167	vault
-5.6581	illusion
-5.5864	cheek
-4.9843	portrait
-5.4362	crowded
-5.3979	technically
-5.3461	regiment
-6.2491	phoned
-4.3638	association
-5.4568	accompany
-6.0450	smarter
-5.2714	turtle
-5.7578	ginger
-5.1736	rely
-5.7578	beers
-4.4865	methods
-5.6157	shotgun
-4.5025	display
-4.9987	planted
-5.5864	coma
-5.5249	corps
-3.6698	formed
-5.5010	cured
-5.6928	bloom
-4.9987	blocked
-4.9147	infected
-4.6117	narrow
-4.8582	serial
-4.9048	heir
-6.9481	fart
-5.5502	cough
-6.9481	hooker
-6.0187	gratitude
-5.3627	volunteer
-5.7867	greet
-5.1253	revolutionary
-4.5357	radiation
-6.9481	howling
-6.1030	gamble
-4.4827	organ
-5.1156	gallery
-6.5502	losers
-4.8392	react
-4.9547	judges
-4.3439	levels
-5.7440	endless
-5.5167	backs
-5.8020	husbands
-5.4783	rolls
-4.3243	declared
-5.6694	smashed
-5.8342	relieved
-5.7440	respects
-6.0187	naive
-5.7720	starve
-4.8495	civilian
-4.5554	income
-5.4498	bean
-5.4103	heroin
-4.9228	admitted
-5.0396	custom
-5.5167	wiped
-7.2491	easter
-5.1628	gathering
-5.1061	handled
-5.8689	honorable
-5.5331	pirate
-4.6869	officials
-5.4296	certificate
-7.2491	jerusalem
-5.5864	tremendous
-4.4336	bass
-6.4710	bandits
-4.9290	strict
-5.7177	slice
-5.1961	crushed
-7.2491	pervert
-5.7867	cracked
-6.6471	smack
-5.0789	ties
-6.4040	apologise
-5.0938	harsh
-5.1592	motorcycle
-5.8874	roast
-4.8989	nearest
-7.2491	orleans
-4.5589	invasion
-5.7578	slim
-5.1999	confusion
-5.4296	threaten
-5.7578	lobby
-5.4103	sickness
-5.7720	crashing
-4.7928	platform
-4.2105	economic
-4.8689	exception
-5.1061	customs
-6.0731	ignorant
-4.3752	formula
-4.3776	liquid
-4.2019	rivers
-4.2844	solo
-5.0969	filming
-7.2491	sh
-5.4857	bounce
-5.1061	bonus
-5.1124	regard
-5.5589	tore
-4.1372	length
-4.6525	physics
-6.0731	paranoid
-5.3515	bent
-6.0731	sweater
-4.8855	designer
-6.0731	instinct
-5.1220	seeking
-4.8243	tested
-4.9187	chapel
-5.4103	meals
-5.1922	circles
-4.5998	analysis
-4.9332	cloth
-5.7306	im
-5.5416	umbrella
-4.4768	occupied
-4.3264	adopted
-6.4710	congratulate
-5.4430	dice
-5.7051	verdict
-4.7648	efforts
-5.1773	destination
-5.6259	questioning
-4.3643	electronic
-5.5959	cape
-4.6989	lung
-5.5088	ton
-4.7481	attacking
-5.5088	vampires
-5.1286	tales
-4.6342	breed
-4.9796	generations
-7.2491	manny
-4.2651	operating
-5.8689	tango
-6.2949	blackmail
-5.2949	herd
-5.7177	parole
-5.5331	guessed
-4.4895	web
-5.5331	priority
-5.7578	deeds
-5.0161	tobacco
-5.9704	curiosity
-4.9107	businessman
-4.7051	tool
-4.8194	coins
-4.9008	essential
-5.9704	nun
-4.2891	addition
-4.0093	traditional
-7.2491	stinking
-5.6157	disguise
-5.3515	den
-5.5770	ditch
-4.6077	revealed
-7.2491	oo
-5.5010	elegant
-5.3301	suggesting
-4.9311	cabinet
-4.4244	inspired
-5.4638	discussing
-4.9796	convention
-5.9704	sandwiches
-4.7578	shares
-4.6581	closest
-5.1736	missile
-7.2491	venice
-5.5589	pub
-4.5817	reaching
-5.5770	noodles
-3.8406	located
-5.6581	chew
-5.5864	razor
-6.4710	narrating
-5.5770	harmless
-5.8020	sucking
-4.5200	maximum
-5.5864	salesman
-5.8020	sausage
-5.4857	commitment
-6.0450	whisky
-5.6581	furious
-4.3985	comic
-6.4040	minded
-6.5502	slams
-6.1352	scares
-4.4147	remaining
-5.0616	brass
-5.1592	directions
-4.9963	mines
-5.0213	aggressive
-7.2491	halloween
-6.1030	doomed
-6.2077	pounding
-5.2077	sworn
-4.7495	sharks
-4.8426	minimum
-5.0161	autumn
-5.8689	assassin
-4.9773	signing
-4.9658	politicians
-5.2998	withdraw
-5.8512	frighten
-4.4761	element
-5.2760	buttons
-5.0036	destroying
-5.7720	intentions
-5.4430	swords
-5.9067	swine
-5.1922	watches
-4.7467	application
-5.5589	pace
-5.7720	preacher
-3.9647	described
-5.4362	convenient
-5.1061	tension
-6.4040	bothers
-6.7720	chen
-3.9284	replaced
-5.1488	compare
-4.6238	wooden
-5.1628	welfare
-5.0111	devoted
-4.9048	assumed
-5.1922	survivors
-5.1736	vessel
-5.3197	realised
-6.4040	bon
-5.9269	wa
-5.3799	drain
-5.4638	pond
-4.4003	fiction
-5.7578	gangster
-5.9481	butler
-6.7720	wade
-5.0396	bin
-5.9067	shrink
-4.7138	carries
-4.8292	fled
-4.8989	dam
-7.2491	alibi
-5.8178	cafe
-5.4166	harvest
-4.9613	arrangement
-5.4638	smoked
-4.6047	models
-4.9459	collapse
-4.9613	imperial
-5.0908	spinning
-5.9939	ambition
-5.1810	reads
-4.6774	controls
-4.8818	communicate
-5.2624	corporation
-5.2535	harmony
-4.6197	stores
-6.1030	rum
-5.9067	theirs
-5.0702	speaker
-5.3197	pirates
-5.5249	glove
-4.6977	violin
-5.1093	absence
-6.7720	gracious
-6.7720	behold
-6.2491	mon
-4.8799	alliance
-4.9395	companion
-4.7333	roots
-5.2949	hanged
-4.6077	literature
-5.2038	rebel
-5.1628	rains
-6.2491	moonlight
-5.4296	rented
-5.1961	fatal
-5.3570	marching
-5.3301	gut
-5.1522	bark
-5.5249	menu
-4.4047	electrical
-6.5502	pimp
-5.4710	orphan
-5.5589	unpleasant
-4.9228	defending
-5.0999	physically
-5.1522	luxury
-6.9481	broadway
-5.5770	fare
-6.0187	rabbi
-5.6581	nevertheless
-5.9704	vicious
-4.5873	candidate
-4.8989	principles
-5.2949	worms
-6.9481	kang
-5.7578	prostitute
-6.1030	respectable
-7.2491	takin
-5.3858	consciousness
-7.2491	february
-6.1030	crawling
-4.5407	formal
-3.9734	announced
-5.2714	photography
-5.5416	mouths
-4.6332	decides
-5.6581	undercover
-6.7720	compliment
-6.1030	queer
-5.1773	cocaine
-5.7177	gesture
-5.8342	risky
-5.0187	institution
-4.4880	depression
-5.9939	salute
-5.9704	nicer
-5.8689	reservation
-5.6259	salvation
-4.8004	amateur
-5.3979	riot
-6.7720	whisper
-5.3918	risks
-5.5331	cousins
-5.1124	corporate
-6.0731	racket
-5.9939	tasty
-4.2983	claimed
-4.8799	concrete
-5.5010	theft
-5.4166	swamp
-7.2491	jr
-4.9915	vegetables
-5.2238	voyage
-5.7440	saddle
-4.5424	serves
-7.2491	florence
-4.4681	musician
-5.6364	lawn
-6.3461	potter
-5.0645	shoots
-5.1386	ritual
-5.8178	sucked
-4.6249	offers
-5.4783	brutal
-5.3146	float
-5.8874	heavenly
-5.4568	cleaner
-5.2157	ammunition
-4.6008	rarely
-5.5249	oven
-5.8020	hay
-5.5770	contacts
-5.7440	savings
-7.2491	sidney
-5.7867	petty
-5.9067	waitress
-5.0560	wealthy
-4.8067	pointed
-5.6694	waking
-6.9481	morris
-5.4040	modest
-5.8020	sentimental
-5.7867	horny
-6.7720	chirping
-4.9481	grain
-4.8082	injury
-7.2491	sal
-7.2491	swiss
-4.9353	sells
-5.4933	anonymous
-4.9374	sixteen
-4.9311	bombing
-4.7189	subjects
-4.8035	expedition
-7.2491	nazis
-4.2210	stadium
-5.6809	bachelor
-5.7177	marines
-4.7764	votes
-5.4040	possessed
-4.8762	debate
-4.9636	counted
-4.8226	draft
-5.0731	mice
-5.8512	savage
-6.0450	arabic
-5.9269	ransom
-6.6471	whatsoever
-5.8512	knives
-5.9269	repay
-5.3461	persuade
-4.7691	experiments
-5.7306	spill
-5.8512	wit
-4.8989	leaf
-6.2491	roommate
-6.5502	delightful
-5.1319	seas
-4.7138	medium
-3.9197	divided
-5.5864	dock
-5.6364	proves
-5.7440	loudly
-4.7592	explains
-3.8641	performed
-5.6364	crow
-5.6928	deserted
-4.9987	advertising
-4.7592	choir
-6.6471	belle
-4.7228	attempted
-6.1030	tech
-5.4166	fireworks
-4.5761	passenger
-5.2669	conscious
-5.6694	suspicion
-6.9481	compliments
-5.7306	congressman
-5.9269	counselor
-5.0136	inspiration
-5.9067	je
-6.4040	paperwork
-5.1093	civilians
-5.3096	footage
-4.0560	generally
-5.5502	surprising
-6.2077	tick
-4.9028	ski
-4.9963	ruins
-3.8074	currently
-4.7267	weigh
-7.2491	rico
-4.5625	prey
-6.7720	venus
-7.2491	luckily
-6.0731	nightmares
-4.4940	online
-6.1352	slightest
-5.0999	scholarship
-5.4103	accomplished
-5.2714	demonstration
-4.2267	covers
-4.8114	receiving
-6.0731	lottery
-6.2077	honesty
-5.8342	jealousy
-5.5010	bubble
-6.4710	ca
-5.8342	echo
-5.7578	assured
-4.6238	kilometers
-5.2854	uniforms
-5.0818	touches
-5.8178	balcony
-4.9658	dried
-5.1156	lesbian
-5.4783	wells
-7.2491	bella
-6.4710	bandit
-7.2491	adorable
-5.0086	suspended
-5.9704	stove
-5.1592	filling
-4.3254	primary
-6.7720	rex
-5.6581	tolerate
-5.0012	samples
-5.1847	dot
-5.3858	mansion
-5.3249	flee
-4.6197	values
-4.8178	retirement
-5.9939	autograph
-5.3461	wax
-5.1557	precise
-6.6471	muslim
-5.4783	ducks
-5.6581	eager
-5.1557	funds
-4.8529	travelling
-5.6694	au
-5.6057	scent
-5.3799	remembers
-5.1773	hangs
-5.5502	drowning
-5.5167	negotiate
-5.0396	scheme
-6.7720	romans
-6.0731	arrogant
-5.0789	secretly
-4.5724	meter
-4.6614	traveled
-5.1220	resting
-4.3942	growth
-5.6364	platoon
-4.9459	laboratory
-6.1700	tricky
-5.5502	wrist
-5.4857	pension
-5.7578	cracking
-5.7720	corridor
-7.2491	marion
-4.3526	presented
-5.5679	triumph
-5.4040	reed
-5.5502	reminded
-4.9249	experts
-5.5770	sadness
-4.9481	automatic
-5.6928	amber
-6.1700	marina
-5.4857	asylum
-5.4933	creek
-4.8600	establish
-4.3348	majority
-5.3096	conquer
-5.9067	briefcase
-5.6928	quicker
-6.7720	lipstick
-5.6809	relaxed
-4.7620	household
-5.2117	handling
-6.3461	kneel
-4.3979	products
-7.2491	rattling
-5.1156	ash
-4.4186	affected
-4.6177	concentration
-5.6471	satisfaction
-4.7663	determine
-7.2491	snoring
-5.9481	mule
-5.7440	cocktail
-4.7536	signals
-5.3979	fold
-4.8146	occupation
-6.9481	kirk
-5.2077	cavalry
-5.0264	connections
-5.0477	logical
-5.4710	nurses
-5.6581	noises
-5.5010	locate
-5.5167	senate
-6.2949	thrill
-5.6694	haunted
-4.6581	behaviour
-5.5959	chairs
-4.5581	cycle
-4.6342	poems
-4.6018	volume
-5.4498	spray
-4.9773	invention
-6.3461	smiles
-4.8243	programme
-4.5940	seeds
-5.3979	possess
-5.8874	psychic
-6.1030	regrets
-7.2491	makin
-5.5416	confusing
-5.3858	cakes
-5.2077	condemned
-7.2491	trevor
-3.7749	included
-4.7346	owners
-5.0999	sole
-5.3301	learnt
-6.3461	fi
-5.4933	troubled
-5.9067	bully
-6.0450	gypsy
-4.7620	feathers
-6.0450	slaughter
-5.7867	forehead
-5.1319	submarine
-5.6364	intimate
-5.0317	rays
-5.2579	lighting
-5.0477	spreading
-5.3047	examination
-4.3576	classical
-5.7578	mini
-7.2491	presume
-4.9613	pilots
-5.1488	knights
-5.2535	tips
-5.5589	deceased
-4.5826	phrase
-4.7228	focused
-5.7578	begged
-5.1592	vulnerable
-5.4783	keen
-5.3197	static
-5.8689	spoon
-4.8512	specifically
-4.6147	earthquake
-5.3570	disco
-5.8020	magician
-4.7051	opponent
-5.6581	beautifully
-7.2491	lois
-5.1453	associate
-5.5167	clearing
-5.5770	wonders
-5.4638	cane
-4.7578	tourists
-5.6471	virtue
-5.4783	kicks
-5.7720	password
-5.4103	loads
-4.5416	via
-5.1522	shooter
-5.6259	fragile
-4.8342	rejected
-6.1352	sa
-4.5661	dated
-5.6364	proposition
-5.6809	enterprise
-5.9067	tan
-7.2491	mercedes
-4.5135	sources
-6.1030	sincere
-4.9820	legally
-5.3047	cooperation
-6.1700	hesitate
-7.2491	ming
-4.9008	mature
-6.4040	sofa
-4.5033	compete
-6.2949	curtains
-5.1628	prophet
-5.9481	stir
-4.7913	standards
-4.6364	collected
-6.3461	girlfriends
-6.3461	bartender
-3.9503	originally
-5.1386	pine
-7.2491	joker
-5.9481	fries
-5.3515	armor
-5.4231	balloon
-5.8512	wander
-5.9704	vengeance
-6.1700	fiance
-5.4857	peanut
-4.9569	scores
-6.2077	receipt
-5.2038	picks
-5.7306	altogether
-6.2949	thrilled
-5.0969	abortion
-5.6157	immortal
-5.8512	mafia
-5.9939	innocence
-4.2296	climate
-4.6332	capacity
-4.2788	multiple
-5.0789	olive
-5.2714	pointing
-7.2491	madman
-5.2901	perspective
-5.2669	objective
-5.1961	floors
-6.2491	awhile
-4.9438	logic
-5.4933	consent
-5.2669	manual
-5.3301	rolled
-5.6694	mates
-5.0878	ink
-5.1961	accidents
-5.9067	caf
-4.5715	voted
-5.5167	snack
-5.9481	pledge
-6.9481	crook
-5.1386	approval
-6.6471	yi
-5.1522	laser
-5.7306	autopsy
-6.4710	haircut
-5.8689	courtesy
-4.3582	bands
-5.2807	regulations
-5.2198	hamlet
-4.5854	races
-5.3353	rebels
-5.9067	frightening
-3.8074	aged
-4.5249	evolution
-4.6809	reaches
-6.0450	endure
-5.6694	neighbour
-5.3683	hunters
-7.2491	mia
-5.3979	shade
-4.7852	finishing
-5.2998	stamp
-5.7720	peculiar
-5.7578	orphanage
-4.3157	lasted
-5.4857	peasant
-4.7189	sentenced
-6.6471	buster
-7.2491	franois
-6.2077	beasts
-5.4362	rainbow
-5.6809	brake
-4.7852	qualified
-4.3280	wrestling
-4.3997	occur
-6.2949	accountant
-7.2491	dolly
-5.3407	delta
-4.4895	orbit
-5.2405	pulls
-4.7838	colored
-5.5589	treason
-5.5416	fork
-5.2363	refuses
-4.3116	graduated
-5.3627	hostile
-4.7076	campus
-6.2077	rig
-4.4857	represents
-4.9208	dances
-6.2077	dodge
-5.4498	communists
-5.2901	threats
-5.0532	allies
-6.6471	hereby
-5.8874	quitting
-6.4040	restless
-6.1352	wig
-5.0702	dealt
-5.8020	misses
-5.0848	maker
-5.5679	hobby
-5.3353	tails
-5.5959	spies
-5.0616	directors
-4.3991	instruments
-4.5817	reference
-4.8082	fourteen
-5.9067	devils
-5.6471	pouring
-5.2280	couples
-5.1319	feared
-5.4498	clues
-5.1847	reliable
-5.3979	complaints
-5.1592	eighteen
-6.7720	pals
-4.8098	scheduled
-4.8067	suitable
-5.4568	graduation
-6.7720	screech
-5.6259	possibilities
-5.2998	nickel
-5.2624	auto
-5.4783	needing
-4.1423	towns
-5.3858	notion
-6.2077	flush
-5.4638	feather
-5.4103	battalion
-5.4103	straw
-6.9481	sigh
-5.4231	foreigners
-5.6157	stunt
-5.3979	veins
-5.4362	pursuit
-5.3799	buys
-6.2491	scaring
-4.7793	translation
-4.7138	strongest
-7.2491	ol
-4.9915	collecting
-5.4710	maiden
-5.0532	preserve
-5.0036	universal
-5.4933	satisfy
-4.4053	approximately
-5.6581	kidnap
-4.8512	thirteen
-5.5167	owl
-7.2491	swedish
-5.3047	homeland
-5.4783	rally
-6.9481	perry
-5.7440	seize
-6.0187	guessing
-5.8874	canyon
-6.5502	ai
-5.4166	shuttle
-7.2491	campbell
-5.3979	explosives
-5.5502	lords
-5.9269	barber
-6.2949	weep
-6.0450	spying
-4.5679	symptoms
-4.7634	drivers
-5.5167	cottage
-5.3146	shorts
-5.2998	wakes
-6.6471	phony
-6.0187	cans
-4.4645	applied
-7.2491	ss
-5.9939	cheerful
-5.2491	warming
-6.6471	jeep
-6.4710	burger
-6.0187	haul
-6.6471	vous
-5.5249	neighbours
-4.8989	accurate
-5.1124	myth
-5.8178	barracks
-5.2077	recovery
-5.5679	duel
-5.5416	sour
-5.0645	exclusive
-5.5167	seventy
-4.9681	transmission
-5.8178	spike
-5.1156	throws
-5.7720	stall
-6.4040	rug
-7.2491	fletcher
-5.6928	robe
-5.2854	departure
-5.5864	confessed
-6.4040	childish
-6.5502	roars
-5.8689	ninety
-6.9481	gladly
-4.8762	assembly
-6.0187	pierce
-5.3096	fountain
-4.5080	youngest
-5.5770	heights
-5.4638	ego
-4.7793	tissue
-4.3948	independence
-5.9704	ranger
-6.6471	sherry
-5.9067	scissors
-6.6471	wretched
-5.5959	assuming
-5.6809	karate
-4.6471	measures
-5.9269	compassion
-6.2077	choke
-4.7522	convicted
-6.2077	vow
-6.2077	q
-5.1961	missiles
-5.5167	cue
-5.1188	communications
-4.4349	proposed
-4.2066	allows
-5.4166	queens
-4.7426	approved
-5.1522	bees
-5.9269	curly
-6.2077	hysterical
-5.9704	landlord
-5.4103	shiny
-4.8689	isolated
-5.6364	camel
-6.3461	outrageous
-5.8020	corpses
-4.9613	offensive
-4.8004	prior
-5.3197	melt
-5.5502	jewel
-5.4231	neighbourhood
-6.6471	freaks
-4.8653	bonds
-6.0187	ruining
-5.2998	countryside
-5.6259	swallowed
-5.6581	passionate
-4.5572	tourist
-5.8020	drunken
-5.2405	deliberately
-4.3071	cultural
-5.0731	anchor
-5.3799	rabbits
-5.8689	zip
-6.4710	morgue
-5.0969	hotels
-5.9481	quarrel
-4.1332	ruled
-5.5416	pose
-4.9525	difficulty
-5.3570	exams
-4.5048	writers
-7.2491	mona
-5.7720	shocking
-4.5502	domestic
-4.2751	carbon
-4.7882	shops
-5.7051	conversations
-6.1030	pony
-5.3301	specialist
-5.2077	assist
-6.3461	embarrass
-5.2901	altar
-5.0213	observation
-5.4166	hardest
-5.4857	struggling
-4.4122	significant
-5.3979	graves
-6.9481	jun
-6.9481	untie
-4.6228	opposed
-5.3146	convict
-5.0396	ensure
-3.8899	mainly
-4.6117	circuit
-6.2491	fianc
-4.8855	experiences
-5.3627	peasants
-7.2491	lin
-4.7164	infection
-5.4933	ashore
-4.9249	psychological
-5.4040	jar
-4.2457	appointed
-5.2901	resign
-6.9481	chopper
-5.8178	accuse
-5.5249	prayed
-5.5959	violet
-7.2491	butch
-4.7063	copper
-4.9353	switched
-6.0450	happiest
-7.2491	marvellous
-5.3858	corrupt
-4.8375	camps
-5.7306	scan
-6.7720	awaits
-4.8477	occasionally
-6.1352	tu
-6.5502	ju
-5.1736	freely
-6.0187	offend
-4.9843	journal
-4.6763	architect
-5.7867	dip
-5.4103	owed
-5.8342	inviting
-5.0187	benefits
-4.7293	travels
-5.0969	ants
-5.8020	hint
-5.9269	wired
-6.7720	ticking
-5.6471	fade
-6.3461	thanksgiving
-5.5679	ankle
-5.8020	spaghetti
-5.1664	batteries
-5.8178	knocks
-5.8178	bizarre
-5.2198	rides
-5.4430	marijuana
-5.3353	encounter
-6.3461	stew
-5.7720	stepping
-5.1352	trips
-5.9269	urge
-4.9525	cancelled
-4.6728	strongly
-6.4710	ping
-5.5010	guaranteed
-5.4040	identification
-6.1030	attic
-5.2491	costumes
-5.0036	jaw
-5.8512	sweets
-5.7578	boil
-5.4933	dolls
-6.0187	porch
-5.2854	anxiety
-4.8114	exhibition
-5.7720	noisy
-5.3570	spectacular
-4.7536	storage
-6.2077	ka
-5.5502	fulfill
-6.5502	cant
-5.5679	eighty
-4.8443	farther
-5.6581	expense
-4.6928	achieved
-5.2157	correctly
-5.8342	insulted
-7.2491	jupiter
-6.1352	sync
-4.5306	origin
-5.3096	mutual
-5.0969	visits
-4.4540	genetic
-6.1030	righteous
-5.4710	convent
-5.3353	pastor
-5.3407	massacre
-5.0423	underwater
-4.8495	sperm
-5.9939	tease
-3.9631	contains
-5.1453	rescued
-6.1030	dagger
-5.3461	caring
-5.1030	organize
-5.4362	responsibilities
-5.8178	stereo
-4.6694	battles
-5.9481	rack
-5.8178	gown
-5.4362	sacrificed
-4.4880	issued
-4.2993	contain
-4.7413	trading
-6.2949	stark
-5.7177	hairy
-5.2949	springs
-5.1156	proven
-5.3407	eliminate
-5.1961	grades
-4.7764	leap
-5.0616	posted
-4.4917	items
-4.9547	divide
-6.7720	nd
-5.2760	engage
-6.3461	plead
-5.5864	sting
-6.4040	inevitable
-5.3461	profits
-7.2491	cocks
-5.1922	lifted
-6.7720	portuguese
-4.1806	railway
-6.3461	hallway
-4.4783	performing
-6.2491	dared
-5.7051	waits
-6.3461	lordship
-6.2491	po
-6.9481	nam
-5.8178	clumsy
-5.2760	villain
-5.5864	wages
-5.8512	squadron
-5.2998	ropes
-6.9481	lu
-5.8342	mortgage
-5.3515	cord
-5.3799	rifles
-5.2901	advised
-5.3858	fails
-6.7720	tai
-6.5502	despise
-5.0588	diving
-6.0187	obsession
-5.4231	habits
-4.4028	previously
-6.5502	fainted
-6.1030	lust
-7.2491	playin
-5.1810	hospitals
-7.2491	fei
-5.1061	delayed
-5.5167	troop
-5.2807	puzzle
-5.2854	legitimate
-5.2714	lined
-5.1700	ferry
-5.0264	filed
-5.5010	woody
-7.2491	luther
-5.4430	heel
-5.4933	bolt
-4.8409	attract
-6.2077	bra
-5.9269	judging
-4.4356	label
-6.4710	sniffing
-6.5502	interrupting
-4.5208	classified
-4.5159	succeeded
-5.8512	godfather
-5.2280	catches
-6.3461	foreman
-6.1352	handkerchief
-6.7720	drake
-4.7014	colours
-5.5770	cups
-5.5249	tomato
-5.6928	betting
-5.7578	inspection
-4.5416	colony
-4.4638	industrial
-5.5010	bowling
-6.2077	sneaking
-4.9727	explore
-7.2491	christians
-5.4933	dove
-6.9481	ra
-6.4710	filth
-6.6471	tuck
-6.1700	ghetto
-5.4296	submit
-5.5589	torch
-7.2491	val
-5.9269	avenge
-5.4710	tricked
-4.5930	engineering
-5.8342	bounty
-4.6833	parliament
-5.1700	pipes
-5.2760	trumpet
-6.2949	negro
-5.5331	compromise
-4.6965	chemistry
-5.0789	outstanding
-5.0423	puppet
-6.4710	merciful
-4.8130	distinguished
-5.3096	locks
-4.4065	musicians
-6.1352	skipped
-5.4166	mole
-5.2157	wires
-5.4710	lively
-5.0086	resort
-5.2535	translate
-5.4103	waltz
-5.1557	corruption
-5.3918	witnessed
-5.2157	pursue
-5.2280	strain
-4.7076	theories
-5.6157	consideration
-4.6228	movements
-6.7720	cowards
-5.8689	civilized
-4.7101	projects
-6.2491	aspirin
-5.4166	fascist
-5.8178	perimeter
-4.9613	sought
-4.3521	gained
-5.2198	disagree
-5.2491	recipe
-6.0731	iris
-6.5502	rooster
-5.4166	breakdown
-5.0731	situations
-6.5502	tucker
-4.9820	scattered
-5.1188	targets
-5.5010	glue
-5.5088	villagers
-4.4186	annual
-5.3570	billions
-5.6057	jelly
-6.6471	dj
-7.2491	hunch
-6.0187	loneliness
-5.5331	entertain
-6.4040	mug
-5.3570	chambers
-5.8874	amazed
-5.0969	intellectual
-5.0848	ridge
-5.4166	sophisticated
-4.5340	atomic
-4.5554	nickname
-5.0290	hence
-5.9269	baggage
-5.5502	invent
-4.8618	democratic
-5.9269	desperately
-6.5502	cheque
-5.3146	thread
-5.1522	reserved
-5.0616	alcoholic
-5.9939	erase
-5.5770	salmon
-5.9481	wardrobe
-5.2405	boxer
-6.9481	patty
-5.6809	rushing
-5.7051	pudding
-7.2491	sofia
-6.6471	buzzer
-5.3858	saints
-5.9704	mechanic
-6.0731	hike
-5.2669	unlikely
-4.8243	artistic
-5.9067	scarf
-5.4638	globe
-5.9704	supervisor
-4.5484	reduced
-5.6809	swan
-4.5192	conductor
-4.6536	vehicles
-5.1736	expelled
-5.4166	reflection
-5.8342	wishing
-5.1030	restore
-6.2491	humiliated
-6.2949	smelled
-6.4710	echoing
-4.7126	constitution
-5.0532	encourage
-7.2491	squeaking
-5.8342	dragging
-5.2238	seventeen
-5.4498	tops
-4.9416	accidentally
-5.4498	ally
-5.8512	comb
-5.8178	pains
-4.6648	eighth
-6.1030	hissing
-5.7440	tearing
-5.7720	breach
-6.1030	delight
-5.7578	ninja
-5.1352	canal
-5.4857	promising
-6.6471	dispatch
-4.7898	representative
-5.7720	pronounce
-5.2901	runner
-6.1030	choking
-6.1700	messy
-5.5416	subtle
-4.2584	historical
-5.0396	wheat
-6.2949	crooked
-5.2949	adopt
-5.7440	peach
-5.4430	shrimp
-5.6581	ribs
-5.8342	evacuate
-6.9481	freaked
-5.7440	essence
-5.5010	handful
-5.9939	millionaire
-7.2491	yoo
-6.4040	retarded
-5.4430	fierce
-5.2491	explaining
-4.9228	rises
-7.2491	madison
-6.9481	seoul
-4.8226	indicate
-6.1700	popped
-5.5249	fuse
-5.5770	banker
-5.4430	quest
-5.6057	spark
-5.8874	bodyguard
-5.9269	ox
-6.3461	bracelet
-5.8020	warmth
-5.3918	failing
-5.2807	screenplay
-5.6928	expose
-7.2491	clattering
-5.2714	questioned
-5.0848	sunlight
-5.4040	shelf
-5.0136	cheaper
-4.6774	offices
-5.8874	robbing
-4.5441	peak
-5.3407	shaft
-5.4040	policemen
-5.9481	rupees
-5.6471	rash
-5.3515	examined
-5.5864	carnival
-5.7177	empress
-4.9750	blamed
-5.8178	jeans
-5.6057	glow
-6.0731	phantom
-5.2760	crab
-5.9704	unlucky
-6.4710	jammed
-4.6332	shorter
-6.7720	sip
-6.1700	roar
-6.3461	beggar
-5.2238	fortress
-4.8547	artillery
-6.9481	hearted
-5.5167	cope
-6.0731	pinch
-4.7151	organs
-5.8342	hips
-4.6559	shaped
-6.4710	griffin
-5.3979	execute
-5.0878	towers
-6.3461	sweating
-6.5502	towels
-5.9939	pumpkin
-4.7663	fastest
-5.4430	clip
-5.1922	vagina
-6.7720	prettier
-5.5088	pad
-4.7898	ninth
-7.2491	hugh
-6.2491	duchess
-6.9481	meg
-5.6809	unnecessary
-4.2993	variety
-5.2321	casualties
-6.4040	pentagon
-5.3515	mentally
-6.1700	acquaintance
-5.9269	favors
-4.9481	transportation
-4.8744	relation
-4.5697	developing
-6.0187	courtroom
-5.2491	contracts
-4.8325	cricket
-4.9939	interior
-6.4040	ar
-6.2077	lodge
-7.2491	yuri
-4.7063	frequency
-5.0616	celebrity
-5.2901	maintenance
-6.1352	dealers
-6.0731	cheeks
-6.2491	rue
-5.4783	terrorism
-5.2157	climbed
-6.5502	hack
-7.2491	feds
-4.9107	lasts
-6.0187	weekends
-6.0450	backyard
-5.9481	yacht
-6.0731	greed
-4.4329	goals
-4.2896	feature
-5.1220	spends
-6.2949	hen
-5.8342	shook
-4.5537	des
-5.7720	blessings
-4.7634	disorder
-6.1030	robbers
-5.3197	masks
-5.6157	whipped
-5.3683	sinking
-5.8689	disposal
-6.1352	sunrise
-5.2321	merchant
-5.9269	yuan
-5.9939	nailed
-5.4710	auction
-4.8989	attraction
-5.1124	rider
-5.2807	pressed
-5.4103	generator
-5.1999	finance
-6.5502	bumped
-5.5959	convincing
-6.7720	starboard
-5.2624	coordinates
-4.4948	articles
-5.9939	stern
-5.9269	agenda
-5.5679	remembering
-5.8178	resume
-4.7014	armies
-5.0560	infinite
-5.1961	definite
-4.8342	flowing
-6.6471	bailey
-5.9481	blaming
-5.5502	distress
-6.0450	instincts
-5.8874	tasted
-4.8618	primitive
-5.4166	drift
-6.2491	misfortune
-4.0962	languages
-6.2949	thirst
-5.2760	downloaded
-5.0588	equally
-5.1884	concerning
-6.5502	temptation
-4.8162	leadership
-5.3858	treats
-6.1700	vulgar
-7.2491	yan
-4.5761	promoted
-4.5208	differences
-5.7177	waist
-6.5502	creeps
-5.7720	distracted
-4.9658	dancers
-6.0450	jade
-5.7720	grasp
-6.1352	traitors
-6.9481	monte
-4.4540	depending
-6.6471	bedtime
-6.1030	utterly
-6.0450	perfection
-5.5167	allergic
-4.6592	calendar
-5.4638	heroic
-5.7720	slam
-5.3627	cardinal
-6.0187	therapist
-5.4933	guidance
-6.6471	smiled
-5.7720	onions
-6.0731	barbecue
-6.2077	whereabouts
-5.8020	sultan
-5.0370	extend
-5.9704	doom
-5.1419	baked
-7.2491	lilly
-6.4710	ke
-6.0731	superintendent
-5.6364	horizon
-5.4857	tigers
-4.5789	villages
-6.6471	shack
-6.4710	gaze
-5.7867	guinea
-5.4783	sensation
-4.7026	artificial
-5.4498	crucial
-5.4783	contacted
-4.4857	chart
-6.6471	tidy
-5.0396	monks
-6.0187	constable
-5.1922	sufficient
-4.4376	selected
-4.7928	codes
-6.9481	moustache
-6.7720	unbearable
-7.2491	chu
-4.5340	lyrics
-5.6928	behaved
-6.2077	insanity
-5.5864	pretended
-5.2998	rushed
-4.7101	memorial
-6.2491	hum
-7.2491	ying
-3.7117	province
-4.9269	injuries
-6.0187	est
-6.1030	fax
-4.6740	greatly
-6.0187	foreigner
-4.9963	vacuum
-5.6364	prosecution
-6.4040	notify
-5.8020	bribe
-6.7720	mei
-5.7720	mock
-5.9939	plea
-5.6809	flint
-5.7177	frost
-5.2901	corners
-6.1030	strawberry
-5.9704	clap
-6.1030	compartment
-5.4430	trauma
-6.1352	detectives
-6.0731	confidential
-6.5502	stoned
-5.7051	parrot
-5.0532	boiling
-4.8970	gardens
-5.5249	grenade
-5.1773	dozens
-5.8178	stray
-5.4430	axe
-6.2491	heartbeat
-7.2491	boobs
-5.8874	discount
-5.0532	freed
-4.9481	terminal
-4.0809	refer
-5.5088	herb
-5.5959	ambitious
-4.9228	shells
-6.9481	pinky
-4.9963	crop
-5.2949	paths
-4.3621	increased
-5.3683	flu
-5.1961	ignored
-5.9481	garlic
-4.4491	materials
-5.8512	kin
-5.0061	publish
-5.9704	veil
-6.9481	fa
-5.8342	robber
-5.6928	bathing
-5.0532	purchase
-5.4166	cracks
-6.9481	ty
-5.1664	interviews
-5.2321	wheelchair
-6.9481	gasp
-5.0645	collapsed
-4.8618	involve
-5.6809	setup
-6.9481	kilos
-5.9481	meaningless
-5.6694	integrity
-6.4710	wont
-5.5864	bosses
-6.3461	sew
-5.1773	permitted
-4.4582	metres
-4.7882	initial
-5.8020	thoroughly
-4.9915	reform
-6.6471	dearly
-5.7720	tomatoes
-4.9187	recommended
-6.9481	junkie
-6.9481	liu
-5.9269	sock
-5.6057	brigade
-4.8671	courts
-5.9269	spared
-5.2579	presentation
-5.5770	intact
-6.6471	agony
-5.6057	overtime
-4.3290	scored
-5.6471	stack
-6.7720	cripple
-5.2321	oak
-5.6581	stain
-4.9290	continent
-5.8020	accomplish
-5.1093	ultimately
-5.5010	reunion
-5.7440	pier
-5.5679	liking
-5.2854	ordering
-5.0969	forcing
-6.7720	deceived
-6.1700	terrifying
-4.5902	formation
-5.8689	peanuts
-6.3461	loosen
-7.2491	dum
-5.3570	comet
-5.0999	obtain
-4.8358	whereas
-5.6364	swinging
-5.8512	souvenir
-5.0532	radical
-4.4173	starring
-6.7720	piggy
-4.9547	roller
-4.7333	documentary
-5.0702	flown
-5.2901	granddaughter
-7.2491	
-5.3407	refuge
-6.9481	madonna
-5.4362	employment
-5.1557	traces
-6.2949	rag
-6.7720	vile
-5.8020	scouts
-5.5416	chewing
-5.5010	prescription
-7.2491	scram
-4.6460	branches
-4.5572	reduce
-6.2077	maestro
-5.2714	volunteers
-5.5416	registration
-5.3515	exotic
-5.0238	elephants
-5.9269	dusty
-5.9481	listens
-5.9269	hospitality
-5.9939	peel
-6.0731	behaving
-5.4296	blocking
-4.8762	monastery
-5.4103	swept
-6.4710	mai
-6.0731	heap
-6.0731	shipment
-6.4710	por
-5.1220	gasoline
-5.5167	shines
-5.7867	destined
-7.2491	ungrateful
-5.8689	pasta
-5.8874	obligation
-4.7648	versus
-5.3096	canceled
-6.3461	sincerely
-5.5864	surf
-5.7440	antique
-4.9843	efficient
-6.0731	grease
-4.8292	replacement
-5.3146	backed
-6.1700	clowns
-4.0560	hurricane
-4.9987	separation
-5.0505	drawings
-6.2077	shovel
-5.0938	cooler
-5.4231	mourning
-5.1700	statements
-5.4783	instantly
-6.1352	fades
-4.6321	visible
-5.5010	ambush
-5.3096	generals
-4.3894	edition
-4.9008	restaurants
-5.8512	superb
-5.0969	hollow
-5.4040	demanding
-5.1736	pawn
-6.7720	rendezvous
-6.1700	jingle
-4.9939	referring
-5.9481	slit
-5.7578	moose
-5.3096	healing
-5.5167	violation
-5.1124	pregnancy
-5.7051	terrace
-5.6694	knots
-5.0560	phenomenon
-5.1999	topic
-6.5502	depressing
-6.7720	handcuffs
-4.7808	sexually
-7.2491	hustle
-5.9939	mute
-4.4910	organic
-5.2714	metro
-6.2077	dash
-5.8342	detention
-5.0396	opinions
-4.5433	settlement
-6.9481	ll
-5.4710	mirrors
-6.9481	ike
-6.3461	peek
-5.9269	waving
-5.9481	deadline
-6.5502	etc
-4.9127	landscape
-5.5589	supermarket
-4.8855	burial
-7.2491	cuban
-6.6471	ammo
-5.9067	gag
-6.1352	smokes
-5.1922	regardless
-5.8020	keeper
-6.0450	notebook
-4.8178	factor
-5.3570	speeches
-5.0450	equals
-6.5502	prettiest
-5.8689	graveyard
-5.5249	spear
-6.2491	await
-6.4040	torment
-4.6928	views
-6.4710	shin
-4.6989	creates
-5.0645	vegetable
-6.7720	flattered
-5.3683	requests
-6.4040	sleeve
-5.4933	escaping
-5.5679	fitting
-6.2491	contempt
-6.0731	bunk
-5.5502	bananas
-5.3096	pressing
-5.0505	assassination
-5.8512	unemployed
-4.6626	naval
-6.2077	cunning
-6.2077	careless
-5.0317	losses
-5.0878	hometown
-5.9939	boogie
-6.9481	lan
-5.4103	bubbles
-5.8178	hose
-5.5249	visions
-4.9249	decades
-4.2993	software
-5.6694	bushes
-4.4477	printed
-6.4710	vanish
-5.1352	physician
-4.9987	slower
-5.5331	instructor
-5.9067	offence
-5.1628	flour
-5.6581	acknowledge
-5.5502	bitten
-5.1319	deepest
-5.4362	resolve
-6.7720	nan
-6.1030	pearls
-4.8098	identical
-5.7720	scars
-5.9269	womb
-4.5798	treaty
-5.2363	stamps
-6.6471	ki
-5.0616	backing
-4.9167	continuing
-5.2998	repeating
-5.0396	finals
-6.0450	carpenter
-6.3461	weary
-7.2491	stalin
-6.6471	rs
-5.6364	needles
-4.8950	preferred
-5.2117	nude
-5.8512	lent
-5.3047	opportunities
-5.4430	unite
-4.7373	opposition
-6.7720	tong
-6.1030	mattress
-5.8178	blossom
-4.6385	substance
-5.7051	disappears
-6.4040	muslims
-5.1286	poles
-5.5770	spine
-6.2077	slipping
-6.3461	jasmine
-5.4568	lightly
-6.0731	deceive
-6.1352	sadly
-5.1522	masses
-5.6581	camping
-5.6694	zombie
-6.3461	caution
-4.6705	improved
-5.9704	gardener
-6.7720	wan
-6.2077	bliss
-5.8689	saloon
-5.0616	verse
-4.4356	magnetic
-4.4316	reign
-5.5010	purely
-5.5864	charging
-5.4498	republican
-5.6364	biting
-4.8547	inherited
-5.4231	mustard
-4.6671	mechanical
-5.6057	grandchildren
-5.6809	mushrooms
-5.6157	justify
-5.9269	strangely
-6.7720	cozy
-6.3461	ce
-5.5679	token
-6.1352	archer
-5.2491	elite
-5.8874	tray
-5.9704	steer
-5.2535	craft
-6.2949	acquainted
-5.7306	flock
-5.7306	ripe
-5.1188	tubes
-5.9481	handwriting
-6.7720	hideous
-4.7333	volcano
-6.2077	addict
-5.1188	barrier
-6.2077	marquis
-5.6157	microphone
-6.7720	coop
-5.4040	ant
-4.9796	trophy
-6.0450	coroner
-6.9481	martini
-7.2491	choi
-7.2491	italians
-6.9481	chauffeur
-6.6471	popcorn
-4.8726	psychology
-4.6137	ruler
-5.7720	brute
-6.3461	hog
-5.4296	lease
-5.5502	relieve
-7.2491	squeal
-5.5959	pancakes
-7.2491	niggers
-5.2624	casting
-6.0450	lobster
-5.2949	boiled
-5.6809	potion
-7.2491	nell
-6.6471	pointless
-5.3353	authorized
-5.1352	labour
-5.5167	grapes
-5.5331	tuna
-6.1700	misunderstood
-4.8618	dwarf
-5.9704	lounge
-5.2198	robots
-5.5249	invest
-6.3461	thankful
-6.2491	rogue
-6.1700	nuisance
-5.2238	taller
-4.8950	ranks
-4.5407	insects
-4.6845	fluid
-7.2491	asian
-7.2491	mayday
-5.4857	commanding
-5.2760	witches
-4.1869	seasons
-5.3979	spice
-6.3461	whooping
-5.9939	accusing
-5.6928	fisherman
-5.5502	poster
-5.8689	shattered
-5.9939	liable
-5.3353	venture
-4.5752	additional
-4.6798	rail
-6.9481	thai
-5.4638	giants
-6.0187	timer
-5.8178	showers
-4.7620	altitude
-5.2624	sunk
-6.2949	shelly
-4.6857	toxic
-5.0370	socialist
-4.3407	politician
-5.4710	lethal
-5.0317	purposes
-5.9067	info
-5.8178	ruthless
-4.8893	automobile
-5.4933	nuns
-5.3353	adjust
-6.0187	strangled
-6.3461	bathtub
-5.0848	striking
-6.4710	parlor
-6.4040	tang
-5.3146	sticky
-6.1352	vomit
-6.2491	impatient
-5.4857	talents
-6.6471	lang
-5.5088	specialty
-5.4166	exploded
-4.6428	contained
-6.1352	slapped
-5.4040	hides
-4.0690	features
-4.8762	teaches
-6.2949	sane
-5.2624	rainy
-6.0450	montana
-5.1124	choosing
-5.5679	dose
-4.9067	kidney
-7.2491	whoops
-6.9481	gutter
-5.3146	legacy
-4.6637	diseases
-4.6428	individuals
-4.6798	selection
-6.1030	bake
-5.9067	refrigerator
-5.3515	bites
-6.1700	reckless
-6.6471	wah
